-0.624408
-0.947827
-0.966084
-0.968198
-0.964522
-0.960813
-0.957140
-0.952880
-0.947630
-0.941174
-0.933645
-0.926369
-0.922400
-0.925252
-0.933731
-0.943233
-0.951926
-0.958277
-0.963440
-0.968150
-0.972648
-0.977008
-0.981230
-0.985289
-0.989150
-0.992778
-0.996144
-0.999238
-1.002060
-1.004609
-1.006843
-1.008633
-1.009701
-1.009608
-1.008243
-1.007193
-1.005841
-1.005908
-1.007940
-1.010939
-1.014466
-1.018296
-1.022306
-1.026421
-1.030591
-1.034770
-1.038911
-1.042966
-1.046893
-1.050669
-1.054296
-1.057803
-1.061234
-1.064616
-1.067934
-1.071143
-1.074226
-1.077213
-1.080148
-1.083060
-1.085961
-1.088847
-1.091802
-1.095005
-1.098451
-1.101982
-1.105477
-1.108885
-1.112193
-1.115415
-1.118576
-1.121705
-1.124827
-1.127966
-1.131138
-1.134353
-1.137617
-1.140931
-1.144292
-1.147700
-1.151150
-1.154638
-1.158163
-1.161723
-1.165315
-1.168941
-1.172601
-1.176296
-1.180029
-1.183804
-1.187623
-1.191491
-1.195412
-1.199389
-1.203426
-1.207526
-1.211694
-1.215931
-1.220240
-1.224622
-1.229077
-1.233603
-1.238197
-1.242853
-1.247560
-1.252303
-1.257060
-1.261800
-1.266478
-1.271030
-1.275370
-1.279386
-1.282965
-1.286005
-1.288160
-1.288425
-1.285533
-1.279890
-1.274973
-1.273528
-1.274787
-1.277447
-1.274527
-1.274156
-1.284813
-1.291193
-1.294610
-1.296840
-1.299018
-1.299607
-1.297517
-1.294361
-1.289451
-1.298081
-1.296451
-1.295156
-1.301554
-1.308160
-1.300884
-1.225431
-1.244734
-1.246023
-1.240725
-1.237290
-1.242938
-1.252343
-1.262965
-1.275149
-1.289139
-1.304625
-1.320617
-1.333271
-1.340735
-1.351122
-1.358095
-1.352173
-1.345938
-1.361647
-1.363960
-1.349776
-1.397016
-1.363470
-1.371022
-1.386012
-1.370221
-1.393891
-1.395107
-1.391888
-1.395262
-1.398159
-1.401335
-1.405515
-1.411455
-1.422743
-1.469468
-1.478304
-1.537341
-1.504649
-1.510190
-1.501280
-1.492578
-1.491581
-1.493710
-1.496601
-1.499927
-1.503331
-1.506949
-1.510151
-1.514376
-1.515293
-1.523191
-1.520364
-1.531841
-1.527359
-1.540125
-1.534165
-1.548761
-1.541285
-1.548918
-1.556867
-1.553775
-1.543913
-1.606081
-1.568438
-1.562265
-1.565670
-1.568550
-1.564067
-1.591462
-1.591468
-1.582520
-1.581155
-1.585846
-1.589506
-1.581948
-1.601346
-1.591602
-1.583212
-1.593027
-1.582268
-1.564946
-1.574834
-1.588576
-1.594928
-1.596364
-1.595481
-1.592141
-1.567579
-1.515697
-1.493859
-1.487772
-1.486036
-1.486253
-1.487674
-1.489718
-1.492076
-1.494548
-1.496968
-1.499270
-1.501475
-1.503649
-1.505885
-1.508300
-1.511036
-1.514283
-1.518324
-1.523658
-1.531344
-1.544551
-1.584149
-1.606521
-1.611380
-1.637066
-1.648661
-1.666494
-1.623718
-1.672844
-1.544194
-1.574832
-1.605315
-1.664862
-1.701738
-1.686888
-1.733995
-1.872725
-1.875213
-1.876114
-1.876833
-1.877814
-1.878789
-1.879722
-1.880657
-1.881657
-1.882784
-1.884098
-1.885639
-1.887422
-1.889432
-1.891634
-1.893986
-1.896447
-1.898979
-1.901554
-1.904151
-1.906757
-1.909369
-1.911990
-1.914632
-1.917314
-1.920072
-1.922959
-1.926066
-1.929554
-1.933761
-1.939577
-1.950988
-1.975051
-1.965540
-2.005004
-1.941843
-1.940129
-1.940972
-1.941154
-1.941130
-1.941048
-1.940954
-1.940860
-1.940770
-1.940684
-1.940601
-1.940522
-1.940446
-1.940372
-1.940301
-1.940233
-1.940167
-1.940102
-1.940040
-1.939979
-1.939920
-1.939863
-1.939807
-1.939753
-1.939699
-1.939647
-1.939597
-1.939547
-1.939498
-1.939451
-1.939404
-1.939358
-1.939313
-1.939269
-1.939225
-1.939182
-1.939140
-1.939099
-1.939058
-1.939018
-1.938978
-1.938939
-1.938901
-1.938862
-1.938825
-1.938787
-1.938751
-1.938714
-1.938678
-1.938643
-1.938607
-1.938572
-1.938538
-1.938503
-1.938469
-1.938435
-1.938402
-1.938368
-1.938335
-1.938302
-1.938269
-1.938237
-1.938204
-1.938172
-1.938140
-1.938108
-1.938077
-1.938045
-1.938014
-1.937982
-1.937951
-1.937920
-1.937889
-1.937858
-1.937827
-1.937796
-1.937765
-1.937734
-1.937704
-1.937673
-1.937643
-1.937612
-1.937582
-1.937551
-1.937521
-1.937490
-1.937460
-1.937429
-1.937399
-1.937368
-1.937338
-1.937307
-1.937277
-1.937246
-1.937216
-1.937185
-1.937155
-1.937124
-1.937093
-1.937063
-1.937032
-1.937001
-1.936970
-1.936939
-1.936908
-1.936877
-1.936846
-1.936815
-1.936784
-1.936752
-1.936721
-1.936689
-1.936658
-1.936626
-1.936595
-1.936563
-1.936531
-1.936499
-1.936467
-1.936435
-1.936402
-1.936370
-1.936337
-1.936305
-1.936272
-1.936239
-1.936206
-1.936173
-1.936140
-1.936107
-1.936073
-1.936040
-1.936006
-1.935972
-1.935939
-1.935905
-1.935870
-1.935836
-1.935802
-1.935767
-1.935732
-1.935698
-1.935663
-1.935627
-1.935592
-1.935557
-1.935521
-1.935486
-1.935450
-1.935414
-1.935377
-1.935341
-1.935305
-1.935268
-1.935231
-1.935194
-1.935157
-1.935120
-1.935082
-1.935045
-1.935007
-1.934969
-1.934931
-1.934893
-1.934854
-1.934815
-1.934777
-1.934738
-1.934698
-1.934659
-1.934619
-1.934580
-1.934540
-1.934500
-1.934459
-1.934419
-1.934378
-1.934337
-1.934296
-1.934255
-1.934213
-1.934171
-1.934130
-1.934087
-1.934045
-1.934003
-1.933960
-1.933917
-1.933874
-1.933830
-1.933787
-1.933743
-1.933699
-1.933655
-1.933610
-1.933566
-1.933521
-1.933476
-1.933430
-1.933385
-1.933339
-1.933339
-1.933293
-1.933246
-1.933200
-1.933153
-1.933106
-1.933059
-1.933011
-1.932964
-1.932916
-1.932867
-1.932819
-1.932770
-1.932721
-1.932672
-1.932622
-1.932573
-1.932523
-1.932472
-1.932422
-1.932371
-1.932320
-1.932269
-1.932217
-1.932165
-1.932113
-1.932060
-1.932008
-1.931955
-1.931901
-1.931848
-1.931794
-1.931740
-1.931685
-1.931631
-1.931576
-1.931520
-1.931465
-1.931409
-1.931353
-1.931296
-1.931239
-1.931182
-1.931125
-1.931067
-1.931009
-1.930950
-1.930892
-1.930833
-1.930773
-1.930713
-1.930653
-1.930593
-1.930532
-1.930471
-1.930410
-1.930348
-1.930286
-1.930224
-1.930161
-1.930098
-1.930035
-1.929971
-1.929907
-1.929842
-1.929777
-1.929712
-1.929646
-1.929580
-1.929514
-1.929447
-1.929380
-1.929312
-1.929245
-1.929176
-1.929108
-1.929039
-1.928969
-1.928899
-1.928829
-1.928758
-1.928687
-1.928616
-1.928544
-1.928472
-1.928399
-1.928326
-1.928252
-1.928178
-1.928104
-1.928029
-1.927953
-1.927878
-1.927802
-1.927725
-1.927648
-1.927570
-1.927492
-1.927414
-1.927335
-1.927255
-1.927176
-1.927095
-1.927014
-1.926933
-1.926851
-1.926769
-1.926686
-1.926603
-1.926519
-1.926435
-1.926350
-1.926265
-1.926179
-1.926093
-1.926006
-1.925919
-1.925831
-1.925742
-1.925653
-1.925564
-1.925474
-1.925383
-1.925292
-1.925200
-1.925108
-1.925015
-1.924922
-1.924828
-1.924733
-1.924638
-1.924542
-1.924446
-1.924349
-1.924251
-1.924153
-1.924054
-1.923955
-1.923855
-1.923754
-1.923653
-1.923551
-1.923448
-1.923345
-1.923241
-1.923136
-1.923031
-1.922925
-1.922818
-1.922711
-1.922603
-1.922495
-1.922385
-1.922275
-1.922164
-1.922053
-1.921941
-1.921828
-1.921714
-1.921600
-1.921484
-1.921368
-1.921252
-1.921134
-1.921016
-1.920897
-1.920777
-1.920657
-1.920535
-1.920413
-1.920290
-1.920166
-1.920042
-1.919916
-1.919790
-1.919663
-1.919535
-1.919406
-1.919276
-1.919146
-1.919014
-1.918882
-1.918748
-1.918614
-1.918479
-1.918343
-1.918206
-1.918068
-1.917929
-1.917789
-1.917648
-1.917507
-1.917364
-1.917220
-1.917075
-1.916930
-1.916783
-1.916635
-1.916486
-1.916336
-1.916185
-1.916033
-1.915880
-1.915726
-1.915570
-1.915414
-1.915257
-1.915098
-1.914938
-1.914777
-1.914615
-1.914452
-1.914287
-1.914122
-1.913955
-1.913787
-1.913617
-1.913447
-1.913275
-1.913102
-1.912927
-1.912752
-1.912575
-1.912397
-1.912217
-1.912036
-1.911854
-1.911670
-1.911485
-1.911299
-1.911111
-1.910922
-1.910731
-1.910539
-1.910345
-1.910150
-1.909953
-1.909755
-1.909556
-1.909354
-1.909152
-1.908947
-1.908741
-1.908534
-1.908325
-1.908114
-1.907902
-1.907687
-1.907472
-1.907254
-1.907035
-1.906814
-1.906591
-1.906366
-1.906140
-1.905912
-1.905682
-1.905450
-1.905216
-1.904980
-1.904743
-1.904503
-1.904262
-1.904018
-1.903772
-1.903525
-1.903275
-1.903023
-1.902769
-1.902513
-1.902255
-1.901995
-1.901732
-1.901467
-1.901200
-1.900931
-1.900659
-1.900385
-1.900109
-1.899830
-1.899549
-1.899265
-1.898979
-1.898691
-1.898399
-1.898106
-1.897809
-1.897510
-1.897208
-1.896904
-1.896597
-1.896287
-1.895974
-1.895659
-1.895340
-1.895019
-1.894695
-1.894367
-1.894037
-1.893704
-1.893367
-1.893028
-1.892685
-1.892339
-1.891989
-1.891637
-1.891281
-1.890921
-1.890559
-1.890192
-1.889822
-1.889449
-1.889072
-1.888691
-1.888306
-1.887918
-1.887526
-1.887130
-1.886730
-1.886326
-1.885917
-1.885505
-1.885089
-1.884668
-1.884243
-1.883814
-1.883380
-1.882942
-1.882499
-1.882051
-1.881599
-1.881142
-1.880680
-1.880213
-1.879742
-1.879265
-1.878783
-1.878296
-1.877803
-1.877305
-1.876802
-1.876293
-1.875779
-1.875258
-1.874732
-1.874200
-1.873662
-1.873118
-1.872567
-1.872011
-1.871447
-1.870878
-1.870301
-1.869718
-1.869128
-1.868531
-1.867927
-1.867316
-1.866697
-1.866071
-1.865437
-1.864795
-1.864146
-1.863488
-1.862822
-1.862148
-1.861466
-1.860775
-1.860075
-1.859366
-1.858648
-1.857920
-1.857183
-1.856437
-1.855681
-1.854914
-1.854138
-1.853351
-1.852553
-1.851744
-1.850925
-1.850094
-1.849251
-1.848397
-1.847531
-1.846653
-1.845762
-1.844858
-1.843942
-1.843012
-1.842068
-1.841111
-1.840139
-1.839153
-1.838152
-1.837136
-1.836104
-1.835057
-1.833993
-1.832913
-1.831816
-1.830702
-1.829570
-1.828420
-1.827251
-1.826063
-1.824856
-1.823629
-1.822382
-1.821113
-1.819823
-1.818512
-1.817177
-1.815820
-1.814439
-1.813034
-1.811603
-1.810148
-1.808666
-1.807157
-1.805621
-1.804056
-1.802463
-1.800839
-1.799185
-1.797499
-1.795781
-1.794030
-1.792244
-1.790424
-1.788567
-1.786673
-1.784741
-1.782770
-1.780758
-1.778705
-1.776609
-1.774469
-1.772284
-1.770053
-1.767773
-1.765445
-1.763065
-1.760634
-1.758149
-1.755608
-1.753011
-1.750355
-1.747639
-1.744861
-1.742020
-1.739113
-1.736140
-1.733097
-1.729984
-1.726798
-1.723537
-1.720200
-1.716785
-1.713289
-1.709712
-1.706052
-1.702305
-1.698472
-1.694551
-1.690539
-1.686435
-1.682240
-1.677950
-1.673566
-1.669086
-1.664511
-1.659840
-1.655072
-1.650209
-1.645251
-1.640198
-1.635052
-1.629815
-1.624487
-1.619072
-1.613571
-1.607988
-1.602325
-1.596586
-1.590774
-1.584892
-1.578945
-1.572936
-1.566868
-1.560747
-1.554576
-1.548359
-1.542098
-1.535799
-1.529463
-1.523095
-1.516697
-1.510271
-1.503822
-1.503822
-1.497350
-1.490859
-1.484350
-1.477828
-1.471294
-1.464752
-1.458207
-1.451663
-1.445125
-1.438600
-1.432095
-1.425617
-1.419175
-1.412776
-1.406428
-1.400137
-1.393908
-1.387743
-1.381644
-1.375609
-1.369635
-1.363716
-1.357847
-1.352019
-1.346226
-1.340458
-1.334710
-1.328974
-1.323243
-1.317513
-1.311778
-1.306035
-1.300281
-1.294513
-1.288729
-1.282927
-1.277107
-1.271267
-1.265407
-1.259526
-1.253625
-1.247703
-1.241761
-1.235798
-1.229816
-1.223814
-1.217793
-1.211753
-1.205696
-1.199622
-1.193532
-1.187426
-1.181305
-1.175169
-1.169020
-1.162859
-1.156685
-1.150499
-1.144303
-1.138097
-1.131882
-1.125659
-1.119427
-1.113189
-1.106944
-1.100693
-1.094438
-1.088178
-1.081915
-1.075650
-1.069383
-1.063115
-1.056847
-1.050580
-1.044314
-1.038051
-1.031791
-1.025536
-1.019286
-1.013043
-1.006807
-1.000579
-0.994361
-0.988153
-0.981958
-0.975775
-0.969606
-0.963453
-0.957315
-0.951196
-0.945095
-0.939015
-0.932956
-0.926920
-0.920908
-0.914921
-0.908961
-0.903029
-0.897126
-0.891253
-0.885413
-0.879606
-0.873833
-0.868096
-0.862395
-0.856733
-0.851110
-0.845527
-0.839985
-0.834486
-0.829029
-0.823617
-0.818250
-0.812928
-0.807652
-0.802422
-0.797240
-0.792105
-0.787018
-0.781978
-0.776988
-0.772046
-0.767155
-0.762314
-0.757527
-0.752795
-0.748124
-0.743521
-0.738994
-0.734555
-0.730220
-0.726000
-0.721907
-0.717943
-0.714110
-0.710402
-0.706813
-0.703339
-0.699971
-0.696704
-0.693535
-0.690457
-0.687468
-0.684565
-0.681744
-0.679004
-0.676343
-0.673760
-0.671254
-0.668824
-0.666471
-0.664195
-0.661996
-0.659877
-0.657838
-0.655883
-0.654013
-0.652232
-0.650541
-0.648941
-0.647428
-0.645992
-0.644598
-0.643163
-0.641556
-0.639790
-0.638200
-0.636959
-0.635944
-0.635018
-0.634107
-0.633175
-0.632208
-0.631197
-0.630141
-0.629037
-0.627885
-0.626685
-0.625436
-0.624138
-0.622789
-0.621389
-0.619937
-0.618431
-0.616869
-0.615249
-0.613569
-0.611827
-0.610021
-0.608149
-0.606210
-0.604203
-0.602127
-0.599982
-0.597766
-0.595482
-0.593128
-0.590706
-0.588217
-0.585662
-0.583042
-0.580357
-0.577610
-0.574801
-0.571929
-0.568994
-0.565992
-0.562916
-0.559757
-0.556501
-0.553145
-0.550391
-0.545590
-0.533807
-0.543343
-0.517177
-0.520247
-0.524504
-0.515802
-0.517943
-0.511758
-0.511656
-0.508139
-0.506144
-0.503544
-0.501049
-0.498604
-0.496225
-0.493933
-0.491742
-0.489664
-0.487704
-0.485866
-0.484149
-0.482553
-0.481074
-0.479711
-0.478458
-0.477311
-0.476267
-0.475322
-0.474470
-0.473708
-0.473031
-0.472436
-0.471918
-0.471474
-0.471099
-0.470791
-0.470547
-0.470362
-0.470235
-0.470162
-0.470141
-0.470169
-0.470245
-0.470366
-0.470529
-0.470734
-0.470979
-0.471260
-0.471578
-0.471931
-0.472316
-0.472732
-0.473177
-0.473651
-0.474150
-0.474674
-0.475221
-0.475788
-0.476373
-0.476975
-0.477591
-0.478219
-0.478856
-0.479500
-0.480149
-0.480800
-0.481451
-0.482099
-0.482742
-0.483378
-0.484005
-0.484621
-0.485224
-0.485811
-0.486383
-0.486936
-0.487471
-0.487986
-0.488480
-0.488952
-0.489402
-0.489830
-0.490236
-0.490618
-0.490978
-0.491316
-0.491632
-0.491927
-0.492201
-0.492455
-0.492689
-0.492906
-0.493106
-0.493291
-0.493461
-0.493617
-0.493762
-0.493896
-0.494019
-0.494129
-0.494224
-0.494297
-0.494333
-0.494309
-0.494187
-0.493908
-0.493391
-0.492531
-0.491197
-0.489226
-0.486423
-0.483835
-0.485010
-0.485776
-0.487749
-0.488058
-0.417917
-0.430531
-0.426754
-0.431166
-0.431929
-0.431553
-0.430638
-0.428577
-0.424620
-0.418072
-0.408426
-0.395906
-0.381464
-0.366540
-0.352227
-0.338959
-0.326774
-0.315506
-0.304955
-0.294967
-0.285436
-0.276291
-0.267480
-0.258965
-0.250715
-0.242706
-0.234923
-0.227353
-0.219988
-0.212822
-0.205852
-0.199075
-0.192489
-0.186092
-0.179883
-0.173860
-0.168021
-0.162364
-0.156890
-0.151601
-0.146500
-0.141585
-0.136849
-0.132281
-0.127865
-0.123579
-0.119302
-0.114348
-0.108404
-0.102100
-0.095660
-0.089249
-0.082947
-0.076849
-0.071033
-0.065524
-0.060278
-0.055228
-0.050314
-0.045495
-0.040741
-0.036030
-0.031349
-0.026683
-0.022024
-0.017366
-0.012702
-0.008028
-0.003342
0.001359
0.006075
0.010809
0.015558
0.020324
0.025105
0.029899
0.034706
0.039521
0.044345
0.049173
0.054004
0.058835
0.063664
0.068488
0.073305
0.078113
0.082909
0.087691
0.092458
0.097208
0.101939
0.106650
0.111339
0.116007
0.120650
0.125269
0.129864
0.134432
0.138974
0.143490
0.147978
0.152439
0.156872
0.161277
0.165655
0.170004
0.174327
0.178608
0.182929
0.186119
0.189505
0.193800
0.196410
0.199892
0.203849
0.208630
0.212829
0.216853
0.220783
0.225190
0.229100
0.233622
0.237385
0.242015
0.245589
0.250047
0.253651
0.257569
0.261248
0.265572
0.269567
0.272810
0.276495
0.280262
0.283370
0.287658
0.290601
0.295082
0.299928
0.303759
0.306625
0.310980
0.314153
0.317886
0.320549
0.325579
0.330246
0.334912
0.339492
0.343982
0.348380
0.352692
0.356925
0.361081
0.365170
0.369190
0.373152
0.377055
0.380906
0.384704
0.388458
0.392164
0.395830
0.399454
0.403042
0.406591
0.410109
0.413591
0.417045
0.420466
0.420466
0.423860
0.427225
0.430566
0.433879
0.437170
0.440435
0.443680
0.446900
0.450101
0.453279
0.456440
0.459578
0.462701
0.465803
0.468890
0.471956
0.475009
0.478042
0.481063
0.484065
0.487055
0.490027
0.492988
0.495931
0.498863
0.501780
0.504682
0.507574
0.510443
0.513311
0.516150
0.518997
0.521831
0.524670
0.527486
0.530325
0.533117
0.535960
0.538720
0.541570
0.544306
0.547163
0.549849
0.552712
0.555417
0.558292
0.560817
0.563692
0.566619
0.569518
0.571199
0.574192
0.578002
0.579256
0.582295
0.585978
0.588133
0.590818
0.593807
0.596659
0.597966
0.600551
0.604866
0.609176
0.610466
0.612054
0.611999
0.613287
0.612880
0.613570
0.613433
0.614014
0.614036
0.614651
0.614883
0.615545
0.615965
0.616691
0.617279
0.618075
0.618806
0.619677
0.620528
0.621474
0.622426
0.623446
0.624484
0.625571
0.626683
0.627833
0.629008
0.630215
0.631446
0.632703
0.633982
0.635285
0.636607
0.637949
0.639309
0.640686
0.642079
0.643488
0.644910
0.646346
0.647793
0.649253
0.650724
0.652204
0.653694
0.655193
0.656701
0.658216
0.659738
0.661268
0.662803
0.664344
0.665891
0.667443
0.669000
0.670561
0.672127
0.673696
0.675269
0.676845
0.678424
0.680005
0.681590
0.683176
0.684765
0.686356
0.687949
0.689544
0.691140
0.692738
0.694336
0.695936
0.697537
0.699139
0.700742
0.702346
0.703950
0.705555
0.707161
0.708767
0.710373
0.711980
0.713587
0.715194
0.716802
0.718410
0.720017
0.721625
0.723233
0.724841
0.726449
0.728057
0.729665
0.731272
0.732880
0.734488
0.736095
0.737702
0.739309
0.740916
0.742523
0.744129
0.745735
0.747341
0.748947
0.750553
0.752158
0.753763
0.755368
0.756973
0.758577
0.760182
0.761786
0.763389
0.764993
0.766596
0.768199
0.769802
0.771404
0.773007
0.774609
0.776211
0.777812
0.779414
0.781015
0.782616
0.784217
0.785817
0.787418
0.789018
0.790618
0.792218
0.793818
0.795417
0.797017
0.798616
0.800215
0.801814
0.803413
0.805012
0.806610
0.808209
0.809807
0.811405
0.813004
0.814602
0.816200
0.817798
0.819395
0.820993
0.822591
0.824188
0.825786
0.827383
0.828981
0.830578
0.832176
0.833773
0.835371
0.836968
0.838565
0.840163
0.841760
0.843358
0.844955
0.846552
0.848150
0.849747
0.851345
0.852942
0.854540
0.856138
0.857735
0.859333
0.860931
0.862529
0.864127
0.865725
0.867323
0.868921
0.870520
0.872118
0.873717
0.875315
0.876914
0.878513
0.880112
0.881711
0.883310
0.884910
0.886509
0.888109
0.889709
0.891309
0.892909
0.894509
0.896109
0.897710
0.899311
0.900912
0.902513
0.904114
0.905715
0.907317
0.908919
0.910521
0.912123
0.913725
0.915328
0.916931
0.918534
0.920137
0.921740
0.923344
0.924947
0.926551
0.928156
0.929760
0.931365
0.932969
0.934575
0.936180
0.937785
0.939391
0.940997
0.942603
0.944210
0.945816
0.947423
0.949030
0.950638
0.952245
0.953853
0.955461
0.957070
0.958678
0.960287
0.961896
0.963506
0.965115
0.966725
0.968335
0.969945
0.971556
0.973167
0.974778
0.976389
0.978001
0.979613
0.981225
0.982837
0.984450
0.986062
0.987676
0.989289
0.990903
0.992517
0.994131
0.995745
0.997360
0.998975
1.000590
1.002205
1.003821
1.005437
1.007053
1.008669
1.010286
1.011903
1.013520
1.015138
1.016755
1.018373
1.019992
1.021610
1.023229
1.024848
1.026467
1.028086
1.029706
1.031326
1.032946
1.034567
1.036187
1.037808
1.039430
1.041051
1.042673
1.044294
1.045917
1.047539
1.049162
1.050784
1.052407
1.054031
1.055654
1.057278
1.058902
1.060526
1.062150
1.063775
1.065400
1.067025
1.068650
1.070276
1.071902
1.073527
1.075154
1.076780
1.078406
1.080033
1.081660
1.083287
1.084915
1.086542
1.088170
1.089798
1.091426
1.093055
1.094683
1.096312
1.097941
1.099570
1.101199
1.102829
1.104458
1.106088
1.107718
1.109348
1.110979
1.112609
1.114240
1.115871
1.117502
1.119133
1.120764
1.122396
1.124027
1.125659
1.127291
1.128923
1.130555
1.132188
1.133820
1.135453
1.137086
1.138719
1.140352
1.141985
1.143618
1.145252
1.146885
1.148519
1.150153
1.151787
1.153421
1.155055
1.156690
1.158324
1.159959
1.161593
1.163228
1.164863
1.166498
1.168133
1.169768
1.171403
1.173039
1.174674
1.176310
1.177945
1.179581
1.181217
1.182853
1.184489
1.186125
1.187761
1.189397
1.191034
1.192670
1.194306
1.195943
1.197579
1.199216
1.200853
1.202490
1.204126
1.205763
1.207400
1.209037
1.210674
1.212311
1.213949
1.215586
1.217223
1.218860
1.220498
1.222135
1.223773
1.225410
1.227048
1.228685
1.230323
1.231960
1.233598
1.235236
1.236873
1.238511
1.240149
1.241787
1.243425
1.245062
1.246700
1.248338
1.249976
1.251614
1.253252
1.254890
1.256528
1.258166
1.259804
1.261442
1.263080
1.264718
1.266356
1.267994
1.269632
1.271270
1.272908
1.274547
1.276185
1.277823
1.279461
1.281099
1.282737
1.282737
1.284375
1.286013
1.287651
1.289289
1.290927
1.292565
1.294203
1.295842
1.297480
1.299118
1.300756
1.302394
1.304032
1.305670
1.307308
1.308946
1.310584
1.312222
1.313860
1.315498
1.317135
1.318773
1.320411
1.322049
1.323687
1.325325
1.326963
1.328601
1.330238
1.331876
1.333514
1.335152
1.336790
1.338427
1.340065
1.341703
1.343340
1.344978
1.346616
1.348253
1.349891
1.351529
1.353166
1.354804
1.356441
1.358079
1.359716
1.361354
1.362991
1.364629
1.366266
1.367904
1.369541
1.371179
1.372816
1.374453
1.376091
1.377728
1.379365
1.381003
1.382640
1.384277
1.385915
1.387552
1.389189
1.390826
1.392464
1.394101
1.395738
1.397375
1.399013
1.400650
1.402287
1.403924
1.405561
1.407198
1.408836
1.410473
1.412110
1.413747
1.415384
1.417021
1.418658
1.420296
1.421933
1.423570
1.425207
1.426844
1.428481
1.430118
1.431755
1.433392
1.435030
1.436667
1.438304
1.439941
1.441578
1.443215
1.444852
1.446490
1.448127
1.449764
1.451401
1.453038
1.454675
1.456313
1.457950
1.459587
1.461224
1.462862
1.464499
1.466136
1.467774
1.469411
1.471048
1.472686
1.474323
1.475960
1.477598
1.479235
1.480873
1.482510
1.484148
1.485785
1.487423
1.489061
1.490698
1.492336
1.493974
1.495611
1.497249
1.498887
1.500525
1.502163
1.503801
1.505439
1.507077
1.508715
1.510353
1.511991
1.513629
1.515267
1.516905
1.518544
1.520182
1.521820
1.523459
1.525097
1.526736
1.528374
1.530013
1.531651
1.533290
1.534929
1.536568
1.538206
1.539845
1.541484
1.543123
1.544762
1.546402
1.548041
1.549680
1.551319
1.552959
1.554598
1.556238
1.557877
1.559517
1.561157
1.562796
1.564436
1.566076
1.567716
1.569356
1.570996
1.572637
1.574277
1.575917
1.577558
1.579198
1.580839
1.582480
1.584120
1.585761
1.587402
1.589043
1.590684
1.592325
1.593966
1.595608
1.597249
1.598891
1.600532
1.602174
1.603816
1.605458
1.607100
1.608742
1.610384
1.612026
1.613668
1.615311
1.616953
1.618596
1.620238
1.621881
1.623524
1.625167
1.626810
1.628454
1.630097
1.631740
1.633384
1.635027
1.636671
1.638315
1.639959
1.641603
1.643247
1.644891
1.646536
1.648180
1.649825
1.651470
1.653114
1.654759
1.656404
1.658050
1.659695
1.661340
1.662986
1.664632
1.666277
1.667923
1.669569
1.671215
1.672862
1.674508
1.676155
1.677801
1.679448
1.681094
1.682742
1.684388
1.686037
1.687682
1.689333
1.690976
1.692630
1.694269
1.695930
1.697560
1.699234
1.700846
1.702547
1.704119
1.705878
1.707364
1.709249
1.710540
1.712701
1.713539
1.716334
1.715943
1.720579
1.715688
1.731205
1.708534
1.738054
1.731920
1.725939
1.715518
1.703590
1.679409
1.696629
1.729234
1.727421
1.727068
1.717796
1.729439
1.725915
1.731555
1.733330
1.743365
1.740422
1.751055
1.738323
1.770834
1.773534
1.777761
1.775330
1.772188
1.768267
1.763913
1.762685
1.757375
1.752789
1.758534
1.757500
1.767055
1.756222
1.754538
1.761322
1.744944
1.757142
1.739963
1.746396
1.737963
1.739329
1.718229
1.724663
1.735004
1.727701
1.747662
1.729379
1.720140
1.728960
1.731182
1.734023
1.714424
1.738740
1.734147
1.699593
1.711280
1.715923
1.714007
1.760956
1.754821
1.751161
1.747304
1.743337
1.739633
1.736186
1.732765
1.729105
1.726894
1.720966
1.720338
1.712229
1.697458
1.711826
1.719963
1.742088
1.745210
1.726736
1.732771
1.735183
1.732749
1.703748
1.754492
1.756016
1.752031
1.748099
1.744392
1.741306
1.739958
1.740817
1.742031
1.742709
1.744286
1.741813
1.748789
1.741156
1.744642
1.754333
1.722982
1.725009
1.754403
1.735582
1.764629
1.759585
1.742115
1.774398
1.775404
1.772166
1.768630
1.766543
1.766921
1.768606
1.770038
1.771249
1.772358
1.773399
1.774390
1.775332
1.776216
1.777012
1.777650
1.778061
1.780151
1.778731
1.778904
1.790243
1.756280
1.777303
1.788318
1.799211
1.807105
1.814091
1.808758
1.804359
1.799350
1.802156
1.791422
1.802983
1.797173
1.799837
1.796457
1.809076
1.789586
1.784692
1.820229
1.824332
1.802845
1.814427
1.813995
1.806889
1.803631
1.805944
1.805198
1.816634
1.789271
1.800655
1.810063
1.833275
1.838532
1.826545
1.835336
1.830319
1.831877
1.833048
1.834479
1.835787
1.837039
1.838280
1.839511
1.840733
1.841951
1.843164
1.844373
1.845576
1.846773
1.847966
1.849153
1.850335
1.851511
1.852682
1.853847
1.855008
1.856163
1.857313
1.858458
1.859598
1.860734
1.861865
1.862992
1.864114
1.865232
1.866346
1.867456
1.868562
1.869664
1.870762
1.871857
1.872948
1.874036
1.875120
1.876201
1.877279
1.878354
1.879425
1.880493
1.881559
1.882621
1.883681
1.884738
1.885791
1.886843
1.887891
1.888937
1.889980
1.891021
1.892059
1.893094
1.894128
1.895158
1.896187
1.897212
1.898236
1.899257
1.900276
1.901293
1.902307
1.903320
1.904330
1.905338
1.906343
1.907347
1.907347
1.908348
1.909348
1.910345
1.911340
1.912333
1.913325
1.914314
1.915301
1.916286
1.917269
1.918251
1.919230
1.920207
1.921183
1.922157
1.923128
1.924098
1.925066
1.926032
1.926996
1.927959
1.928919
1.929878
1.930835
1.931790
1.932744
1.933695
1.934645
1.935593
1.936540
1.937484
1.938427
1.939368
1.940307
1.941245
1.942181
1.943115
1.944048
1.944979
1.945908
1.946835
1.947761
1.948685
1.949608
1.950529
1.951448
1.952365
1.953281
1.954196
1.955108
1.956019
1.956929
1.957837
1.958743
1.959648
1.960551
1.961452
1.962352
1.963250
1.964147
1.965042
1.965936
1.966828
1.967719
1.968608
1.969495
1.970381
1.971265
1.972148
1.973029
1.973909
1.974788
1.975664
1.976540
1.977413
1.978286
1.979157
1.980026
1.980894
1.981760
1.982625
1.983488
1.984350
1.985211
1.986070
1.986927
1.987784
1.988638
1.989492
1.990343
1.991194
1.992043
1.992890
1.993736
1.994581
1.995424
1.996266
1.997107
1.997946
1.998783
1.999620
2.000455
2.001288
2.002120
2.002951
2.003780
2.004609
2.005435
2.006260
2.007084
2.007907
2.008728
2.009548
2.010367
2.011184
2.012000
2.012814
2.013627
2.014439
2.015250
2.016059
2.016867
2.017674
2.018479
2.019283
2.020085
2.020887
2.021687
2.022486
2.023283
2.024080
2.024874
2.025668
2.026461
2.027252
2.028042
2.028830
2.029618
2.030404
2.031188
2.031972
2.032754
2.033536
2.034315
2.035094
2.035871
2.036648
2.037422
2.038196
2.038969
2.039740
2.040510
2.041279
2.042047
2.042813
2.043578
2.044342
2.045105
2.045867
2.046627
2.047387
2.048145
2.048902
2.049658
2.050412
2.051166
2.051918
2.052669
2.053419
2.054168
2.054915
2.055662
2.056407
2.057151
2.057894
2.058636
2.059377
2.060117
2.060855
2.061593
2.062329
2.063064
2.063798
2.064531
2.065263
2.065994
2.066724
2.067452
2.068180
2.068906
2.069631
2.070355
2.071078
2.071800
2.072521
2.073241
2.073960
2.074678
2.075394
2.076110
2.076825
2.077538
2.078250
2.078962
2.079672
2.080381
2.081090
2.081797
2.082503
2.083208
2.083912
2.084615
2.085317
2.086018
2.086718
2.087417
2.088115
2.088812
2.089508
2.090203
2.090897
2.091590
2.092282
2.092973
2.093663
2.094352
2.095040
2.095727
2.096413
2.097098
2.097782
2.098465
2.099147
2.099828
2.100509
2.101188
2.101866
2.102543
2.103220
2.103895
2.104570
2.105243
2.105916
2.106588
2.107258
2.107928
2.108597
2.109265
2.109932
2.110598
2.111263
2.111927
2.112591
2.113253
2.113915
2.114575
2.115235
2.115894
2.116552
2.117209
2.117865
2.118520
2.119174
2.119828
2.120480
2.121132
2.121783
2.122433
2.123082
2.123730
2.124377
2.125023
2.125669
2.126314
2.126958
2.127601
2.128243
2.128884
2.129524
2.130164
2.130803
2.131441
2.132078
2.132714
2.133349
2.133984
2.134618
2.135251
2.135883
2.136514
2.137144
2.137774
2.138403
2.139031
2.139658
2.140285
2.140910
2.141535
2.142159
2.142782
2.143405
2.144026
2.144647
2.145267
2.145886
2.146505
2.147122
2.147739
2.148355
2.148971
2.149585
2.150199
2.150812
2.151424
2.152036
2.152647
2.153257
2.153866
2.154474
2.155082
2.155689
2.156295
2.156901
2.157505
2.158109
2.158713
2.159315
2.159917
2.160518
2.161118
2.161718
2.162317
2.162915
2.163512
2.164109
2.164705
2.165300
2.165895
2.166489
2.167082
2.167674
2.168266
2.168857
2.169448
2.170037
2.170626
2.171214
2.171802
2.172389
2.172975
2.173561
2.174145
2.174730
2.175313
2.175896
2.176478
2.177059
2.177640
2.178220
2.178800
2.179378
2.179956
2.180534
2.181111
2.181687
2.182262
2.182837
2.183411
2.183985
2.184558
2.185130
2.185702
2.186272
2.186843
2.187412
2.187982
2.188550
2.189118
2.189685
2.190251
2.190817
2.191383
2.191947
2.192511
2.193075
2.193637
2.194200
2.194761
2.195322
2.195882
2.196442
2.197001
2.197560
2.198118
2.198675
2.199232
2.199788
2.200344
2.200899
2.201453
2.202007
2.202560
2.203113
2.203665
2.204216
2.204767
2.205317
2.205867
2.206416
2.206965
2.207513
2.208060
2.208607
2.209153
2.209699
2.210244
2.210789
2.211333
2.211876
2.212419
2.212962
2.213503
2.214045
2.214585
2.215126
2.215665
2.216204
2.216743
2.217281
2.217818
2.218355
2.218892
2.219428
2.219963
2.220498
2.221032
2.221566
2.222099
2.222632
2.223164
2.223696
2.224227
2.224757
2.225288
2.225817
2.226346
2.226875
2.227403
2.227931
2.228458
2.228984
2.229510
2.230036
2.230561
2.231085
2.231609
2.232133
2.232656
2.233179
2.233701
2.234222
2.234743
2.235264
2.235784
2.236304
2.236823
2.237342
2.237860
2.238378
2.238895
2.239412
2.239928
2.240444
2.240959
2.241474
2.241989
2.242502
2.243016
2.243529
2.244042
2.244554
2.245065
2.245577
2.246087
2.246598
2.247107
2.247617
2.248126
2.248634
2.249142
2.249650
2.250157
2.250664
2.251170
2.251676
2.252181
2.252686
2.253191
2.253695
2.253695
2.254198
2.254702
2.255204
2.255707
2.256209
2.256710
2.257211
2.257712
2.258212
2.258712
2.259211
2.259710
2.260209
2.260707
2.261205
2.261702
2.262199
2.262695
2.263191
2.263687
2.264182
2.264677
2.265171
2.265665
2.266159
2.266652
2.267145
2.267638
2.268130
2.268621
2.269112
2.269603
2.270094
2.270584
2.271073
2.271563
2.272051
2.272540
2.273028
2.273516
2.274003
2.274490
2.274977
2.275463
2.275949
2.276434
2.276919
2.277404
2.277888
2.278372
2.278856
2.279339
2.279822
2.280304
2.280786
2.281268
2.281749
2.282230
2.282711
2.283191
2.283671
2.284150
2.284630
2.285108
2.285587
2.286065
2.286543
2.287020
2.287497
2.287974
2.288450
2.288926
2.289402
2.289877
2.290352
2.290827
2.291301
2.291775
2.292248
2.292722
2.293195
2.293667
2.294139
2.294611
2.295083
2.295554
2.296025
2.296495
2.296966
2.297436
2.297905
2.298374
2.298843
2.299312
2.299780
2.300248
2.300716
2.301183
2.301650
2.302116
2.302583
2.303049
2.303514
2.303980
2.304445
2.304909
2.305374
2.305838
2.306302
2.306765
2.307228
2.307691
2.308154
2.308616
2.309078
2.309539
2.310001
2.310462
2.310923
2.311383
2.311843
2.312303
2.312762
2.313222
2.313680
2.314139
2.314597
2.315055
2.315513
2.315970
2.316428
2.316884
2.317341
2.317797
2.318253
2.318709
2.319164
2.319619
2.320074
2.320529
2.320983
2.321437
2.321891
2.322344
2.322797
2.323250
2.323703
2.324155
2.324607
2.325059
2.325510
2.325961
2.326412
2.326863
2.327313
2.327763
2.328213
2.328663
2.329112
2.329561
2.330010
2.330458
2.330906
2.331354
2.331802
2.332249
2.332697
2.333143
2.333590
2.334036
2.334483
2.334928
2.335374
2.335819
2.336264
2.336709
2.337154
2.337598
2.338042
2.338486
2.338929
2.339373
2.339816
2.340258
2.340701
2.341143
2.341585
2.342027
2.342469
2.342910
2.343351
2.343792
2.344232
2.344673
2.345113
2.345553
2.345992
2.346432
2.346871
2.347310
2.347748
2.348187
2.348625
2.349063
2.349500
2.349938
2.350375
2.350812
2.351249
2.351685
2.352121
2.352558
2.352993
2.353429
2.353864
2.354299
2.354734
2.355169
2.355603
2.356038
2.356472
2.356905
2.357339
2.357772
2.358205
2.358638
2.359071
2.359503
2.359936
2.360368
2.360799
2.361231
2.361662
2.362093
2.362524
2.362955
2.363385
2.363816
2.364246
2.364676
2.365105
2.365535
2.365964
2.366393
2.366821
2.367250
2.367678
2.368107
2.368534
2.368962
2.369390
2.369817
2.370244
2.370671
2.371098
2.371524
2.371950
2.372376
2.372802
2.373228
2.373653
2.374079
2.374504
2.374929
2.375353
2.375778
2.376202
2.376626
2.377050
2.377474
2.377897
2.378320
2.378744
2.379166
2.379589
2.380012
2.380434
2.380856
2.381278
2.381700
2.382121
2.382543
2.382964
2.383385
2.383806
2.384226
2.384647
2.385067
2.385487
2.385907
2.386326
2.386746
2.387165
2.387584
2.388003
2.388422
2.388840
2.389259
2.389677
2.390095
2.390513
2.390930
2.391348
2.391765
2.392182
2.392599
2.393016
2.393432
2.393849
2.394265
2.394681
2.395097
2.395513
2.395928
2.396343
2.396759
2.397174
2.397588
2.398003
2.398418
2.398832
2.399246
2.399660
2.400074
2.400487
2.400901
2.401314
2.401727
2.402140
2.402553
2.402965
2.403378
2.403790
2.404202
2.404614
2.405026
2.405437
2.405849
2.406260
2.406671
2.407082
2.407493
2.407904
2.408314
2.408724
2.409135
2.409545
2.409954
2.410364
2.410773
2.411183
2.411592
2.412001
2.412410
2.412819
2.413227
2.413636
2.414044
2.414452
2.414860
2.415268
2.415675
2.416083
2.416490
2.416897
2.417304
2.417711
2.418118
2.418524
2.418930
2.419337
2.419743
2.420149
2.420554
2.420960
2.421366
2.421771
2.422176
2.422581
2.422986
2.423391
2.423795
2.424200
2.424604
2.425008
2.425412
2.425816
2.426220
2.426623
2.427027
2.427430
2.427833
2.428236
2.428639
2.429042
2.429444
2.429847
2.430249
2.430651
2.431053
2.431455
2.431857
2.432258
2.432660
2.433061
2.433462
2.433863
2.434264
2.434665
2.435065
2.435466
2.435866
2.436266
2.436667
2.437066
2.437466
2.437866
2.438265
2.438665
2.439064
2.439463
2.439862
2.440261
2.440660
2.441058
2.441457
2.441855
2.442253
2.442651
2.443049
2.443447
2.443845
2.444242
2.444640
2.445037
2.445434
2.445831
2.446228
2.446625
2.447021
2.447418
2.447814
2.448210
2.448606
2.449002
2.449398
2.449794
2.450190
2.450585
2.450980
2.451376
2.451771
2.452166
2.452560
2.452955
2.453350
2.453744
2.454139
2.454533
2.454927
2.455321
2.455715
2.456109
2.456502
2.456896
2.457289
2.457682
2.458076
2.458469
2.458861
2.459254
2.459647
2.460039
2.460432
2.460824
2.461216
2.461608
2.462000
2.462392
2.462784
2.463175
2.463567
2.463958
2.464350
2.464741
2.465132
2.465523
2.465913
2.466304
2.466695
2.467085
2.467475
2.467866
2.468256
2.468646
2.469036
2.469425
2.469815
2.470205
2.470205
2.470594
2.470983
2.471372
2.471762
2.472151
2.472539
2.472928
2.473317
2.473705
2.474094
2.474482
2.474870
2.475258
2.475646
2.476034
2.476422
2.476810
2.477197
2.477585
2.477972
2.478359
2.478746
2.479133
2.479520
2.479907
2.480294
2.480680
2.481067
2.481453
2.481839
2.482225
2.482612
2.482997
2.483383
2.483769
2.484155
2.484540
2.484926
2.485311
2.485696
2.486081
2.486466
2.486851
2.487236
2.487621
2.488005
2.488390
2.488774
2.489159
2.489543
2.489927
2.490311
2.490695
2.491078
2.491462
2.491846
2.492229
2.492613
2.492996
2.493379
2.493762
2.494145
2.494528
2.494911
2.495294
2.495676
2.496059
2.496441
2.496823
2.497206
2.497588
2.497970
2.498352
2.498733
2.499115
2.499497
2.499878
2.500260
2.500641
2.501022
2.501404
2.501785
2.502166
2.502546
2.502927
2.503308
2.503688
2.504069
2.504449
2.504830
2.505210
2.505590
2.505970
2.506350
2.506730
2.507109
2.507489
2.507869
2.508248
2.508627
2.509007
2.509386
2.509765
2.510144
2.510523
2.510902
2.511280
2.511659
2.512038
2.512416
2.512794
2.513173
2.513551
2.513929
2.514307
2.514685
2.515063
2.515441
2.515818
2.516196
2.516573
2.516951
2.517328
2.517705
2.518082
2.518459
2.518836
2.519213
2.519590
2.519967
2.520343
2.520720
2.521096
2.521472
2.521849
2.522225
2.522601
2.522977
2.523353
2.523729
2.524104
2.524480
2.524856
2.525231
2.525607
2.525982
2.526357
2.526732
2.527107
2.527482
2.527857
2.528232
2.528607
2.528981
2.529356
2.529730
2.530105
2.530479
2.530853
2.531228
2.531602
2.531976
2.532350
2.532723
2.533097
2.533471
2.533844
2.534218
2.534591
2.534965
2.535338
2.535711
2.536084
2.536457
2.536830
2.537203
2.537576
2.537948
2.538321
2.538693
2.539066
2.539438
2.539811
2.540183
2.540555
2.540927
2.541299
2.541671
2.542043
2.542414
2.542786
2.543158
2.543529
2.543901
2.544272
2.544643
2.545014
2.545385
2.545757
2.546127
2.546498
2.546869
2.547240
2.547611
2.547981
2.548352
2.548722
2.549092
2.549463
2.549833
2.550203
2.550573
2.550943
2.551313
2.551683
2.552052
2.552422
2.552792
2.553161
2.553531
2.553900
2.554269
2.554639
2.555008
2.555377
2.555746
2.556115
2.556484
2.556852
2.557221
2.557590
2.557958
2.558327
2.558695
2.559064
2.559432
2.559800
2.560168
2.560536
2.560904
2.561272
2.561640
2.562008
2.562375
2.562743
2.563111
2.563478
2.563845
2.564213
2.564580
2.564947
2.565314
2.565681
2.566048
2.566415
2.566782
2.567149
2.567516
2.567882
2.568249
2.568615
2.568982
2.569348
2.569714
2.570081
2.570447
2.570813
2.571179
2.571545
2.571911
2.572276
2.572642
2.573008
2.573373
2.573739
2.574104
2.574470
2.574835
2.575200
2.575565
2.575931
2.576296
2.576661
2.577026
2.577390
2.577755
2.578120
2.578484
2.578849
2.579214
2.579578
2.579942
2.580307
2.580671
2.581035
2.581399
2.581763
2.582127
2.582491
2.582855
2.583219
2.583582
2.583946
2.584310
2.584673
2.585037
2.585400
2.585764
2.586127
2.586489
2.586853
2.587216
2.587579
2.587942
2.588304
2.588668
2.589031
2.589392
2.589757
2.590118
2.590480
2.590845
2.591204
2.591568
2.591931
2.592289
2.592657
2.593016
2.593375
2.593745
2.594098
2.594463
2.594830
2.595179
2.595554
2.595912
2.596262
2.596646
2.596987
2.597351
2.597733
2.598058
2.598449
2.598810
2.599132
2.599555
2.599870
2.600222
2.600655
2.600913
2.601341
2.601730
2.601958
2.602490
2.602752
2.603043
2.603642
2.603717
2.604213
2.604731
2.604666
2.605493
2.605667
2.605705
2.606825
2.606407
2.606989
2.608016
2.607046
2.608642
2.608751
2.607880
2.610585
2.608845
2.609354
2.612237
2.608627
2.611899
2.612493
2.608901
2.615499
2.611023
2.610510
2.618436
2.609740
2.613745
2.617798
2.609977
2.618089
2.615158
2.611171
2.623033
2.612700
2.614313
2.622828
2.612719
2.617894
2.620807
2.613396
2.622690
2.617760
2.615017
2.627085
2.615909
2.618405
2.625662
2.616153
2.622380
2.623359
2.616944
2.627599
2.620124
2.619271
2.630422
2.619154
2.622743
2.628349
2.619588
2.627184
2.625607
2.620634
2.632545
2.622640
2.623819
2.632903
2.622404
2.627611
2.630564
2.623029
2.632714
2.627251
2.624826
2.636965
2.625484
2.628491
2.634965
2.625740
2.632973
2.632186
2.626678
2.638528
2.628952
2.629847
2.639290
2.628543
2.633780
2.636734
2.629132
2.639091
2.633249
2.631065
2.643200
2.631549
2.634908
2.640842
2.631815
2.639728
2.637755
2.632910
2.645317
2.634699
2.636560
2.644745
2.634515
2.640955
2.641841
2.635253
2.646733
2.638188
2.638147
2.648696
2.637346
2.642227
2.645828
2.637824
2.647729
2.642162
2.639726
2.652118
2.640255
2.643839
2.649423
2.640472
2.649056
2.645979
2.641768
2.654585
2.643137
2.645875
2.652772
2.643090
2.650893
2.649386
2.644104
2.656843
2.646006
2.648054
2.656007
2.645721
2.645721
2.652919
2.652611
2.646561
2.659059
2.648886
2.650282
2.659171
2.648371
2.655035
2.655731
2.649079
2.661262
2.651779
2.652539
2.662268
2.651029
2.657226
2.658756
2.651632
2.663491
2.654660
2.654842
2.665269
2.653683
2.659517
2.661661
2.654203
2.665814
2.657475
2.657233
2.668135
2.656313
2.661947
2.664416
2.656780
2.668297
2.660164
2.659752
2.670844
2.658902
2.664544
2.667006
2.659353
2.670984
2.662689
2.662426
2.673381
2.661442
2.667329
2.669416
2.661925
2.673896
2.665044
2.665281
2.675704
2.663928
2.670353
2.671600
2.664507
2.677060
2.667234
2.668365
2.677702
2.666357
2.673735
2.673435
2.667151
2.680494
2.669295
2.671727
2.679214
2.668759
2.677631
2.674740
2.670052
2.683921
2.671385
2.675240
2.680387
2.671279
2.681745
2.675804
2.673496
2.686381
2.673590
2.678785
2.681857
2.673857
2.685658
2.677202
2.677189
2.687936
2.675798
2.682704
2.683233
2.676440
2.689786
2.678734
2.681151
2.688710
2.678019
2.687438
2.683778
2.679539
2.693645
2.680576
2.685161
2.689085
2.680614
2.692184
2.684247
2.683777
2.695072
2.682580
2.689518
2.689999
2.683219
2.696789
2.685388
2.688272
2.695140
2.684683
2.695016
2.689866
2.686710
2.700535
2.687148
2.692585
2.695147
2.687431
2.699917
2.690250
2.691613
2.700682
2.688993
2.698034
2.695215
2.690332
2.704832
2.691521
2.696430
2.699827
2.691537
2.703896
2.694686
2.695522
2.705342
2.693218
2.701994
2.699643
2.694463
2.709034
2.695711
2.700727
2.703978
2.695695
2.708363
2.698703
2.700010
2.709240
2.697287
2.706806
2.703293
2.698882
2.713475
2.699751
2.705381
2.707555
2.700017
2.713094
2.702420
2.705048
2.712362
2.701262
2.712456
2.706203
2.703891
2.717436
2.703637
2.710467
2.710850
2.704370
2.718137
2.706004
2.710414
2.714928
2.705371
2.718472
2.708849
2.709831
2.719695
2.707208
2.717016
2.713114
2.709046
2.723624
2.709584
2.716009
2.716888
2.710164
2.723847
2.711834
2.716307
2.720752
2.711090
2.724628
2.714425
2.716040
2.725056
2.712828
2.723704
2.718156
2.715357
2.729341
2.715160
2.722524
2.721971
2.716194
2.730184
2.717221
2.723103
2.725213
2.717056
2.731613
2.719323
2.723551
2.728418
2.718414
2.732177
2.721750
2.723701
2.732262
2.720077
2.731850
2.724944
2.723366
2.736373
2.722277
2.730897
2.728548
2.723903
2.738142
2.724251
2.731533
2.731241
2.724975
2.739645
2.726111
2.732502
2.733693
2.726218
2.741107
2.727939
2.733589
2.736052
2.727566
2.742502
2.729769
2.734713
2.738411
2.728975
2.743822
2.731632
2.735809
2.740842
2.730445
2.745004
2.733577
2.736800
2.743445
2.731996
2.745935
2.735695
2.737587
2.746324
2.733694
2.746454
2.738119
2.738138
2.749388
2.735593
2.746625
2.740787
2.738810
2.751908
2.737493
2.747233
2.743109
2.740024
2.753582
2.739200
2.748551
2.744994
2.741413
2.755314
2.740837
2.750039
2.746655
2.743012
2.756873
2.742410
2.751727
2.748175
2.744661
2.758486
2.743958
2.753480
2.749598
2.746416
2.759999
2.745475
2.755333
2.750960
2.748200
2.761524
2.746982
2.757221
2.752285
2.750044
2.762976
2.748474
2.759174
2.753581
2.751917
2.764402
2.749957
2.761166
2.754853
2.753842
2.765751
2.751427
2.763230
2.756090
2.755829
2.767010
2.752880
2.765390
2.757273
2.757924
2.768102
2.754308
2.767718
2.758358
2.760220
2.768874
2.755711
2.770341
2.759281
2.762910
2.768974
2.757185
2.773395
2.760032
2.766224
2.767867
2.759464
2.776139
2.760940
2.769571
2.766546
2.763335
2.776305
2.761843
2.773168
2.766576
2.766003
2.777440
2.762961
2.776160
2.766928
2.769230
2.777081
2.764130
2.779917
2.767207
2.773055
2.775405
2.766123
2.783527
2.767853
2.777000
2.772837
2.771310
2.782388
2.768504
2.781615
2.772454
2.774499
2.782826
2.769441
2.785458
2.772436
2.778997
2.780114
2.771797
2.789252
2.773052
2.783088
2.777202
2.778186
2.786161
2.773594
2.788975
2.776453
2.782452
2.784591
2.775205
2.793266
2.776846
2.787031
2.780692
2.782599
2.789222
2.777363
2.793568
2.779732
2.787498
2.786461
2.780201
2.796800
2.780293
2.791736
2.783657
2.787493
2.791834
2.781054
2.798679
2.782875
2.792981
2.787265
2.787608
2.796751
2.783140
2.799055
2.785854
2.793392
2.792838
2.785831
2.803296
2.786272
2.797988
2.788981
2.794960
2.795876
2.787706
2.805404
2.788473
2.800162
2.791259
2.797007
2.798288
2.789761
2.807681
2.790633
2.802477
2.793225
2.799665
2.799860
2.792264
2.809928
2.792704
2.804992
2.794989
2.802632
2.801016
2.795112
2.811910
2.794671
2.807679
2.796777
2.805446
2.802380
2.797944
2.813684
2.796592
2.810450
2.798639
2.808094
2.803931
2.800751
2.815310
2.798488
2.813311
2.800514
2.810747
2.805411
2.803812
2.816519
2.800299
2.816508
2.802335
2.813556
2.806530
2.807670
2.816542
2.802072
2.820517
2.804072
2.816791
2.816791
2.806575
2.814014
2.812817
2.806282
2.823950
2.805975
2.819860
2.807005
2.819627
2.810180
2.814674
2.818688
2.807064
2.827263
2.808890
2.822376
2.809380
2.823238
2.811807
2.819515
2.818281
2.811519
2.829749
2.811350
2.825565
2.811762
2.826416
2.813825
2.823614
2.818808
2.816603
2.830108
2.813028
2.830336
2.814303
2.829105
2.815936
2.827733
2.819427
2.822592
2.828463
2.815265
2.835981
2.817197
2.831895
2.817010
2.833665
2.818254
2.832634
2.820010
2.831004
2.823862
2.825297
2.833719
2.818732
2.839298
2.820565
2.836283
2.820366
2.837930
2.821275
2.837658
2.821998
2.837915
2.822958
2.837696
2.824329
2.836705
2.827008
2.833029
2.833988
2.824706
2.845171
2.825522
2.840770
2.824097
2.843890
2.825230
2.843233
2.825234
2.844321
2.825824
2.844568
2.826110
2.845212
2.826546
2.845624
2.826878
2.846141
2.827252
2.846568
2.827568
2.847026
2.827890
2.847429
2.828162
2.847839
2.828422
2.848198
2.828619
2.848552
2.828789
2.848838
2.828857
2.849110
2.828875
2.849263
2.828677
2.849400
2.828408
2.849238
2.827421
2.849154
2.826349
2.848144
2.820398
2.855299
2.805569
2.830396
2.841743
2.849145
2.798957
2.839119
2.792581
2.796799
2.856607
2.811610
2.809955
2.797315
2.810963
2.758203
2.744877
2.815332
2.796671
2.776477
2.760859
2.767249
2.753094
2.762103
2.773240
2.780764
2.771735
2.790831
2.804678
2.794859
2.795188
2.783325
2.768996
2.830928
2.814725
2.790120
2.791178
2.790366
2.867482
2.836085
2.803671
2.779349
2.787177
2.854655
2.994543
2.894848
2.832983
2.875418
2.822198
2.844844
2.814940
2.875765
2.879347
2.865491
2.849380
2.855572
2.893262
2.877657
2.966988
2.951367
3.036287
2.913816
3.114759
3.015466
3.017941
2.984376
3.006281
3.015668
2.995087
3.056084
2.997896
3.033716
3.152605
3.276266
3.210471
3.112027
3.082385
3.093769
3.131717
3.159915
3.217421
3.180272
3.300925
3.253696
3.132304
3.131684
3.223463
3.193424
3.241444
3.237291
3.295627
3.264086
3.412044
3.387034
3.294449
3.263670
3.246491
3.411545
3.305595
3.324003
3.525496
3.428311
3.348491
3.304083
3.208495
3.363562
3.325734
3.403503
3.358571
3.278933
3.370272
3.603569
3.492551
3.397770
3.295002
3.333978
3.345642
3.709441
3.642193
3.582364
3.546317
3.529650
3.523630
3.522970
3.524965
3.528262
3.532182
3.536381
3.540683
3.544998
3.549278
3.553500
3.557651
3.561722
3.565710
3.569612
3.573424
3.577144
3.580764
3.584280
3.587681
3.590954
3.594077
3.597021
3.599734
3.602129
3.604044
3.605119
3.604360
3.597849
3.592265
3.606172
3.701327
4.201115
4.271090
4.235809
4.069549
4.294607
4.264894
4.174769
4.734280
4.506691
4.455893
4.313998
4.249347
4.336543
4.292803
4.219359
4.297016
4.192580
4.211026
4.099441
4.367331
4.381377
4.351135
4.203404
4.157437
4.337947
4.264230
4.165533
4.264114
4.091204
4.261054
4.235870
4.148698
4.120217
4.514807
4.512987
4.447364
4.416761
4.324577
4.209451
4.121316
4.147009
4.002810
4.108493
4.260285
4.215851
4.092364
3.977329
4.036650
4.315619
4.238046
4.133383
4.089673
4.003357
4.172253
4.094667
4.038634
4.479472
4.427173
4.417085
4.468499
4.489535
4.470413
4.611407
4.605022
4.602018
4.577040
4.612322
4.585309
4.628969
4.618127
4.615495
4.591169
4.628718
4.616322
4.611881
4.587106
4.622669
4.610168
4.606078
4.584682
4.611060
4.600236
4.582175
4.582887
4.520195
4.566116
4.510682
4.588681
4.566043
4.500970
4.588956
4.556135
4.603756
4.591418
4.582715
4.573732
4.570128
4.560417
4.567690
4.524939
4.551924
4.555306
4.521306
4.438479
4.577643
4.568657
4.557314
4.545561
4.534712
4.524044
4.514391
4.506857
4.501738
4.498532
4.496473
4.494954
4.493632
4.492369
4.491138
4.489957
4.488856
4.487856
4.486970
4.486197
4.485534
4.484972
4.484502
4.484114
4.483800
4.483554
4.483369
4.483241
4.483164
4.483136
4.483154
4.483213
4.483313
4.483450
4.483623
4.483829
4.484066
4.484334
4.484630
4.484952
4.485299
4.485670
4.486064
4.486477
4.486911
4.487362
4.487830
4.488314
4.488813
4.489324
4.489849
4.490384
4.490931
4.491486
4.492050
4.492622
4.493201
4.493786
4.494377
4.494972
4.495572
4.496176
4.496782
4.497391
4.498002
4.498615
4.499229
4.499844
4.500459
4.501075
4.501690
4.502305
4.502919
4.503532
4.504144
4.504755
4.505364
4.505971
4.506576
4.507180
4.507781
4.508380
4.508976
4.509570
4.510162
4.510750
4.511337
4.511920
4.512500
4.513078
4.513653
4.514225
4.514794
4.515360
4.515923
4.516483
4.517040
4.517594
4.518145
4.518693
4.519238
4.519780
4.520319
4.520855
4.521388
4.521919
4.522446
4.522970
4.523491
4.524010
4.524526
4.525038
4.525548
4.526055
4.526560
4.527061
4.527560
4.528056
4.528550
4.529041
4.529529
4.530014
4.530497
4.530978
4.531455
4.531931
4.532404
4.532404
4.532874
4.533342
4.533807
4.534270
4.534731
4.535189
4.535645
4.536099
4.536550
4.536999
4.537446
4.537890
4.538333
4.538773
4.539211
4.539647
4.540081
4.540513
4.540942
4.541370
4.541795
4.542219
4.542640
4.543060
4.543478
4.543893
4.544307
4.544719
4.545129
4.545537
4.545943
4.546348
4.546750
4.547151
4.547550
4.547947
4.548343
4.548737
4.549129
4.549519
4.549908
4.550295
4.550680
4.551064
4.551446
4.551826
4.552205
4.552583
4.552958
4.553333
4.553705
4.554076
4.554446
4.554814
4.555181
4.555546
4.555910
4.556272
4.556633
4.556992
4.557350
4.557707
4.558062
4.558416
4.558768
4.559119
4.559469
4.559818
4.560165
4.560510
4.560855
4.561198
4.561540
4.561881
4.562220
4.562558
4.562895
4.563231
4.563565
4.563899
4.564231
4.564561
4.564891
4.565220
4.565547
4.565873
4.566198
4.566522
4.566845
4.567167
4.567487
4.567807
4.568125
4.568442
4.568758
4.569073
4.569388
4.569701
4.570013
4.570323
4.570633
4.570942
4.571250
4.571557
4.571863
4.572168
4.572471
4.572774
4.573076
4.573377
4.573677
4.573976
4.574274
4.574571
4.574868
4.575163
4.575457
4.575751
4.576043
4.576335
4.576626
4.576916
4.577205
4.577493
4.577780
4.578067
4.578352
4.578637
4.578921
4.579204
4.579486
4.579767
4.580048
4.580327
4.580606
4.580884
4.581162
4.581438
4.581714
4.581989
4.582263
4.582536
4.582809
4.583081
4.583352
4.583622
4.583892
4.584161
4.584429
4.584696
4.584963
4.585229
4.585494
4.585759
4.586022
4.586286
4.586548
4.586810
4.587071
4.587331
4.587591
4.587850
4.588108
4.588365
4.588622
4.588879
4.589134
4.589389
4.589644
4.589897
4.590150
4.590403
4.590654
4.590906
4.591156
4.591406
4.591655
4.591904
4.592152
4.592399
4.592646
4.592893
4.593138
4.593383
4.593628
4.593872
4.594115
4.594358
4.594600
4.594842
4.595083
4.595323
4.595563
4.595802
4.596041
4.596279
4.596517
4.596754
4.596991
4.597227
4.597463
4.597698
4.597932
4.598166
4.598400
4.598633
4.598865
4.599097
4.599328
4.599559
4.599790
4.600020
4.600249
4.600478
4.600706
4.600934
4.601162
4.601389
4.601615
4.601841
4.602067
4.602292
4.602516
4.602741
4.602964
4.603187
4.603410
4.603633
4.603854
4.604076
4.604297
4.604517
4.604737
4.604957
4.605176
4.605395
4.605613
4.605831
4.606049
4.606266
4.606482
4.606699
4.606914
4.607130
4.607345
4.607559
4.607773
4.607987
4.608201
4.608413
4.608626
4.608838
4.609050
4.609261
4.609472
4.609683
4.609893
4.610103
4.610312
4.610521
4.610730
4.610938
4.611146
4.611354
4.611561
4.611767
4.611974
4.612180
4.612386
4.612591
4.612796
4.613001
4.613205
4.613409
4.613612
4.613816
4.614018
4.614221
4.614423
4.614625
4.614826
4.615028
4.615228
4.615429
4.615629
4.615829
4.616028
4.616228
4.616426
4.616625
4.616823
4.617021
4.617219
4.617416
4.617613
4.617809
4.618006
4.618202
4.618397
4.618593
4.618788
4.618982
4.619177
4.619371
4.619565
4.619758
4.619952
4.620144
4.620337
4.620529
4.620722
4.620913
4.621105
4.621296
4.621487
4.621677
4.621868
4.622058
4.622248
4.622437
4.622626
4.622815
4.623004
4.623192
4.623380
4.623568
4.623756
4.623943
4.624130
4.624317
4.624503
4.624690
4.624876
4.625061
4.625247
4.625432
4.625617
4.625802
4.625986
4.626170
4.626354
4.626538
4.626721
4.626904
4.627087
4.627270
4.627452
4.627634
4.627816
4.627998
4.628180
4.628361
4.628542
4.628722
4.628903
4.629083
4.629263
4.629443
4.629622
4.629802
4.629981
4.630160
4.630338
4.630517
4.630695
4.630873
4.631050
4.631228
4.631405
4.631582
4.631759
4.631936
4.632112
4.632288
4.632464
4.632640
4.632815
4.632991
4.633166
4.633341
4.633515
4.633690
4.633864
4.634038
4.634212
4.634385
4.634559
4.634732
4.634905
4.635078
4.635250
4.635422
4.635595
4.635767
4.635938
4.636110
4.636281
4.636452
4.636623
4.636794
4.636965
4.637135
4.637305
4.637475
4.637645
4.637815
4.637984
4.638153
4.638322
4.638491
4.638660
4.638828
4.638996
4.639164
4.639332
4.639500
4.639668
4.639835
4.640002
4.640169
4.640336
4.640502
4.640669
4.640835
4.641001
4.641167
4.641333
4.641498
4.641664
4.641829
4.641994
4.642159
4.642323
4.642488
4.642652
4.642816
4.642980
4.643144
4.643308
4.643471
4.643634
4.643797
4.643960
4.644123
4.644286
4.644448
4.644610
4.644773
4.644934
4.645096
4.645258
4.645419
4.645581
4.645742
4.645903
4.646063
4.646224
4.646385
4.646545
4.646705
4.646865
4.647025
4.647185
4.647344
4.647504
4.647663
4.647822
4.647981
4.648139
4.648298
4.648456
4.648615
4.648773
4.648931
4.649089
4.649246
4.649404
4.649561
4.649719
4.649876
4.650033
4.650189
4.650346
4.650502
4.650659
4.650815
4.650971
4.651127
4.651283
4.651438
4.651594
4.651749
4.651904
4.652059
4.652214
4.652369
4.652523
4.652678
4.652832
4.652832
4.652986
4.653140
4.653294
4.653448
4.653602
4.653755
4.653908
4.654062
4.654215
4.654368
4.654520
4.654673
4.654826
4.654978
4.655130
4.655282
4.655434
4.655586
4.655738
4.655889
4.656041
4.656192
4.656343
4.656494
4.656645
4.656796
4.656946
4.657097
4.657247
4.657397
4.657548
4.657698
4.657847
4.657997
4.658147
4.658296
4.658445
4.658595
4.658744
4.658893
4.659041
4.659190
4.659339
4.659487
4.659635
4.659784
4.659932
4.660080
4.660227
4.660375
4.660523
4.660670
4.660817
4.660965
4.661112
4.661259
4.661405
4.661552
4.661699
4.661845
4.661991
4.662138
4.662284
4.662430
4.662576
4.662721
4.662867
4.663012
4.663158
4.663303
4.663448
4.663593
4.663738
4.663883
4.664027
4.664172
4.664316
4.664461
4.664605
4.664749
4.664893
4.665037
4.665180
4.665324
4.665467
4.665611
4.665754
4.665897
4.666040
4.666183
4.666326
4.666469
4.666611
4.666754
4.666896
4.667038
4.667180
4.667322
4.667464
4.667606
4.667748
4.667889
4.668031
4.668172
4.668313
4.668454
4.668595
4.668736
4.668877
4.669018
4.669158
4.669299
4.669439
4.669579
4.669719
4.669859
4.669999
4.670139
4.670279
4.670418
4.670558
4.670697
4.670836
4.670975
4.671115
4.671253
4.671392
4.671531
4.671670
4.671808
4.671947
4.672085
4.672223
4.672361
4.672499
4.672637
4.672775
4.672912
4.673050
4.673187
4.673325
4.673462
4.673599
4.673736
4.673873
4.674010
4.674147
4.674283
4.674420
4.674556
4.674693
4.674829
4.674965
4.675101
4.675237
4.675373
4.675509
4.675644
4.675780
4.675915
4.676050
4.676186
4.676321
4.676456
4.676591
4.676726
4.676860
4.676995
4.677129
4.677264
4.677398
4.677532
4.677666
4.677801
4.677934
4.678068
4.678202
4.678336
4.678469
4.678603
4.678736
4.678869
4.679002
4.679135
4.679268
4.679401
4.679534
4.679667
4.679799
4.679932
4.680064
4.680196
4.680329
4.680461
4.680593
4.680725
4.680856
4.680988
4.681120
4.681251
4.681383
4.681514
4.681645
4.681776
4.681907
4.682038
4.682169
4.682300
4.682431
4.682561
4.682692
4.682822
4.682953
4.683083
4.683213
4.683343
4.683473
4.683603
4.683732
4.683862
4.683992
4.684121
4.684251
4.684380
4.684509
4.684638
4.684767
4.684896
4.685025
4.685154
4.685283
4.685411
4.685540
4.685668
4.685796
4.685925
4.686053
4.686181
4.686309
4.686437
4.686564
4.686692
4.686820
4.686947
4.687075
4.687202
4.687329
4.687456
4.687583
4.687710
4.687837
4.687964
4.688091
4.688217
4.688344
4.688470
4.688597
4.688723
4.688849
4.688975
4.689101
4.689227
4.689353
4.689479
4.689605
4.689730
4.689856
4.689981
4.690107
4.690232
4.690357
4.690482
4.690607
4.690732
4.690857
4.690982
4.691106
4.691231
4.691355
4.691480
4.691604
4.691728
4.691853
4.691977
4.692101
4.692225
4.692348
4.692472
4.692596
4.692719
4.692843
4.692966
4.693090
4.693213
4.693336
4.693459
4.693582
4.693705
4.693828
4.693951
4.694073
4.694196
4.694319
4.694441
4.694563
4.694686
4.694808
4.694930
4.695052
4.695174
4.695296
4.695418
4.695539
4.695661
4.695782
4.695904
4.696025
4.696147
4.696268
4.696389
4.696510
4.696631
4.696752
4.696873
4.696993
4.697114
4.697235
4.697355
4.697476
4.697596
4.697716
4.697837
4.697957
4.698077
4.698197
4.698317
4.698436
4.698556
4.698676
4.698795
4.698915
4.699034
4.699154
4.699273
4.699392
4.699511
4.699630
4.699749
4.699868
4.699987
4.700106
4.700224
4.700343
4.700461
4.700580
4.700698
4.700816
4.700935
4.701053
4.701171
4.701289
4.701407
4.701525
4.701642
4.701760
4.701878
4.701995
4.702113
4.702230
4.702347
4.702464
4.702582
4.702699
4.702816
4.702933
4.703049
4.703166
4.703283
4.703400
4.703516
4.703633
4.703749
4.703865
4.703982
4.704098
4.704214
4.704330
4.704446
4.704562
4.704678
4.704793
4.704909
4.705025
4.705140
4.705256
4.705371
4.705486
4.705602
4.705717
4.705832
4.705947
4.706062
4.706177
4.706292
4.706406
4.706521
4.706636
4.706750
4.706865
4.706979
4.707093
4.707208
4.707322
4.707436
4.707550
4.707664
4.707778
4.707892
4.708005
4.708119
4.708233
4.708346
4.708460
4.708573
4.708687
4.708800
4.708913
4.709026
4.709139
4.709252
4.709365
4.709478
4.709591
4.709703
4.709816
4.709929
4.710041
4.710154
4.710266
4.710378
4.710491
4.710603
4.710715
4.710827
4.710939
4.711051
4.711163
4.711274
4.711386
4.711498
4.711609
4.711721
4.711832
4.711943
4.712055
4.712166
4.712277
4.712388
4.712499
4.712610
4.712721
4.712832
4.712943
4.713053
4.713164
4.713275
4.713385
4.713495
4.713606
4.713716
4.713826
4.713937
4.714047
4.714157
4.714267
4.714377
4.714486
4.714596
4.714706
4.714815
4.714925
4.715035
4.715144
4.715253
4.715363
4.715472
4.715581
4.715690
4.715799
4.715908
4.716017
4.716126
4.716235
4.716344
4.716452
4.716561
4.716669
4.716778
4.716886
4.716886
4.716995
4.717103
4.717211
4.717319
4.717427
4.717535
4.717643
4.717751
4.717859
4.717967
4.718075
4.718182
4.718290
4.718397
4.718505
4.718612
4.718720
4.718827
4.718934
4.719041
4.719148
4.719255
4.719362
4.719469
4.719576
4.719683
4.719790
4.719896
4.720003
4.720110
4.720216
4.720322
4.720429
4.720535
4.720641
4.720747
4.720854
4.720960
4.721066
4.721172
4.721277
4.721383
4.721489
4.721595
4.721700
4.721806
4.721911
4.722017
4.722122
4.722228
4.722333
4.722438
4.722543
4.722648
4.722753
4.722858
4.722963
4.723068
4.723173
4.723277
4.723382
4.723487
4.723591
4.723696
4.723800
4.723905
4.724009
4.724113
4.724217
4.724321
4.724426
4.724530
4.724634
4.724737
4.724841
4.724945
4.725049
4.725152
4.725256
4.725360
4.725463
4.725567
4.725670
4.725773
4.725877
4.725980
4.726083
4.726186
4.726289
4.726392
4.726495
4.726598
4.726701
4.726803
4.726906
4.727009
4.727111
4.727214
4.727316
4.727419
4.727521
4.727623
4.727725
4.727828
4.727930
4.728032
4.728134
4.728236
4.728338
4.728440
4.728541
4.728643
4.728745
4.728846
4.728948
4.729049
4.729151
4.729252
4.729354
4.729455
4.729556
4.729657
4.729758
4.729859
4.729960
4.730061
4.730162
4.730263
4.730364
4.730465
4.730565
4.730666
4.730767
4.730867
4.730967
4.731068
4.731168
4.731269
4.731369
4.731469
4.731569
4.731669
4.731769
4.731869
4.731969
4.732069
4.732169
4.732268
4.732368
4.732468
4.732567
4.732667
4.732766
4.732866
4.732965
4.733065
4.733164
4.733263
4.733362
4.733461
4.733560
4.733659
4.733758
4.733857
4.733956
4.734055
4.734154
4.734252
4.734351
4.734450
4.734548
4.734647
4.734745
4.734843
4.734942
4.735040
4.735138
4.735236
4.735334
4.735432
4.735530
4.735628
4.735726
4.735824
4.735922
4.736020
4.736117
4.736215
4.736313
4.736410
4.736508
4.736605
4.736703
4.736800
4.736897
4.736994
4.737092
4.737189
4.737286
4.737383
4.737480
4.737577
4.737674
4.737770
4.737867
4.737964
4.738061
4.738157
4.738254
4.738350
4.738447
4.738543
4.738640
4.738736
4.738832
4.738928
4.739025
4.739121
4.739217
4.739313
4.739409
4.739505
4.739601
4.739696
4.739792
4.739888
4.739984
4.740079
4.740175
4.740270
4.740366
4.740461
4.740557
4.740652
4.740747
4.740842
4.740938
4.741033
4.741128
4.741223
4.741318
4.741413
4.741508
4.741603
4.741697
4.741792
4.741887
4.741981
4.742076
4.742171
4.742265
4.742359
4.742454
4.742548
4.742643
4.742737
4.742831
4.742925
4.743019
4.743113
4.743207
4.743301
4.743395
4.743489
4.743583
4.743677
4.743771
4.743864
4.743958
4.744051
4.744145
4.744239
4.744332
4.744425
4.744519
4.744612
4.744705
4.744799
4.744892
4.744985
4.745078
4.745171
4.745264
4.745357
4.745450
4.745543
4.745635
4.745728
4.745821
4.745913
4.746006
4.746099
4.746191
4.746284
4.746376
4.746468
4.746561
4.746653
4.746745
4.746837
4.746930
4.747022
4.747114
4.747206
4.747298
4.747390
4.747482
4.747573
4.747665
4.747757
4.747849
4.747940
4.748032
4.748123
4.748215
4.748306
4.748398
4.748489
4.748580
4.748672
4.748763
4.748854
4.748945
4.749036
4.749128
4.749219
4.749310
4.749400
4.749491
4.749582
4.749673
4.749764
4.749854
4.749945
4.750036
4.750126
4.750217
4.750307
4.750398
4.750488
4.750578
4.750669
4.750759
4.750849
4.750939
4.751030
4.751120
4.751210
4.751300
4.751390
4.751480
4.751569
4.751659
4.751749
4.751839
4.751928
4.752018
4.752108
4.752197
4.752287
4.752376
4.752466
4.752555
4.752644
4.752734
4.752823
4.752912
4.753001
4.753090
4.753180
4.753269
4.753358
4.753447
4.753535
4.753624
4.753713
4.753802
4.753891
4.753979
4.754068
4.754157
4.754245
4.754334
4.754422
4.754511
4.754599
4.754688
4.754776
4.754864
4.754952
4.755041
4.755129
4.755217
4.755305
4.755393
4.755481
4.755569
4.755657
4.755745
4.755832
4.755920
4.756008
4.756096
4.756183
4.756271
4.756358
4.756446
4.756534
4.756621
4.756708
4.756796
4.756883
4.756970
4.757058
4.757145
4.757232
4.757319
4.757406
4.757493
4.757580
4.757667
4.757754
4.757841
4.757928
4.758015
4.758101
4.758188
4.758275
4.758361
4.758448
4.758534
4.758621
4.758707
4.758794
4.758880
4.758967
4.759053
4.759139
4.759225
4.759312
4.759398
4.759484
4.759570
4.759656
4.759742
4.759828
4.759914
4.760000
4.760085
4.760171
4.760257
4.760343
4.760428
4.760514
4.760599
4.760685
4.760771
4.760856
4.760941
4.761027
4.761112
4.761197
4.761283
4.761368
4.761453
4.761538
4.761623
4.761709
4.761794
4.761879
4.761964
4.762048
4.762133
4.762218
4.762303
4.762388
4.762472
4.762557
4.762642
4.762726
4.762811
4.762895
4.762980
4.763064
4.763149
4.763233
4.763318
4.763402
4.763486
4.763570
4.763655
4.763739
4.763823
4.763907
4.763991
4.764075
4.764159
4.764243
4.764327
4.764327
4.764410
4.764494
4.764578
4.764662
4.764745
4.764829
4.764913
4.764996
4.765080
4.765163
4.765247
4.765330
4.765414
4.765497
4.765580
4.765664
4.765747
4.765830
4.765913
4.765996
4.766079
4.766162
4.766245
4.766328
4.766411
4.766494
4.766577
4.766660
4.766743
4.766826
4.766908
4.766991
4.767074
4.767156
4.767239
4.767321
4.767404
4.767486
4.767569
4.767651
4.767733
4.767816
4.767898
4.767980
4.768062
4.768145
4.768227
4.768309
4.768391
4.768473
4.768555
4.768637
4.768719
4.768801
4.768882
4.768964
4.769046
4.769128
4.769209
4.769291
4.769373
4.769454
4.769536
4.769617
4.769699
4.769780
4.769862
4.769943
4.770024
4.770106
4.770187
4.770268
4.770349
4.770431
4.770512
4.770593
4.770674
4.770755
4.770836
4.770917
4.770998
4.771079
4.771159
4.771240
4.771321
4.771402
4.771482
4.771563
4.771644
4.771724
4.771805
4.771885
4.771966
4.772046
4.772127
4.772207
4.772287
4.772368
4.772448
4.772528
4.772608
4.772689
4.772769
4.772849
4.772929
4.773009
4.773089
4.773169
4.773249
4.773329
4.773409
4.773488
4.773568
4.773648
4.773728
4.773807
4.773887
4.773967
4.774046
4.774126
4.774205
4.774285
4.774364
4.774444
4.774523
4.774602
4.774682
4.774761
4.774840
4.774919
4.774999
4.775078
4.775157
4.775236
4.775315
4.775394
4.775473
4.775552
4.775631
4.775710
4.775789
4.775867
4.775946
4.776025
4.776104
4.776182
4.776261
4.776340
4.776418
4.776497
4.776575
4.776654
4.776732
4.776810
4.776889
4.776967
4.777045
4.777124
4.777202
4.777280
4.777358
4.777437
4.777515
4.777593
4.777671
4.777749
4.777827
4.777905
4.777983
4.778060
4.778138
4.778216
4.778294
4.778372
4.778449
4.778527
4.778605
4.778682
4.778760
4.778837
4.778915
4.778992
4.779070
4.779147
4.779225
4.779302
4.779379
4.779457
4.779534
4.779611
4.779688
4.779765
4.779843
4.779920
4.779997
4.780074
4.780151
4.780228
4.780305
4.780382
4.780458
4.780535
4.780612
4.780689
4.780766
4.780842
4.780919
4.780996
4.781072
4.781149
4.781225
4.781302
4.781378
4.781455
4.781531
4.781608
4.781684
4.781760
4.781837
4.781913
4.781989
4.782065
4.782142
4.782218
4.782294
4.782370
4.782446
4.782522
4.782598
4.782674
4.782750
4.782826
4.782902
4.782978
4.783053
4.783129
4.783205
4.783281
4.783356
4.783432
4.783507
4.783583
4.783659
4.783734
4.783810
4.783885
4.783960
4.784036
4.784111
4.784187
4.784262
4.784337
4.784412
4.784488
4.784563
4.784638
4.784713
4.784788
4.784863
4.784938
4.785013
4.785088
4.785163
4.785238
4.785313
4.785388
4.785463
4.785537
4.785612
4.785687
4.785762
4.785836
4.785911
4.785986
4.786060
4.786135
4.786209
4.786284
4.786358
4.786433
4.786507
4.786581
4.786656
4.786730
4.786804
4.786878
4.786953
4.787027
4.787101
4.787175
4.787249
4.787323
4.787397
4.787471
4.787545
4.787619
4.787693
4.787767
4.787841
4.787915
4.787989
4.788062
4.788136
4.788210
4.788283
4.788357
4.788431
4.788504
4.788578
4.788651
4.788725
4.788798
4.788872
4.788945
4.789019
4.789092
4.789165
4.789239
4.789312
4.789385
4.789458
4.789532
4.789605
4.789678
4.789751
4.789824
4.789897
4.789970
4.790043
4.790116
4.790189
4.790262
4.790335
4.790408
4.790480
4.790553
4.790626
4.790699
4.790771
4.790844
4.790917
4.790989
4.791062
4.791134
4.791207
4.791279
4.791352
4.791424
4.791497
4.791569
4.791641
4.791714
4.791786
4.791858
4.791931
4.792003
4.792075
4.792147
4.792219
4.792291
4.792363
4.792435
4.792507
4.792579
4.792651
4.792723
4.792795
4.792867
4.792939
4.793011
4.793083
4.793154
4.793226
4.793298
4.793369
4.793441
4.793513
4.793584
4.793656
4.793727
4.793799
4.793870
4.793942
4.794013
4.794085
4.794156
4.794227
4.794299
4.794370
4.794441
4.794512
4.794584
4.794655
4.794726
4.794797
4.794868
4.794939
4.795010
4.795081
4.795152
4.795223
4.795294
4.795365
4.795436
4.795507
4.795578
4.795648
4.795719
4.795790
4.795861
4.795931
4.796002
4.796073
4.796143
4.796214
4.796284
4.796355
4.796425
4.796496
4.796566
4.796637
4.796707
4.796777
4.796848
4.796918
4.796988
4.797059
4.797129
4.797199
4.797269
4.797339
4.797410
4.797480
4.797550
4.797620
4.797690
4.797760
4.797830
4.797900
4.797970
4.798039
4.798109
4.798179
4.798249
4.798319
4.798388
4.798458
4.798528
4.798598
4.798667
4.798737
4.798806
4.798876
4.798945
4.799015
4.799084
4.799154
4.799223
4.799293
4.799362
4.799432
4.799501
4.799570
4.799639
4.799709
4.799778
4.799847
4.799916
4.799985
4.800055
4.800124
4.800193
4.800262
4.800331
4.800400
4.800469
4.800538
4.800607
4.800675
4.800744
4.800813
4.800882
4.800951
4.801019
4.801088
4.801157
4.801226
4.801294
4.801363
4.801432
4.801500
4.801569
4.801637
4.801706
4.801774
4.801843
4.801911
4.801979
4.802048
4.802048
4.802116
4.802184
4.802253
4.802321
4.802389
4.802458
4.802526
4.802594
4.802662
4.802730
4.802798
4.802866
4.802934
4.803002
4.803070
4.803138
4.803206
4.803274
4.803342
4.803410
4.803478
4.803546
4.803613
4.803681
4.803749
4.803817
4.803884
4.803952
4.804020
4.804087
4.804155
4.804222
4.804290
4.804358
4.804425
4.804492
4.804560
4.804627
4.804695
4.804762
4.804829
4.804897
4.804964
4.805031
4.805099
4.805166
4.805233
4.805300
4.805367
4.805434
4.805502
4.805569
4.805636
4.805703
4.805770
4.805837
4.805904
4.805971
4.806037
4.806104
4.806171
4.806238
4.806305
4.806372
4.806438
4.806505
4.806572
4.806639
4.806705
4.806772
4.806838
4.806905
4.806972
4.807038
4.807105
4.807171
4.807238
4.807304
4.807370
4.807437
4.807503
4.807570
4.807636
4.807702
4.807768
4.807835
4.807901
4.807967
4.808033
4.808100
4.808166
4.808232
4.808298
4.808364
4.808430
4.808496
4.808562
4.808628
4.808694
4.808760
4.808826
4.808892
4.808957
4.809023
4.809089
4.809155
4.809221
4.809286
4.809352
4.809418
4.809483
4.809549
4.809615
4.809680
4.809746
4.809811
4.809877
4.809942
4.810008
4.810073
4.810139
4.810204
4.810269
4.810335
4.810400
4.810465
4.810531
4.810596
4.810661
4.810726
4.810792
4.810857
4.810922
4.810987
4.811052
4.811117
4.811182
4.811247
4.811312
4.811377
4.811442
4.811507
4.811572
4.811637
4.811702
4.811767
4.811831
4.811896
4.811961
4.812026
4.812091
4.812155
4.812220
4.812285
4.812349
4.812414
4.812478
4.812543
4.812608
4.812672
4.812737
4.812801
4.812866
4.812930
4.812994
4.813059
4.813123
4.813187
4.813252
4.813316
4.813380
4.813445
4.813509
4.813573
4.813637
4.813701
4.813766
4.813830
4.813894
4.813958
4.814022
4.814086
4.814150
4.814214
4.814278
4.814342
4.814406
4.814470
4.814533
4.814597
4.814661
4.814725
4.814789
4.814853
4.814916
4.814980
4.815044
4.815107
4.815171
4.815235
4.815298
4.815362
4.815425
4.815489
4.815552
4.815616
4.815679
4.815743
4.815806
4.815870
4.815933
4.815996
4.816060
4.816123
4.816186
4.816250
4.816313
4.816376
4.816439
4.816503
4.816566
4.816629
4.816692
4.816755
4.816818
4.816881
4.816944
4.817007
4.817070
4.817133
4.817196
4.817259
4.817322
4.817385
4.817448
4.817511
4.817573
4.817636
4.817699
4.817762
4.817824
4.817887
4.817950
4.818012
4.818075
4.818138
4.818200
4.818263
4.818325
4.818388
4.818451
4.818513
4.818576
4.818638
4.818700
4.818763
4.818825
4.818888
4.818950
4.819012
4.819075
4.819137
4.819199
4.819261
4.819324
4.819386
4.819448
4.819510
4.819572
4.819634
4.819696
4.819758
4.819821
4.819883
4.819945
4.820007
4.820069
4.820130
4.820192
4.820254
4.820316
4.820378
4.820440
4.820502
4.820563
4.820625
4.820687
4.820749
4.820810
4.820872
4.820934
4.820995
4.821057
4.821119
4.821180
4.821242
4.821303
4.821365
4.821426
4.821488
4.821549
4.821611
4.821672
4.821734
4.821795
4.821856
4.821918
4.821979
4.822040
4.822102
4.822163
4.822224
4.822285
4.822347
4.822408
4.822469
4.822530
4.822591
4.822652
4.822713
4.822774
4.822835
4.822896
4.822957
4.823018
4.823079
4.823140
4.823201
4.823262
4.823323
4.823384
4.823445
4.823505
4.823566
4.823627
4.823688
4.823748
4.823809
4.823870
4.823930
4.823991
4.824052
4.824112
4.824173
4.824233
4.824294
4.824354
4.824415
4.824475
4.824536
4.824596
4.824657
4.824717
4.824778
4.824838
4.824898
4.824959
4.825019
4.825079
4.825139
4.825200
4.825260
4.825320
4.825380
4.825440
4.825501
4.825561
4.825621
4.825681
4.825741
4.825801
4.825861
4.825921
4.825981
4.826041
4.826101
4.826161
4.826221
4.826281
4.826341
4.826400
4.826460
4.826520
4.826580
4.826640
4.826699
4.826759
4.826819
4.826878
4.826938
4.826998
4.827057
4.827117
4.827177
4.827236
4.827296
4.827355
4.827415
4.827474
4.827534
4.827593
4.827653
4.827712
4.827771
4.827831
4.827890
4.827950
4.828009
4.828068
4.828127
4.828187
4.828246
4.828305
4.828364
4.828424
4.828483
4.828542
4.828601
4.828660
4.828719
4.828778
4.828837
4.828896
4.828955
4.829014
4.829073
4.829132
4.829191
4.829250
4.829309
4.829368
4.829427
4.829486
4.829544
4.829603
4.829662
4.829721
4.829779
4.829838
4.829897
4.829956
4.830014
4.830073
4.830132
4.830190
4.830249
4.830307
4.830366
4.830424
4.830483
4.830541
4.830600
4.830658
4.830717
4.830775
4.830834
4.830892
4.830950
4.831009
4.831067
4.831125
4.831184
4.831242
4.831300
4.831358
4.831417
4.831475
4.831533
4.831591
4.831649
4.831707
4.831766
4.831824
4.831882
4.831940
4.831998
4.832056
4.832114
4.832172
4.832230
4.832288
4.832346
4.832403
4.832461
4.832519
4.832577
4.832635
4.832693
4.832750
4.832808
4.832866
4.832924
4.832981
4.833039
4.833097
4.833154
4.833212
4.833270
4.833327
4.833327
4.833385
4.833442
4.833500
4.833558
4.833615
4.833673
4.833730
4.833788
4.833845
4.833902
4.833960
4.834017
4.834075
4.834132
4.834189
4.834247
4.834304
4.834361
4.834418
4.834476
4.834533
4.834590
4.834647
4.834704
4.834762
4.834819
4.834876
4.834933
4.834990
4.835047
4.835104
4.835161
4.835218
4.835275
4.835332
4.835389
4.835446
4.835503
4.835560
4.835617
4.835673
4.835730
4.835787
4.835844
4.835901
4.835958
4.836014
4.836071
4.836128
4.836184
4.836241
4.836298
4.836354
4.836411
4.836468
4.836524
4.836581
4.836637
4.836694
4.836751
4.836807
4.836864
4.836920
4.836976
4.837033
4.837089
4.837146
4.837202
4.837258
4.837315
4.837371
4.837427
4.837484
4.837540
4.837596
4.837653
4.837709
4.837765
4.837821
4.837877
4.837933
4.837990
4.838046
4.838102
4.838158
4.838214
4.838270
4.838326
4.838382
4.838438
4.838494
4.838550
4.838606
4.838662
4.838718
4.838774
4.838830
4.838885
4.838941
4.838997
4.839053
4.839109
4.839165
4.839220
4.839276
4.839332
4.839387
4.839443
4.839499
4.839554
4.839610
4.839666
4.839721
4.839777
4.839832
4.839888
4.839944
4.839999
4.840055
4.840110
4.840166
4.840221
4.840276
4.840332
4.840387
4.840443
4.840498
4.840553
4.840609
4.840664
4.840719
4.840775
4.840830
4.840885
4.840940
4.840995
4.841051
4.841106
4.841161
4.841216
4.841271
4.841326
4.841382
4.841437
4.841492
4.841547
4.841602
4.841657
4.841712
4.841767
4.841822
4.841877
4.841932
4.841986
4.842041
4.842096
4.842151
4.842206
4.842261
4.842316
4.842370
4.842425
4.842480
4.842535
4.842589
4.842644
4.842699
4.842753
4.842808
4.842863
4.842917
4.842972
4.843027
4.843081
4.843136
4.843190
4.843245
4.843299
4.843354
4.843408
4.843463
4.843517
4.843572
4.843626
4.843680
4.843735
4.843789
4.843843
4.843898
4.843952
4.844006
4.844061
4.844115
4.844169
4.844223
4.844278
4.844332
4.844386
4.844440
4.844494
4.844548
4.844603
4.844657
4.844711
4.844765
4.844819
4.844873
4.844927
4.844981
4.845035
4.845089
4.845143
4.845197
4.845251
4.845305
4.845359
4.845412
4.845466
4.845520
4.845574
4.845628
4.845682
4.845735
4.845789
4.845843
4.845897
4.845950
4.846004
4.846058
4.846111
4.846165
4.846219
4.846272
4.846326
4.846379
4.846433
4.846486
4.846540
4.846594
4.846647
4.846701
4.846754
4.846807
4.846861
4.846914
4.846968
4.847021
4.847075
4.847128
4.847181
4.847235
4.847288
4.847341
4.847394
4.847448
4.847501
4.847554
4.847607
4.847661
4.847714
4.847767
4.847820
4.847873
4.847926
4.847980
4.848033
4.848086
4.848139
4.848192
4.848245
4.848298
4.848351
4.848404
4.848457
4.848510
4.848563
4.848616
4.848669
4.848721
4.848774
4.848827
4.848880
4.848933
4.848986
4.849038
4.849091
4.849144
4.849197
4.849250
4.849302
4.849355
4.849408
4.849460
4.849513
4.849566
4.849618
4.849671
4.849723
4.849776
4.849829
4.849881
4.849934
4.849986
4.850039
4.850091
4.850144
4.850196
4.850249
4.850301
4.850353
4.850406
4.850458
4.850511
4.850563
4.850615
4.850668
4.850720
4.850772
4.850824
4.850877
4.850929
4.850981
4.851033
4.851086
4.851138
4.851190
4.851242
4.851294
4.851346
4.851398
4.851451
4.851503
4.851555
4.851607
4.851659
4.851711
4.851763
4.851815
4.851867
4.851919
4.851971
4.852023
4.852074
4.852126
4.852178
4.852230
4.852282
4.852334
4.852386
4.852437
4.852489
4.852541
4.852593
4.852644
4.852696
4.852748
4.852800
4.852851
4.852903
4.852955
4.853006
4.853058
4.853110
4.853161
4.853213
4.853264
4.853316
4.853367
4.853419
4.853470
4.853522
4.853573
4.853625
4.853676
4.853728
4.853779
4.853831
4.853882
4.853933
4.853985
4.854036
4.854087
4.854139
4.854190
4.854241
4.854293
4.854344
4.854395
4.854446
4.854497
4.854549
4.854600
4.854651
4.854702
4.854753
4.854804
4.854856
4.854907
4.854958
4.855009
4.855060
4.855111
4.855162
4.855213
4.855264
4.855315
4.855366
4.855417
4.855468
4.855519
4.855570
4.855620
4.855671
4.855722
4.855773
4.855824
4.855875
4.855926
4.855976
4.856027
4.856078
4.856129
4.856179
4.856230
4.856281
4.856331
4.856382
4.856433
4.856483
4.856534
4.856585
4.856635
4.856686
4.856736
4.856787
4.856838
4.856888
4.856939
4.856989
4.857040
4.857090
4.857141
4.857191
4.857241
4.857292
4.857342
4.857393
4.857443
4.857493
4.857544
4.857594
4.857644
4.857695
4.857745
4.857795
4.857846
4.857896
4.857946
4.857996
4.858046
4.858097
4.858147
4.858197
4.858247
4.858297
4.858347
4.858397
4.858448
4.858498
4.858548
4.858598
4.858648
4.858698
4.858748
4.858798
4.858848
4.858898
4.858948
4.858998
4.859048
4.859098
4.859147
4.859197
4.859247
4.859297
4.859347
4.859397
4.859447
4.859496
4.859546
4.859596
4.859646
4.859695
4.859745
4.859795
4.859845
4.859894
4.859944
4.859994
4.859994
4.860043
4.860093
4.860142
4.860192
4.860242
4.860291
4.860341
4.860390
4.860440
4.860489
4.860539
4.860588
4.860638
4.860687
4.860737
4.860786
4.860836
4.860885
4.860935
4.860984
4.861033
4.861083
4.861132
4.861181
4.861231
4.861280
4.861329
4.861378
4.861428
4.861477
4.861526
4.861575
4.861625
4.861674
4.861723
4.861772
4.861821
4.861871
4.861920
4.861969
4.862018
4.862067
4.862116
4.862165
4.862214
4.862263
4.862312
4.862361
4.862410
4.862459
4.862508
4.862557
4.862606
4.862655
4.862704
4.862753
4.862802
4.862850
4.862899
4.862948
4.862997
4.863046
4.863095
4.863143
4.863192
4.863241
4.863290
4.863338
4.863387
4.863436
4.863485
4.863533
4.863582
4.863631
4.863679
4.863728
4.863777
4.863825
4.863874
4.863922
4.863971
4.864019
4.864068
4.864116
4.864165
4.864213
4.864262
4.864310
4.864359
4.864407
4.864456
4.864504
4.864553
4.864601
4.864649
4.864698
4.864746
4.864794
4.864843
4.864891
4.864939
4.864988
4.865036
4.865084
4.865132
4.865181
4.865229
4.865277
4.865325
4.865373
4.865422
4.865470
4.865518
4.865566
4.865614
4.865662
4.865710
4.865758
4.865807
4.865855
4.865903
4.865951
4.865999
4.866047
4.866095
4.866143
4.866191
4.866239
4.866286
4.866334
4.866382
4.866430
4.866478
4.866526
4.866574
4.866622
4.866670
4.866717
4.866765
4.866813
4.866861
4.866908
4.866956
4.867004
4.867052
4.867099
4.867147
4.867195
4.867242
4.867290
4.867338
4.867385
4.867433
4.867481
4.867528
4.867576
4.867623
4.867671
4.867719
4.867766
4.867814
4.867861
4.867909
4.867956
4.868004
4.868051
4.868099
4.868146
4.868193
4.868241
4.868288
4.868336
4.868383
4.868430
4.868478
4.868525
4.868572
4.868620
4.868667
4.868714
4.868761
4.868809
4.868856
4.868903
4.868950
4.868998
4.869045
4.869092
4.869139
4.869186
4.869234
4.869281
4.869328
4.869375
4.869422
4.869469
4.869516
4.869563
4.869610
4.869657
4.869704
4.869751
4.869798
4.869845
4.869892
4.869939
4.869986
4.870033
4.870080
4.870127
4.870174
4.870221
4.870268
4.870314
4.870361
4.870408
4.870455
4.870502
4.870549
4.870595
4.870642
4.870689
4.870736
4.870782
4.870829
4.870876
4.870922
4.870969
4.871016
4.871063
4.871109
4.871156
4.871202
4.871249
4.871296
4.871342
4.871389
4.871435
4.871482
4.871528
4.871575
4.871622
4.871668
4.871715
4.871761
4.871807
4.871854
4.871900
4.871947
4.871993
4.872040
4.872086
4.872132
4.872179
4.872225
4.872271
4.872318
4.872364
4.872410
4.872457
4.872503
4.872549
4.872596
4.872642
4.872688
4.872734
4.872780
4.872827
4.872873
4.872919
4.872965
4.873011
4.873057
4.873104
4.873150
4.873196
4.873242
4.873288
4.873334
4.873380
4.873426
4.873472
4.873518
4.873564
4.873610
4.873656
4.873702
4.873748
4.873794
4.873840
4.873886
4.873932
4.873978
4.874024
4.874070
4.874115
4.874161
4.874207
4.874253
4.874299
4.874345
4.874390
4.874436
4.874482
4.874528
4.874573
4.874619
4.874665
4.874711
4.874756
4.874802
4.874848
4.874893
4.874939
4.874985
4.875030
4.875076
4.875121
4.875167
4.875213
4.875258
4.875304
4.875349
4.875395
4.875440
4.875486
4.875531
4.875577
4.875622
4.875668
4.875713
4.875759
4.875804
4.875849
4.875895
4.875940
4.875986
4.876031
4.876076
4.876122
4.876167
4.876212
4.876258
4.876303
4.876348
4.876394
4.876439
4.876484
4.876529
4.876575
4.876620
4.876665
4.876710
4.876755
4.876801
4.876846
4.876891
4.876936
4.876981
4.877026
4.877071
4.877116
4.877161
4.877207
4.877252
4.877297
4.877342
4.877387
4.877432
4.877477
4.877522
4.877567
4.877612
4.877657
4.877702
4.877746
4.877791
4.877836
4.877881
4.877926
4.877971
4.878016
4.878061
4.878106
4.878150
4.878195
4.878240
4.878285
4.878330
4.878374
4.878419
4.878464
4.878509
4.878553
4.878598
4.878643
4.878687
4.878732
4.878777
4.878821
4.878866
4.878911
4.878955
4.879000
4.879045
4.879089
4.879134
4.879178
4.879223
4.879267
4.879312
4.879356
4.879401
4.879445
4.879490
4.879534
4.879579
4.879623
4.879668
4.879712
4.879757
4.879801
4.879845
4.879890
4.879934
4.879979
4.880023
4.880067
4.880112
4.880156
4.880200
4.880245
4.880289
4.880333
4.880377
4.880422
4.880466
4.880510
4.880554
4.880599
4.880643
4.880687
4.880731
4.880775
4.880819
4.880864
4.880908
4.880952
4.880996
4.881040
4.881084
4.881128
4.881172
4.881216
4.881260
4.881304
4.881348
4.881392
4.881436
4.881480
4.881524
4.881568
4.881612
4.881656
4.881700
4.881744
4.881788
4.881832
4.881876
4.881920
4.881964
4.882007
4.882051
4.882095
4.882139
4.882183
4.882227
4.882270
4.882314
4.882358
4.882402
4.882445
4.882489
4.882533
4.882577
4.882620
4.882664
4.882708
4.882751
4.882795
4.882839
4.882882
4.882926
4.882970
4.883013
4.883057
4.883100
4.883144
4.883187
4.883187
4.883231
4.883275
4.883318
4.883362
4.883405
4.883449
4.883492
4.883536
4.883579
4.883623
4.883666
4.883709
4.883753
4.883796
4.883840
4.883883
4.883926
4.883970
4.884013
4.884057
4.884100
4.884143
4.884187
4.884230
4.884273
4.884316
4.884360
4.884403
4.884446
4.884489
4.884533
4.884576
4.884619
4.884662
4.884706
4.884749
4.884792
4.884835
4.884878
4.884921
4.884964
4.885008
4.885051
4.885094
4.885137
4.885180
4.885223
4.885266
4.885309
4.885352
4.885395
4.885438
4.885481
4.885524
4.885567
4.885610
4.885653
4.885696
4.885739
4.885782
4.885825
4.885868
4.885911
4.885953
4.885996
4.886039
4.886082
4.886125
4.886168
4.886211
4.886253
4.886296
4.886339
4.886382
4.886424
4.886467
4.886510
4.886553
4.886595
4.886638
4.886681
4.886724
4.886766
4.886809
4.886852
4.886894
4.886937
4.886980
4.887022
4.887065
4.887107
4.887150
4.887193
4.887235
4.887278
4.887320
4.887363
4.887405
4.887448
4.887490
4.887533
4.887575
4.887618
4.887660
4.887703
4.887745
4.887788
4.887830
4.887873
4.887915
4.887957
4.888000
4.888042
4.888084
4.888127
4.888169
4.888211
4.888254
4.888296
4.888338
4.888381
4.888423
4.888465
4.888508
4.888550
4.888592
4.888634
4.888677
4.888719
4.888761
4.888803
4.888845
4.888887
4.888930
4.888972
4.889014
4.889056
4.889098
4.889140
4.889182
4.889225
4.889267
4.889309
4.889351
4.889393
4.889435
4.889477
4.889519
4.889561
4.889603
4.889645
4.889687
4.889729
4.889771
4.889813
4.889855
4.889897
4.889939
4.889980
4.890022
4.890064
4.890106
4.890148
4.890190
4.890232
4.890274
4.890315
4.890357
4.890399
4.890441
4.890483
4.890524
4.890566
4.890608
4.890650
4.890691
4.890733
4.890775
4.890817
4.890858
4.890900
4.890942
4.890983
4.891025
4.891067
4.891108
4.891150
4.891192
4.891233
4.891275
4.891316
4.891358
4.891400
4.891441
4.891483
4.891524
4.891566
4.891607
4.891649
4.891690
4.891732
4.891773
4.891815
4.891856
4.891898
4.891939
4.891981
4.892022
4.892063
4.892105
4.892146
4.892188
4.892229
4.892270
4.892312
4.892353
4.892394
4.892436
4.892477
4.892518
4.892560
4.892601
4.892642
4.892683
4.892725
4.892766
4.892807
4.892848
4.892890
4.892931
4.892972
4.893013
4.893054
4.893096
4.893137
4.893178
4.893219
4.893260
4.893301
4.893343
4.893384
4.893425
4.893466
4.893507
4.893548
4.893589
4.893630
4.893671
4.893712
4.893753
4.893794
4.893835
4.893876
4.893917
4.893958
4.893999
4.894040
4.894081
4.894122
4.894163
4.894204
4.894245
4.894286
4.894326
4.894367
4.894408
4.894449
4.894490
4.894531
4.894572
4.894612
4.894653
4.894694
4.894735
4.894776
4.894816
4.894857
4.894898
4.894939
4.894979
4.895020
4.895061
4.895101
4.895142
4.895183
4.895223
4.895264
4.895305
4.895345
4.895386
4.895427
4.895467
4.895508
4.895549
4.895589
4.895630
4.895670
4.895711
4.895751
4.895792
4.895832
4.895873
4.895914
4.895954
4.895995
4.896035
4.896075
4.896116
4.896156
4.896197
4.896237
4.896278
4.896318
4.896359
4.896399
4.896439
4.896480
4.896520
4.896560
4.896601
4.896641
4.896682
4.896722
4.896762
4.896803
4.896843
4.896883
4.896923
4.896964
4.897004
4.897044
4.897084
4.897125
4.897165
4.897205
4.897245
4.897286
4.897326
4.897366
4.897406
4.897446
4.897486
4.897527
4.897567
4.897607
4.897647
4.897687
4.897727
4.897767
4.897807
4.897847
4.897887
4.897927
4.897967
4.898008
4.898048
4.898088
4.898128
4.898168
4.898208
4.898248
4.898287
4.898327
4.898367
4.898407
4.898447
4.898487
4.898527
4.898567
4.898607
4.898647
4.898687
4.898727
4.898766
4.898806
4.898846
4.898886
4.898926
4.898966
4.899005
4.899045
4.899085
4.899125
4.899165
4.899204
4.899244
4.899284
4.899323
4.899363
4.899403
4.899443
4.899482
4.899522
4.899562
4.899601
4.899641
4.899681
4.899720
4.899760
4.899800
4.899839
4.899879
4.899918
4.899958
4.899998
4.900037
4.900077
4.900116
4.900156
4.900195
4.900235
4.900274
4.900314
4.900353
4.900393
4.900432
4.900472
4.900511
4.900551
4.900590
4.900630
4.900669
4.900708
4.900748
4.900787
4.900827
4.900866
4.900905
4.900945
4.900984
4.901024
4.901063
4.901102
4.901142
4.901181
4.901220
4.901259
4.901299
4.901338
4.901377
4.901417
4.901456
4.901495
4.901534
4.901573
4.901613
4.901652
4.901691
4.901730
4.901769
4.901809
4.901848
4.901887
4.901926
4.901965
4.902004
4.902043
4.902083
4.902122
4.902161
4.902200
4.902239
4.902278
4.902317
4.902356
4.902395
4.902434
4.902473
4.902512
4.902551
4.902590
4.902629
4.902668
4.902707
4.902746
4.902785
4.902824
4.902863
4.902902
4.902941
4.902980
4.903019
4.903057
4.903096
4.903135
4.903174
4.903213
4.903252
4.903291
4.903329
4.903368
4.903407
4.903446
4.903485
4.903524
4.903562
4.903601
4.903640
4.903679
4.903679
4.903717
4.903756
4.903795
4.903834
4.903872
4.903911
4.903950
4.903988
4.904027
4.904066
4.904104
4.904143
4.904182
4.904220
4.904259
4.904297
4.904336
4.904375
4.904413
4.904452
4.904490
4.904529
4.904568
4.904606
4.904645
4.904683
4.904722
4.904760
4.904799
4.904837
4.904876
4.904914
4.904953
4.904991
4.905030
4.905068
4.905106
4.905145
4.905183
4.905222
4.905260
4.905299
4.905337
4.905375
4.905414
4.905452
4.905490
4.905529
4.905567
4.905605
4.905644
4.905682
4.905720
4.905759
4.905797
4.905835
4.905873
4.905912
4.905950
4.905988
4.906026
4.906065
4.906103
4.906141
4.906179
4.906217
4.906256
4.906294
4.906332
4.906370
4.906408
4.906446
4.906485
4.906523
4.906561
4.906599
4.906637
4.906675
4.906713
4.906751
4.906789
4.906827
4.906865
4.906904
4.906942
4.906980
4.907018
4.907056
4.907094
4.907132
4.907170
4.907208
4.907246
4.907283
4.907321
4.907359
4.907397
4.907435
4.907473
4.907511
4.907549
4.907587
4.907625
4.907663
4.907700
4.907738
4.907776
4.907814
4.907852
4.907890
4.907928
4.907965
4.908003
4.908041
4.908079
4.908117
4.908154
4.908192
4.908230
4.908268
4.908305
4.908343
4.908381
4.908418
4.908456
4.908494
4.908532
4.908569
4.908607
4.908645
4.908682
4.908720
4.908758
4.908795
4.908833
4.908870
4.908908
4.908946
4.908983
4.909021
4.909058
4.909096
4.909133
4.909171
4.909209
4.909246
4.909284
4.909321
4.909359
4.909396
4.909434
4.909471
4.909509
4.909546
4.909584
4.909621
4.909658
4.909696
4.909733
4.909771
4.909808
4.909846
4.909883
4.909920
4.909958
4.909995
4.910032
4.910070
4.910107
4.910145
4.910182
4.910219
4.910256
4.910294
4.910331
4.910368
4.910406
4.910443
4.910480
4.910517
4.910555
4.910592
4.910629
4.910666
4.910704
4.910741
4.910778
4.910815
4.910852
4.910890
4.910927
4.910964
4.911001
4.911038
4.911075
4.911113
4.911150
4.911187
4.911224
4.911261
4.911298
4.911335
4.911372
4.911409
4.911446
4.911483
4.911521
4.911558
4.911595
4.911632
4.911669
4.911706
4.911743
4.911780
4.911817
4.911854
4.911891
4.911928
4.911964
4.912001
4.912038
4.912075
4.912112
4.912149
4.912186
4.912223
4.912260
4.912297
4.912334
4.912370
4.912407
4.912444
4.912481
4.912518
4.912555
4.912591
4.912628
4.912665
4.912702
4.912739
4.912775
4.912812
4.912849
4.912886
4.912923
4.912959
4.912996
4.913033
4.913069
4.913106
4.913143
4.913180
4.913216
4.913253
4.913290
4.913326
4.913363
4.913400
4.913436
4.913473
4.913509
4.913546
4.913583
4.913619
4.913656
4.913692
4.913729
4.913766
4.913802
4.913839
4.913875
4.913912
4.913948
4.913985
4.914021
4.914058
4.914094
4.914131
4.914167
4.914204
4.914240
4.914277
4.914313
4.914350
4.914386
4.914423
4.914459
4.914495
4.914532
4.914568
4.914605
4.914641
4.914677
4.914714
4.914750
4.914787
4.914823
4.914859
4.914896
4.914932
4.914968
4.915005
4.915041
4.915077
4.915113
4.915150
4.915186
4.915222
4.915258
4.915295
4.915331
4.915367
4.915403
4.915440
4.915476
4.915512
4.915548
4.915584
4.915621
4.915657
4.915693
4.915729
4.915765
4.915801
4.915838
4.915874
4.915910
4.915946
4.915982
4.916018
4.916054
4.916090
4.916126
4.916163
4.916199
4.916235
4.916271
4.916307
4.916343
4.916379
4.916415
4.916451
4.916487
4.916523
4.916559
4.916595
4.916631
4.916667
4.916703
4.916739
4.916775
4.916811
4.916846
4.916882
4.916918
4.916954
4.916990
4.917026
4.917062
4.917098
4.917134
4.917169
4.917205
4.917241
4.917277
4.917313
4.917349
4.917385
4.917420
4.917456
4.917492
4.917528
4.917563
4.917599
4.917635
4.917671
4.917707
4.917742
4.917778
4.917814
4.917849
4.917885
4.917921
4.917957
4.917992
4.918028
4.918064
4.918099
4.918135
4.918171
4.918206
4.918242
4.918278
4.918313
4.918349
4.918384
4.918420
4.918456
4.918491
4.918527
4.918562
4.918598
4.918634
4.918669
4.918705
4.918740
4.918776
4.918811
4.918847
4.918882
4.918918
4.918953
4.918989
4.919024
4.919060
4.919095
4.919131
4.919166
4.919202
4.919237
4.919272
4.919308
4.919343
4.919379
4.919414
4.919449
4.919485
4.919520
4.919556
4.919591
4.919626
4.919662
4.919697
4.919732
4.919768
4.919803
4.919838
4.919874
4.919909
4.919944
4.919980
4.920015
4.920050
4.920085
4.920121
4.920156
4.920191
4.920226
4.920262
4.920297
4.920332
4.920367
4.920402
4.920438
4.920473
4.920508
4.920543
4.920578
4.920613
4.920649
4.920684
4.920719
4.920754
4.920789
4.920824
4.920859
4.920894
4.920930
4.920965
4.921000
4.921035
4.921070
4.921105
4.921140
4.921175
4.921210
4.921245
4.921280
4.921315
4.921350
4.921385
4.921420
4.921455
4.921490
4.921525
4.921560
4.921595
4.921630
4.921665
4.921700
4.921735
4.921770
4.921805
4.921840
4.921874
4.921909
4.921944
4.921979
4.922014
4.922014
4.922049
4.922084
4.922119
4.922153
4.922188
4.922223
4.922258
4.922293
4.922328
4.922362
4.922397
4.922432
4.922467
4.922502
4.922536
4.922571
4.922606
4.922641
4.922675
4.922710
4.922745
4.922780
4.922814
4.922849
4.922884
4.922918
4.922953
4.922988
4.923022
4.923057
4.923092
4.923126
4.923161
4.923196
4.923230
4.923265
4.923300
4.923334
4.923369
4.923403
4.923438
4.923473
4.923507
4.923542
4.923576
4.923611
4.923645
4.923680
4.923714
4.923749
4.923783
4.923818
4.923853
4.923887
4.923921
4.923956
4.923990
4.924025
4.924059
4.924094
4.924128
4.924163
4.924197
4.924232
4.924266
4.924300
4.924335
4.924369
4.924404
4.924438
4.924472
4.924507
4.924541
4.924576
4.924610
4.924644
4.924679
4.924713
4.924747
4.924782
4.924816
4.924850
4.924885
4.924919
4.924953
4.924987
4.925022
4.925056
4.925090
4.925125
4.925159
4.925193
4.925227
4.925261
4.925296
4.925330
4.925364
4.925398
4.925433
4.925467
4.925501
4.925535
4.925569
4.925603
4.925638
4.925672
4.925706
4.925740
4.925774
4.925808
4.925842
4.925876
4.925911
4.925945
4.925979
4.926013
4.926047
4.926081
4.926115
4.926149
4.926183
4.926217
4.926251
4.926285
4.926319
4.926353
4.926387
4.926421
4.926455
4.926489
4.926523
4.926557
4.926591
4.926625
4.926659
4.926693
4.926727
4.926761
4.926795
4.926829
4.926863
4.926897
4.926931
4.926964
4.926998
4.927032
4.927066
4.927100
4.927134
4.927168
4.927202
4.927235
4.927269
4.927303
4.927337
4.927371
4.927404
4.927438
4.927472
4.927506
4.927540
4.927573
4.927607
4.927641
4.927675
4.927708
4.927742
4.927776
4.927810
4.927843
4.927877
4.927911
4.927945
4.927978
4.928012
4.928046
4.928079
4.928113
4.928147
4.928180
4.928214
4.928248
4.928281
4.928315
4.928349
4.928382
4.928416
4.928449
4.928483
4.928517
4.928550
4.928584
4.928617
4.928651
4.928684
4.928718
4.928752
4.928785
4.928819
4.928852
4.928886
4.928919
4.928953
4.928986
4.929020
4.929053
4.929087
4.929120
4.929154
4.929187
4.929221
4.929254
4.929287
4.929321
4.929354
4.929388
4.929421
4.929455
4.929488
4.929521
4.929555
4.929588
4.929622
4.929655
4.929688
4.929722
4.929755
4.929788
4.929822
4.929855
4.929888
4.929922
4.929955
4.929988
4.930022
4.930055
4.930088
4.930121
4.930155
4.930188
4.930221
4.930255
4.930288
4.930321
4.930354
4.930388
4.930421
4.930454
4.930487
4.930520
4.930554
4.930587
4.930620
4.930653
4.930686
4.930720
4.930753
4.930786
4.930819
4.930852
4.930885
4.930918
4.930952
4.930985
4.931018
4.931051
4.931084
4.931117
4.931150
4.931183
4.931216
4.931249
4.931282
4.931316
4.931349
4.931382
4.931415
4.931448
4.931481
4.931514
4.931547
4.931580
4.931613
4.931646
4.931679
4.931712
4.931745
4.931778
4.931811
4.931844
4.931877
4.931909
4.931942
4.931975
4.932008
4.932041
4.932074
4.932107
4.932140
4.932173
4.932206
4.932239
4.932271
4.932304
4.932337
4.932370
4.932403
4.932436
4.932469
4.932501
4.932534
4.932567
4.932600
4.932633
4.932665
4.932698
4.932731
4.932764
4.932797
4.932829
4.932862
4.932895
4.932928
4.932960
4.932993
4.933026
4.933059
4.933091
4.933124
4.933157
4.933189
4.933222
4.933255
4.933287
4.933320
4.933353
4.933385
4.933418
4.933451
4.933483
4.933516
4.933549
4.933581
4.933614
4.933647
4.933679
4.933712
4.933744
4.933777
4.933810
4.933842
4.933875
4.933907
4.933940
4.933972
4.934005
4.934038
4.934070
4.934103
4.934135
4.934168
4.934200
4.934233
4.934265
4.934298
4.934330
4.934363
4.934395
4.934428
4.934460
4.934492
4.934525
4.934557
4.934590
4.934622
4.934655
4.934687
4.934720
4.934752
4.934784
4.934817
4.934849
4.934881
4.934914
4.934946
4.934979
4.935011
4.935043
4.935076
4.935108
4.935140
4.935173
4.935205
4.935237
4.935270
4.935302
4.935334
4.935367
4.935399
4.935431
4.935463
4.935496
4.935528
4.935560
4.935592
4.935625
4.935657
4.935689
4.935721
4.935754
4.935786
4.935818
4.935850
4.935882
4.935915
4.935947
4.935979
4.936011
4.936043
4.936076
4.936108
4.936140
4.936172
4.936204
4.936236
4.936268
4.936300
4.936333
4.936365
4.936397
4.936429
4.936461
4.936493
4.936525
4.936557
4.936589
4.936621
4.936653
4.936685
4.936718
4.936750
4.936782
4.936814
4.936846
4.936878
4.936910
4.936942
4.936974
4.937006
4.937038
4.937070
4.937102
4.937134
4.937166
4.937197
4.937229
4.937261
4.937293
4.937325
4.937357
4.937389
4.937421
4.937453
4.937485
4.937517
4.937549
4.937580
4.937612
4.937644
4.937676
4.937708
4.937740
4.937772
4.937804
4.937835
4.937867
4.937899
4.937931
4.937963
4.937994
4.938026
4.938058
4.938090
4.938122
4.938153
4.938185
4.938217
4.938249
4.938280
4.938312
4.938344
4.938376
4.938407
4.938439
4.938471
4.938503
4.938534
4.938566
4.938598
4.938598
