-0.610496
0.204440
0.146303
0.093840
0.054695
0.026091
0.004438
-0.012794
-0.027147
-0.039460
-0.050118
-0.059229
-0.066751
-0.072587
-0.076635
-0.078826
-0.079124
-0.077524
-0.074045
-0.068726
-0.061623
-0.052814
-0.042411
-0.030564
-0.017480
-0.003421
0.011283
0.026245
0.041037
0.055226
0.068430
0.080361
0.090856
0.099870
0.107452
0.113695
0.118708
0.122593
0.125436
0.127307
0.128258
0.128324
0.127518
0.125830
0.123223
0.119643
0.115022
0.109293
0.102417
0.094426
0.085438
0.075574
0.064887
0.053339
0.040817
0.027139
0.012056
-0.004744
-0.023609
-0.044809
-0.068239
-0.092939
-0.116852
-0.137477
-0.153111
-0.163432
-0.169168
-0.171481
-0.171529
-0.170257
-0.168355
-0.166291
-0.164358
-0.162731
-0.161502
-0.160713
-0.160372
-0.160469
-0.160985
-0.161894
-0.163168
-0.164778
-0.166698
-0.168900
-0.171361
-0.174055
-0.176959
-0.180053
-0.183317
-0.186729
-0.190274
-0.193933
-0.197691
-0.201533
-0.205441
-0.209399
-0.213385
-0.217372
-0.221325
-0.225197
-0.228934
-0.232485
-0.235869
-0.239207
-0.242617
-0.246083
-0.249478
-0.252686
-0.255660
-0.258408
-0.260959
-0.263347
-0.265602
-0.267750
-0.269807
-0.271779
-0.273646
-0.275330
-0.276594
-0.277676
-0.280370
-0.278407
-0.272318
-0.273398
-0.271274
-0.273872
-0.285186
-0.290646
-0.290456
-0.290548
-0.290443
-0.289695
-0.288739
-0.287761
-0.286799
-0.285948
-0.285294
-0.284882
-0.284714
-0.284756
-0.284952
-0.285242
-0.285578
-0.285931
-0.286294
-0.286670
-0.287064
-0.287481
-0.287923
-0.288392
-0.288885
-0.289402
-0.289941
-0.290503
-0.291087
-0.291694
-0.292324
-0.292978
-0.293658
-0.294364
-0.295097
-0.295856
-0.296638
-0.297439
-0.298253
-0.299075
-0.299898
-0.300715
-0.301519
-0.302303
-0.303060
-0.303786
-0.304472
-0.305114
-0.305704
-0.306239
-0.306714
-0.307126
-0.307474
-0.307753
-0.307962
-0.308098
-0.308164
-0.308160
-0.308091
-0.307962
-0.307777
-0.307538
-0.307248
-0.306909
-0.306523
-0.306094
-0.305627
-0.305128
-0.304605
-0.304066
-0.303520
-0.302979
-0.302453
-0.301951
-0.301478
-0.301029
-0.300591
-0.300140
-0.299655
-0.299129
-0.298574
-0.298021
-0.297506
-0.297068
-0.296752
-0.296600
-0.296592
-0.296608
-0.296530
-0.296375
-0.296229
-0.296150
-0.296150
-0.296198
-0.296209
-0.296073
-0.295752
-0.295315
-0.294854
-0.294418
-0.294023
-0.293671
-0.293362
-0.293095
-0.292871
-0.292692
-0.292564
-0.292487
-0.292463
-0.292488
-0.292554
-0.292650
-0.292767
-0.292893
-0.293018
-0.293130
-0.293223
-0.293338
-0.291962
-0.288843
-0.292692
-0.293062
-0.285030
-0.293174
-0.295873
-0.286094
-0.277988
-0.274645
-0.273320
-0.271869
-0.270491
-0.268912
-0.267522
-0.266005
-0.264704
-0.263259
-0.262035
-0.260638
-0.259469
-0.258108
-0.256975
-0.255646
-0.254524
-0.253231
-0.252097
-0.250836
-0.249669
-0.248425
-0.247211
-0.245949
-0.244673
-0.243355
-0.241998
-0.240598
-0.239161
-0.237702
-0.236245
-0.234817
-0.233450
-0.232174
-0.231014
-0.229983
-0.229079
-0.228293
-0.227617
-0.227041
-0.226560
-0.226173
-0.225881
-0.225689
-0.225614
-0.225675
-0.225900
-0.226322
-0.226322
-0.226976
-0.227894
-0.229108
-0.230648
-0.232545
-0.234827
-0.237512
-0.240579
-0.243909
-0.247212
-0.250000
-0.251711
-0.251965
-0.250711
-0.248164
-0.244648
-0.240476
-0.235902
-0.231103
-0.226206
-0.221261
-0.216319
-0.211353
-0.206404
-0.201396
-0.196434
-0.191372
-0.186439
-0.181336
-0.176515
-0.171367
-0.166750
-0.161502
-0.157194
-0.151733
-0.147861
-0.142024
-0.138732
-0.132339
-0.129762
-0.122693
-0.120869
-0.113158
-0.111937
-0.103832
-0.102932
-0.094788
-0.093980
-0.086062
-0.085344
-0.077770
-0.077074
-0.069649
-0.068633
-0.060921
-0.059608
-0.051600
-0.050507
-0.042380
-0.042024
-0.033805
-0.034524
-0.026181
-0.027994
-0.019616
-0.022059
-0.013990
-0.016313
-0.009005
-0.010533
-0.004216
-0.004550
0.000843
0.001836
0.006497
0.008732
0.012980
0.016177
0.020424
0.024285
0.028688
0.032859
0.037331
0.041531
0.046001
0.050057
0.054513
0.058249
0.062758
0.065959
0.070698
0.073124
0.078341
0.079832
0.085693
0.086375
0.092702
0.093082
0.099340
0.100004
0.105687
0.107007
0.111898
0.113983
0.118146
0.120882
0.124570
0.127718
0.131204
0.134553
0.138005
0.141447
0.144927
0.148422
0.151937
0.155465
0.159000
0.162538
0.166068
0.169585
0.173080
0.176546
0.179979
0.183373
0.186725
0.190035
0.193300
0.196520
0.199697
0.202830
0.205920
0.208969
0.211976
0.214944
0.217874
0.220765
0.223620
0.226439
0.229222
0.231971
0.234685
0.237364
0.240010
0.242620
0.245196
0.247735
0.250237
0.252700
0.255122
0.257502
0.259837
0.262124
0.264361
0.266544
0.268670
0.270735
0.272736
0.274670
0.276534
0.278327
0.280045
0.281689
0.283257
0.284751
0.286172
0.287521
0.288802
0.290016
0.291167
0.292260
0.293297
0.294283
0.295222
0.296119
0.296977
0.297802
0.298598
0.299369
0.300120
0.300853
0.301573
0.302283
0.302987
0.303688
0.304388
0.305090
0.305795
0.306507
0.307226
0.307955
0.308695
0.309447
0.310211
0.310990
0.311783
0.312591
0.313415
0.314255
0.315111
0.315983
0.316871
0.317777
0.318698
0.319637
0.320592
0.321563
0.322550
0.323554
0.324575
0.325611
0.326665
0.327735
0.328822
0.329926
0.331048
0.332188
0.333347
0.334525
0.335725
0.336945
0.338189
0.339457
0.340750
0.342071
0.343422
0.344803
0.346219
0.347669
0.349157
0.350685
0.352252
0.353861
0.355512
0.357203
0.358934
0.360701
0.362500
0.364327
0.366173
0.368033
0.369896
0.371755
0.373599
0.375419
0.377207
0.378954
0.380653
0.382296
0.383879
0.385393
0.386829
0.388168
0.389356
0.390227
0.390335
0.390428
0.392582
0.394395
0.395418
0.396038
0.396658
0.397355
0.398101
0.398876
0.399671
0.400481
0.401300
0.402122
0.402941
0.403754
0.404557
0.405348
0.406124
0.406881
0.407618
0.408332
0.409022
0.409685
0.410320
0.410925
0.411498
0.412036
0.412538
0.413002
0.413426
0.413810
0.414152
0.414454
0.414718
0.414945
0.415140
0.415306
0.415446
0.415566
0.415669
0.415759
0.415840
0.415916
0.415990
0.415990
0.416065
0.416144
0.416229
0.416322
0.416426
0.416542
0.416672
0.416816
0.416976
0.417152
0.417345
0.417556
0.417784
0.418029
0.418292
0.418573
0.418871
0.419185
0.419516
0.419862
0.420224
0.420601
0.420991
0.421395
0.421811
0.422239
0.422677
0.423126
0.423585
0.424051
0.424526
0.425007
0.425494
0.425985
0.426482
0.426981
0.427483
0.427987
0.428492
0.428996
0.429501
0.430004
0.430506
0.431005
0.431501
0.431994
0.432483
0.432967
0.433447
0.433923
0.434393
0.434858
0.435318
0.435772
0.436220
0.436662
0.437099
0.437530
0.437955
0.438375
0.438789
0.439197
0.439599
0.439996
0.440388
0.440774
0.441155
0.441530
0.441901
0.442267
0.442628
0.442985
0.443337
0.443685
0.444028
0.444368
0.444704
0.445036
0.445365
0.445691
0.446014
0.446333
0.446651
0.446966
0.447279
0.447589
0.447899
0.448207
0.448513
0.448819
0.449124
0.449428
0.449732
0.450037
0.450341
0.450646
0.450952
0.451260
0.451568
0.451878
0.452190
0.452504
0.452821
0.453140
0.453462
0.453788
0.454117
0.454449
0.454786
0.455127
0.455472
0.455822
0.456177
0.456537
0.456902
0.457273
0.457649
0.458031
0.458420
0.458814
0.459216
0.459623
0.460037
0.460459
0.460887
0.461322
0.461764
0.462213
0.462670
0.463134
0.463606
0.464085
0.464572
0.465066
0.465568
0.466077
0.466595
0.467119
0.467652
0.468192
0.468740
0.469296
0.469859
0.470430
0.471009
0.471595
0.472188
0.472789
0.473398
0.474014
0.474637
0.475267
0.475905
0.476550
0.477202
0.477862
0.478528
0.479201
0.479881
0.480568
0.481262
0.481962
0.482670
0.483383
0.484104
0.484830
0.485564
0.486303
0.487049
0.487801
0.488560
0.489324
0.490095
0.490872
0.491654
0.492443
0.493238
0.494038
0.494845
0.495657
0.496475
0.497298
0.498127
0.498962
0.499803
0.500649
0.501500
0.502357
0.503219
0.504087
0.504959
0.505837
0.506721
0.507609
0.508502
0.509400
0.510304
0.511212
0.512124
0.513042
0.513964
0.514891
0.515823
0.516759
0.517699
0.518644
0.519593
0.520547
0.521504
0.522466
0.523432
0.524403
0.525377
0.526356
0.527338
0.528324
0.529315
0.530309
0.531307
0.532309
0.533315
0.534324
0.535337
0.536354
0.537374
0.538398
0.539425
0.540456
0.541491
0.542529
0.543571
0.544617
0.545667
0.546723
0.547784
0.548853
0.549929
0.551012
0.552101
0.553192
0.554284
0.555375
0.556464
0.557554
0.558645
0.559740
0.560838
0.561941
0.563047
0.564155
0.565265
0.566375
0.567484
0.568594
0.569702
0.570809
0.571916
0.573021
0.574126
0.575230
0.576333
0.577436
0.578537
0.579637
0.580736
0.581835
0.582933
0.584031
0.585129
0.586227
0.587326
0.588427
0.589530
0.590636
0.591745
0.592858
0.593975
0.595098
0.596227
0.597361
0.598503
