-0.648251
-1.241072
-1.178425
-1.105836
-1.062523
-1.042896
-1.034061
-1.029045
-1.025252
-1.021872
-1.018742
-1.015927
-1.013366
-1.010785
-1.009105
-1.007736
-1.005143
-1.003474
-1.002369
-1.000824
-0.998910
-0.996791
-0.994574
-0.992322
-0.990073
-0.987859
-0.985713
-0.983677
-0.981805
-0.980162
-0.978820
-0.977851
-0.977326
-0.977354
-0.978000
-0.978692
-0.977674
-0.976735
-0.977647
-0.977016
-0.975224
-0.973001
-0.970741
-0.968621
-0.966726
-0.965103
-0.963779
-0.962769
-0.962078
-0.961703
-0.961642
-0.961912
-0.962562
-0.963675
-0.965339
-0.967610
-0.970468
-0.973843
-0.977711
-0.982115
-0.987116
-0.992700
-0.998629
-1.004468
-1.009881
-1.014690
-1.018805
-1.022221
-1.024991
-1.027189
-1.028892
-1.030165
-1.031061
-1.031624
-1.031887
-1.031875
-1.031611
-1.031112
-1.030395
-1.029474
-1.028363
-1.027075
-1.025622
-1.024017
-1.022271
-1.020395
-1.018399
-1.016294
-1.014086
-1.011785
-1.009399
-1.006934
-1.004399
-1.001799
-0.999140
-0.996427
-0.993663
-0.990850
-0.987990
-0.985082
-0.982127
-0.979125
-0.976074
-0.972974
-0.969823
-0.966620
-0.963363
-0.960048
-0.956668
-0.953217
-0.949682
-0.946052
-0.942339
-0.938624
-0.934992
-0.931383
-0.927781
-0.924321
-0.921221
-0.918486
-0.916126
-0.914549
-0.914667
-0.913898
-0.911051
-0.907034
-0.904771
-0.903246
-0.901917
-0.900863
-0.900158
-0.899751
-0.899659
-0.899376
-0.899394
-0.899178
-0.898466
-0.897811
-0.897249
-0.897328
-0.894289
-0.893617
-0.893469
-0.893765
-0.893456
-0.892696
-0.891679
-0.890309
-0.888581
-0.886358
-0.883635
-0.881301
-0.880319
-0.877944
-0.876335
-0.874295
-0.867609
-0.858270
-0.857318
-0.854561
-0.847592
-0.842593
-0.839871
-0.838284
-0.834564
-0.819673
-0.815276
-0.802824
-0.795639
-0.789370
-0.783948
-0.779706
-0.776478
-0.773990
-0.770261
-0.753766
-0.764399
-0.753976
-0.759039
-0.761435
-0.762063
-0.762630
-0.761933
-0.760225
-0.757851
-0.754987
-0.751786
-0.748293
-0.744673
-0.740766
-0.736533
-0.733125
-0.727977
-0.725198
-0.719705
-0.717354
-0.711806
-0.709822
-0.704927
-0.703746
-0.699744
-0.704923
-0.692528
-0.688327
-0.687851
-0.686557
-0.686726
-0.682934
-0.680405
-0.677505
-0.674046
-0.674377
-0.674649
-0.677739
-0.678159
-0.680707
-0.702631
-0.707052
-0.699064
-0.709478
-0.701010
-0.716213
-0.702951
-0.690404
-0.685304
-0.685346
-0.687877
-0.688545
-0.683979
-0.684590
-0.688143
-0.692084
-0.696362
-0.701127
-0.706300
-0.711618
-0.716931
-0.722111
-0.726995
-0.731400
-0.735139
-0.738032
-0.739916
-0.740658
-0.740153
-0.738311
-0.735020
-0.730126
-0.723482
-0.716467
-0.728452
-0.724864
-0.727421
-0.713180
-0.706123
-0.695144
-0.696068
-0.694100
-0.683436
-0.673782
-0.680529
-0.742389
-0.707338
-0.677545
-0.713403
-0.651475
-0.633496
-0.630457
-0.631111
-0.633073
-0.635644
-0.638612
-0.641947
-0.645692
-0.649908
-0.654644
-0.659922
-0.665726
-0.672000
-0.678642
-0.685504
-0.692396
-0.699103
-0.705411
-0.711140
-0.716165
-0.720421
-0.723905
-0.726659
-0.728760
-0.730301
-0.731384
-0.732106
-0.732553
-0.732790
-0.732853
-0.732599
-0.725642
-0.725278
-0.718645
-0.722745
-0.722947
-0.722337
-0.721452
-0.720486
-0.719510
-0.718546
-0.717605
-0.716689
-0.715798
-0.714932
-0.714090
-0.713271
-0.712476
-0.711702
-0.710950
-0.710218
-0.709506
-0.708814
-0.708140
-0.707485
-0.706847
-0.706226
-0.705621
-0.705032
-0.704459
-0.703901
-0.703357
-0.702827
-0.702311
-0.701808
-0.701318
-0.700840
-0.700374
-0.699920
-0.699478
-0.699046
-0.698625
-0.698214
-0.697814
-0.697423
-0.697041
-0.696669
-0.696306
-0.695951
-0.695605
-0.695267
-0.694937
-0.694615
-0.694300
-0.693992
-0.693692
-0.693398
-0.693111
-0.692831
-0.692556
-0.692288
-0.692026
-0.691770
-0.691519
-0.691274
-0.691034
-0.690800
-0.690570
-0.690345
-0.690125
-0.689910
-0.689699
-0.689493
-0.689291
-0.689093
-0.688899
-0.688709
-0.688522
-0.688340
-0.688161
-0.687986
-0.687814
-0.687645
-0.687480
-0.687318
-0.687159
-0.687003
-0.686850
-0.686700
-0.686552
-0.686407
-0.686265
-0.686126
-0.685989
-0.685854
-0.685722
-0.685592
-0.685464
-0.685339
-0.685216
-0.685094
-0.684975
-0.684858
-0.684743
-0.684629
-0.684518
-0.684408
-0.684300
-0.684194
-0.684089
-0.683986
-0.683884
-0.683785
-0.683686
-0.683589
-0.683494
-0.683399
-0.683307
-0.683215
-0.683125
-0.683036
-0.682948
-0.682862
-0.682777
-0.682692
-0.682609
-0.682527
-0.682447
-0.682367
-0.682288
-0.682210
-0.682133
-0.682057
-0.681982
-0.681908
-0.681835
-0.681762
-0.681691
-0.681620
-0.681550
-0.681481
-0.681412
-0.681345
-0.681278
-0.681211
-0.681146
-0.681081
-0.681017
-0.680953
-0.680890
-0.680828
-0.680766
-0.680705
-0.680644
-0.680584
-0.680525
-0.680466
-0.680407
-0.680349
-0.680292
-0.680235
-0.680179
-0.680123
-0.680067
-0.680012
-0.679957
-0.679903
-0.679849
-0.679796
-0.679743
-0.679690
-0.679638
-0.679586
-0.679534
-0.679483
-0.679432
-0.679382
-0.679331
-0.679282
-0.679232
-0.679183
-0.679134
-0.679085
-0.679037
-0.678989
-0.678941
-0.678893
-0.678846
-0.678799
-0.678752
-0.678706
-0.678659
-0.678613
-0.678567
-0.678522
-0.678476
-0.678431
-0.678386
-0.678341
-0.678297
-0.678252
-0.678208
-0.678164
-0.678120
-0.678120
-0.678077
-0.678033
-0.677990
-0.677947
-0.677904
-0.677861
-0.677818
-0.677776
-0.677733
-0.677691
-0.677649
-0.677607
-0.677565
-0.677523
-0.677482
-0.677440
-0.677399
-0.677357
-0.677316
-0.677275
-0.677234
-0.677193
-0.677153
-0.677112
-0.677071
-0.677031
-0.676991
-0.676950
-0.676910
-0.676870
-0.676830
-0.676790
-0.676750
-0.676710
-0.676671
-0.676631
-0.676591
-0.676552
-0.676512
-0.676473
-0.676433
-0.676394
-0.676355
-0.676316
-0.676277
-0.676237
-0.676198
-0.676159
-0.676120
-0.676081
-0.676042
-0.676004
-0.675965
-0.675926
-0.675887
-0.675848
-0.675810
-0.675771
-0.675732
-0.675694
-0.675655
-0.675616
-0.675578
-0.675539
-0.675501
-0.675462
-0.675423
-0.675385
-0.675346
-0.675308
-0.675269
-0.675231
-0.675192
-0.675154
-0.675115
-0.675077
-0.675038
-0.675000
-0.674961
-0.674923
-0.674884
-0.674845
-0.674807
-0.674768
-0.674730
-0.674691
-0.674652
-0.674614
-0.674575
-0.674536
-0.674498
-0.674459
-0.674420
-0.674381
-0.674343
-0.674304
-0.674265
-0.674226
-0.674187
-0.674148
-0.674109
-0.674070
-0.674031
-0.673992
-0.673952
-0.673913
-0.673874
-0.673835
-0.673795
-0.673756
-0.673716
-0.673677
-0.673637
-0.673598
-0.673558
-0.673518
-0.673479
-0.673439
-0.673399
-0.673359
-0.673319
-0.673279
-0.673239
-0.673199
-0.673159
-0.673118
-0.673078
-0.673037
-0.672997
-0.672956
-0.672916
-0.672875
-0.672834
-0.672793
-0.672752
-0.672711
-0.672670
-0.672629
-0.672588
-0.672546
-0.672505
-0.672463
-0.672422
-0.672380
-0.672338
-0.672296
-0.672254
-0.672212
-0.672170
-0.672128
-0.672086
-0.672043
-0.672001
-0.671958
-0.671915
-0.671872
-0.671829
-0.671786
-0.671743
-0.671700
-0.671656
-0.671613
-0.671569
-0.671526
-0.671482
-0.671438
-0.671394
-0.671350
-0.671305
-0.671261
-0.671216
-0.671172
-0.671127
-0.671082
-0.671037
-0.670991
-0.670946
-0.670901
-0.670855
-0.670809
-0.670763
-0.670717
-0.670671
-0.670625
-0.670578
-0.670532
-0.670485
-0.670438
-0.670391
-0.670344
-0.670297
-0.670249
-0.670201
-0.670154
-0.670106
-0.670057
-0.670009
-0.669961
-0.669912
-0.669863
-0.669814
-0.669765
-0.669716
-0.669666
-0.669616
-0.669567
-0.669517
-0.669466
-0.669416
-0.669365
-0.669314
-0.669263
-0.669212
-0.669161
-0.669109
-0.669058
-0.669006
-0.668953
-0.668901
-0.668848
-0.668796
-0.668743
-0.668689
-0.668636
-0.668582
-0.668528
-0.668474
-0.668420
-0.668365
-0.668311
-0.668256
-0.668200
-0.668145
-0.668089
-0.668033
-0.667977
-0.667921
-0.667864
-0.667807
-0.667750
-0.667692
-0.667635
-0.667577
-0.667519
-0.667460
-0.667401
-0.667342
-0.667283
-0.667223
-0.667164
-0.667103
-0.667043
-0.666982
-0.666921
-0.666860
-0.666799
-0.666737
-0.666675
-0.666612
-0.666549
-0.666486
-0.666423
-0.666359
-0.666295
-0.666231
-0.666166
-0.666101
-0.666036
-0.665970
-0.665904
-0.665838
-0.665771
-0.665704
-0.665636
-0.665569
-0.665501
-0.665432
-0.665363
-0.665294
-0.665224
-0.665154
-0.665084
-0.665013
-0.664942
-0.664871
-0.664799
-0.664726
-0.664654
-0.664580
-0.664507
-0.664433
-0.664358
-0.664284
-0.664208
-0.664133
-0.664056
-0.663980
-0.663903
-0.663825
-0.663747
-0.663669
-0.663590
-0.663510
-0.663430
-0.663350
-0.663269
-0.663188
-0.663106
-0.663024
-0.662941
-0.662857
-0.662773
-0.662689
-0.662604
-0.662518
-0.662432
-0.662345
-0.662258
-0.662170
-0.662082
-0.661993
-0.661903
-0.661813
-0.661722
-0.661631
-0.661539
-0.661446
-0.661353
-0.661259
-0.661164
-0.661069
-0.660973
-0.660877
-0.660779
-0.660681
-0.660583
-0.660483
-0.660383
-0.660282
-0.660181
-0.660079
-0.659975
-0.659872
-0.659767
-0.659662
-0.659556
-0.659449
-0.659341
-0.659232
-0.659123
-0.659013
-0.658901
-0.658789
-0.658676
-0.658563
-0.658448
-0.658332
-0.658216
-0.658098
-0.657980
-0.657861
-0.657740
-0.657619
-0.657496
-0.657373
-0.657249
-0.657123
-0.656997
-0.656869
-0.656740
-0.656610
-0.656479
-0.656347
-0.656214
-0.656079
-0.655944
-0.655807
-0.655669
-0.655529
-0.655389
-0.655247
-0.655103
-0.654959
-0.654813
-0.654666
-0.654517
-0.654367
-0.654215
-0.654062
-0.653907
-0.653751
-0.653594
-0.653434
-0.653274
-0.653111
-0.652947
-0.652781
-0.652614
-0.652445
-0.652274
-0.652101
-0.651927
-0.651750
-0.651572
-0.651392
-0.651209
-0.651025
-0.650839
-0.650650
-0.650460
-0.650267
-0.650073
-0.649876
-0.649676
-0.649475
-0.649271
-0.649064
-0.648855
-0.648644
-0.648430
-0.648213
-0.647994
-0.647772
-0.647547
-0.647319
-0.647089
-0.646855
-0.646619
-0.646379
-0.646136
-0.645890
-0.645640
-0.645388
-0.645131
-0.644871
-0.644608
-0.644341
-0.644070
-0.643795
-0.643516
-0.643233
-0.642945
-0.642654
-0.642358
-0.642057
-0.641752
-0.641442
-0.641127
-0.640807
-0.640482
-0.640151
-0.639815
-0.639474
-0.639126
-0.638773
-0.638413
-0.638047
-0.637674
-0.637295
-0.636908
-0.636514
-0.636113
-0.635704
-0.635287
-0.634861
-0.634427
-0.633984
-0.633532
-0.633070
-0.632597
-0.632115
-0.631621
-0.631116
-0.630599
-0.630070
-0.629528
-0.628973
-0.628404
-0.627820
-0.627221
-0.626606
-0.625975
-0.625327
-0.624661
-0.623977
-0.623273
-0.622550
-0.621806
-0.621041
-0.620254
-0.619445
-0.618613
-0.617758
-0.616878
-0.615973
-0.615044
-0.614090
-0.613110
-0.612104
-0.612104
-0.611072
-0.610014
-0.608930
-0.607821
-0.606686
-0.605525
-0.604340
-0.603130
-0.601896
-0.600639
-0.599359
-0.598057
-0.596735
-0.595392
-0.594031
-0.592653
-0.591259
-0.589851
-0.588431
-0.587001
-0.585564
-0.584122
-0.582678
-0.581233
-0.579791
-0.578354
-0.576924
-0.575503
-0.574091
-0.572690
-0.571301
-0.569923
-0.568558
-0.567204
-0.565862
-0.564530
-0.563209
-0.561897
-0.560595
-0.559301
-0.558015
-0.556737
-0.555467
-0.554204
-0.552948
-0.551700
-0.550458
-0.549225
-0.547999
-0.546782
-0.545573
-0.544373
-0.543183
-0.542003
-0.540833
-0.539675
-0.538530
-0.537396
-0.536277
-0.535171
-0.534081
-0.533006
-0.531947
-0.530905
-0.529881
-0.528876
-0.527889
-0.526923
-0.525977
-0.525052
-0.524149
-0.523269
-0.522412
-0.521578
-0.520769
-0.519984
-0.519225
-0.518491
-0.517784
-0.517103
-0.516450
-0.515824
-0.515226
-0.514657
-0.514116
-0.513604
-0.513121
-0.512667
-0.512243
-0.511848
-0.511484
-0.511149
-0.510845
-0.510570
-0.510326
-0.510113
-0.509929
-0.509776
-0.509652
-0.509559
-0.509496
-0.509463
-0.509459
-0.509485
-0.509540
-0.509624
-0.509737
-0.509879
-0.510049
-0.510247
-0.510472
-0.510725
-0.511005
-0.511311
-0.511644
-0.512002
-0.512385
-0.512793
-0.513226
-0.513682
-0.514162
-0.514665
-0.515191
-0.515739
-0.516309
-0.516902
-0.517517
-0.518155
-0.518817
-0.519504
-0.520216
-0.520953
-0.521715
-0.522500
-0.523307
-0.524135
-0.524983
-0.525851
-0.526739
-0.527646
-0.528572
-0.529517
-0.530480
-0.531462
-0.532463
-0.533482
-0.534519
-0.535573
-0.536646
-0.537737
-0.538847
-0.539974
-0.541120
-0.542285
-0.543469
-0.544673
-0.545899
-0.547148
-0.548422
-0.549722
-0.551052
-0.552415
-0.553816
-0.555262
-0.556765
-0.558339
-0.559968
-0.561608
-0.563238
-0.564861
-0.566486
-0.568118
-0.569758
-0.571405
-0.573058
-0.574712
-0.576365
-0.578013
-0.579653
-0.581279
-0.582888
-0.584475
-0.586036
-0.587567
-0.589064
-0.590522
-0.591940
-0.593314
-0.594641
-0.595920
-0.597147
-0.598322
-0.599443
-0.600508
-0.601516
-0.602467
-0.603359
-0.604192
-0.604964
-0.605675
-0.606323
-0.606908
-0.607427
-0.607877
-0.608255
-0.608556
-0.608772
-0.608893
-0.608903
-0.608778
-0.608481
-0.607998
-0.607369
-0.607626
-0.607557
-0.609099
-0.607881
-0.607386
-0.607695
-0.607216
-0.607319
-0.606973
-0.606975
-0.606908
-0.606993
-0.607163
-0.607440
-0.607828
-0.608327
-0.608934
-0.609641
-0.610440
-0.611321
-0.612276
-0.613293
-0.614364
-0.615481
-0.616635
-0.617819
-0.619028
-0.620255
-0.621496
-0.622746
-0.624002
-0.625260
-0.626517
-0.627770
-0.629018
-0.630258
-0.631488
-0.632707
-0.633912
-0.635104
-0.636280
-0.637439
-0.638581
-0.639705
-0.640809
-0.641894
-0.642958
-0.644001
-0.645022
-0.646020
-0.646997
-0.647950
-0.648880
-0.649786
-0.650668
-0.651526
-0.652361
-0.653171
-0.653956
-0.654718
-0.655455
-0.656168
-0.656857
-0.657523
-0.658165
-0.658783
-0.659379
-0.659952
-0.660503
-0.661032
-0.661539
-0.662026
-0.662492
-0.662938
-0.663365
-0.663774
-0.664164
-0.664538
-0.664895
-0.665237
-0.665564
-0.665878
-0.666180
-0.666470
-0.666750
-0.667021
-0.667286
-0.667544
-0.667800
-0.668054
-0.668309
-0.668569
-0.668836
-0.669114
-0.669408
-0.669725
-0.670071
-0.670453
-0.670883
-0.671374
-0.671939
-0.672597
-0.673372
-0.674290
-0.675383
-0.676689
-0.678254
-0.680131
-0.682376
-0.685024
-0.688043
-0.690687
-0.691939
-0.693739
-0.689109
-0.697313
-0.742404
-0.673397
-0.670094
-0.642901
-0.599855
-0.531559
-0.432771
-0.311754
-0.188879
-0.079587
0.011121
0.084103
0.142802
0.191117
0.231286
0.265482
0.296095
0.324886
0.352925
0.380731
0.408457
0.436072
0.463470
0.490515
0.517054
0.542940
0.568036
0.592224
0.615405
0.637495
0.658420
0.678119
0.696544
0.713665
0.729474
0.743994
0.757287
0.769474
0.780765
0.791496
0.802132
0.813243
0.825538
0.840034
0.858434
0.883977
0.923623
0.985258
1.045192
1.079523
1.107945
1.132168
1.151967
1.166814
1.176418
1.183265
1.191838
1.203337
1.216623
1.230797
1.245441
1.260355
1.275425
1.290574
1.305739
1.320873
1.335936
1.350896
1.365726
1.380403
1.394907
1.409223
1.423335
1.437234
1.450912
1.464361
1.477579
1.490565
1.503319
1.515844
1.528144
1.540224
1.552091
1.563752
1.575214
1.586487
1.597577
1.608494
1.619246
1.629841
1.640287
1.650590
1.660759
1.670800
1.680719
1.690523
1.700216
1.709803
1.719291
1.728682
1.737982
1.747193
1.756321
1.765363
1.774348
1.783145
1.792522
1.797708
1.826561
1.697436
1.723219
1.811069
1.850850
1.792995
1.893957
1.862296
1.847606
1.922792
1.851778
1.941400
1.874908
1.955360
1.897084
1.964419
1.907139
1.985654
1.946620
1.849168
1.987411
1.954939
2.013909
1.979882
1.884089
2.033494
1.960387
2.077441
2.061195
2.036998
2.017182
2.061772
2.029876
2.041882
2.002051
2.149373
2.174930
2.180859
2.189304
2.191364
2.198346
2.201237
2.207580
2.211047
2.217071
2.220906
2.226737
2.230807
2.236506
2.240724
2.246321
2.250631
2.256143
2.260502
2.265941
2.270319
2.275692
2.280065
2.285379
2.289727
2.294989
2.299296
2.299296
2.304515
2.308765
2.313950
2.318128
2.323291
2.327379
2.332539
2.336516
2.341696
2.345534
2.350766
2.354426
2.359758
2.363184
2.368687
2.371792
2.377576
2.380227
2.386466
2.388446
2.395426
2.396377
2.404577
2.403900
2.414141
2.410840
2.424491
2.417034
2.436088
2.422694
2.448683
2.428791
2.460214
2.435471
2.470951
2.442543
2.480995
2.449793
2.490742
2.457285
2.499794
2.464590
2.509426
2.472645
2.516589
2.478768
2.529650
2.490634
2.523856
2.487361
2.559879
2.516424
2.498494
2.572824
2.524261
2.521559
2.563063
2.531349
2.551886
2.526741
2.601838
2.573755
2.486832
2.389086
2.474223
2.426493
2.386391
2.420540
2.385316
2.411391
2.388295
2.409466
2.392978
2.408569
2.397505
2.408515
2.401440
2.408902
2.404705
2.409582
2.407323
2.410433
2.409383
2.411352
2.410997
2.412258
2.412266
2.413099
2.413271
2.413844
2.414072
2.414482
2.414710
2.415013
2.415216
2.415442
2.415610
2.415778
2.415909
2.416031
2.416127
2.416211
2.416275
2.416326
2.416361
2.416385
2.416396
2.416395
2.416384
2.416364
2.416334
2.416296
2.416250
2.416198
2.416139
2.416073
2.416003
2.415927
2.415847
2.415763
2.415675
2.415583
2.415489
2.415392
2.415293
2.415191
2.415088
2.414984
2.414878
2.414771
2.414663
2.414555
2.414446
2.414337
2.414228
2.414119
2.414010
2.413901
2.413793
2.413686
2.413579
2.413474
2.413369
2.413265
2.413163
2.413061
2.412962
2.412863
2.412766
2.412670
2.412576
2.412484
2.412393
2.412305
2.412218
2.412132
2.412049
2.411968
2.411889
2.411811
2.411736
2.411663
2.411592
2.411523
2.411456
2.411392
2.411329
2.411269
2.411211
2.411156
2.411102
2.411051
2.411003
2.410956
2.410912
2.410871
2.410831
2.410794
2.410760
2.410728
2.410698
2.410671
2.410646
2.410623
2.410603
2.410585
2.410570
2.410557
2.410547
2.410539
2.410533
2.410530
2.410530
2.410531
2.410536
2.410542
2.410551
2.410563
2.410577
2.410593
2.410612
2.410633
2.410657
2.410683
2.410711
2.410742
2.410776
2.410812
2.410850
2.410890
2.410933
2.410979
2.411026
2.411076
2.411129
2.411184
2.411241
2.411301
2.411363
2.411427
2.411494
2.411563
2.411634
2.411707
2.411783
2.411862
2.411942
2.412025
2.412110
2.412198
2.412287
2.412379
2.412474
2.412570
2.412669
2.412770
2.412873
2.412978
2.413086
2.413196
2.413308
2.413422
2.413538
2.413657
2.413777
2.413900
2.414025
2.414152
2.414282
2.414413
2.414546
2.414682
2.414819
2.414959
2.415101
2.415245
2.415391
2.415538
2.415688
2.415840
2.415994
2.416150
2.416308
2.416468
2.416630
2.416793
2.416959
2.417127
2.417296
2.417468
2.417641
2.417816
2.417993
2.418172
2.418353
2.418536
2.418721
2.418907
2.419095
2.419285
2.419477
2.419670
2.419866
2.420063
2.420261
2.420462
2.420664
2.420868
2.421074
2.421281
2.421490
2.421701
2.421913
2.422127
2.422343
2.422560
2.422779
2.422999
2.423221
2.423444
2.423670
2.423896
2.424124
2.424354
2.424585
2.424818
2.425052
2.425288
2.425525
2.425763
2.426003
2.426245
2.426488
2.426732
2.426978
2.427225
2.427473
2.427723
2.427974
2.428226
2.428480
2.428735
2.428991
2.429249
2.429508
2.429768
2.430029
2.430292
2.430556
2.430821
2.431087
2.431354
2.431623
2.431893
2.432163
2.432435
2.432709
2.432983
2.433258
2.433535
2.433812
2.434091
2.434370
2.434651
2.434933
2.435215
2.435499
2.435784
2.436070
2.436356
2.436644
2.436932
2.437222
2.437512
2.437804
2.438096
2.438389
2.438683
2.438978
2.439274
2.439570
2.439868
2.440166
2.440465
2.440765
2.441065
2.441367
2.441669
2.441972
2.442275
2.442580
2.442885
2.443191
2.443497
2.443804
2.444112
2.444421
2.444730
2.445040
2.445350
2.445661
2.445973
2.446285
2.446598
2.446911
2.447225
2.447540
2.447855
2.448171
2.448487
2.448804
2.449121
2.449439
2.449757
2.450076
2.450395
2.450715
2.451035
2.451355
2.451676
2.451997
2.452319
2.452641
2.452964
2.453287
2.453610
2.453934
2.454258
2.454583
2.454907
2.455232
2.455558
2.455884
2.456210
2.456536
2.456863
2.457189
2.457517
2.457844
2.458172
2.458500
2.458828
2.459156
2.459485
2.459814
2.460143
2.460472
2.460802
2.461131
2.461461
2.461791
2.462121
2.462451
2.462782
2.463112
2.463443
2.463774
2.464105
2.464436
2.464767
2.465098
2.465430
2.465761
2.466093
2.466424
2.466756
2.467088
2.467420
2.467752
2.468083
2.468415
2.468747
2.469079
2.469411
2.469743
2.470075
2.470407
2.470739
2.471071
2.471403
2.471735
2.472067
2.472399
2.472731
2.473063
2.473395
2.473727
2.474058
2.474390
2.474721
2.475053
2.475384
2.475716
2.476047
2.476378
2.476709
2.477040
2.477371
2.477702
2.478033
2.478363
2.478694
2.479024
2.479354
2.479685
2.480015
2.480344
2.480674
2.481004
2.481333
2.481662
2.481992
2.482321
2.482649
2.482978
2.483307
2.483635
2.483963
2.484291
2.484291
2.484619
2.484947
2.485274
2.485601
2.485928
2.486255
2.486582
2.486909
2.487235
2.487561
2.487887
2.488213
2.488539
2.488864
2.489189
2.489514
2.489839
2.490163
2.490488
2.490812
2.491136
2.491459
2.491783
2.492106
2.492429
2.492752
2.493074
2.493397
2.493719
2.494041
2.494362
2.494684
2.495005
2.495326
2.495646
2.495967
2.496287
2.496607
2.496927
2.497246
2.497566
2.497885
2.498203
2.498522
2.498840
2.499158
2.499476
2.499794
2.500111
2.500428
2.500745
2.501062
2.501378
2.501694
2.502010
2.502325
2.502641
2.502956
2.503271
2.503585
2.503900
2.504214
2.504527
2.504841
2.505154
2.505467
2.505780
2.506093
2.506405
2.506717
2.507029
2.507341
2.507652
2.507963
2.508274
2.508585
2.508895
2.509205
2.509515
2.509824
2.510134
2.510443
2.510752
2.511060
2.511369
2.511677
2.511985
2.512292
2.512600
2.512907
2.513214
2.513520
2.513827
2.514133
2.514439
2.514745
2.515050
2.515355
2.515660
2.515965
2.516270
2.516574
2.516878
2.517182
2.517485
2.517789
2.518092
2.518395
2.518697
2.519000
2.519302
2.519604
2.519906
2.520207
2.520509
2.520810
2.521111
2.521411
2.521712
2.522012
2.522312
2.522612
2.522911
2.523211
2.523510
2.523809
2.524107
2.524406
2.524704
2.525002
2.525300
2.525598
2.525895
2.526193
2.526490
2.526787
2.527083
2.527380
2.527676
2.527972
2.528268
2.528564
2.528859
2.529155
2.529450
2.529745
2.530040
2.530334
2.530629
2.530923
2.531217
2.531511
2.531804
2.532098
2.532391
2.532684
2.532977
2.533270
2.533563
2.533855
2.534148
2.534440
2.534732
2.535023
2.535315
2.535607
2.535898
2.536189
2.536480
2.536771
2.537062
2.537352
2.537643
2.537933
2.538223
2.538513
2.538803
2.539092
2.539382
2.539671
2.539960
2.540249
2.540538
2.540827
2.541116
2.541404
2.541693
2.541981
2.542269
2.542557
2.542845
2.543133
2.543421
2.543708
2.543996
2.544283
2.544570
2.544857
2.545144
2.545431
2.545718
2.546004
2.546291
2.546577
2.546863
2.547149
2.547435
2.547721
2.548007
2.548293
2.548579
2.548864
2.549150
2.549435
2.549720
2.550005
2.550291
2.550576
2.550860
2.551145
2.551430
2.551715
2.551999
2.552284
2.552568
2.552853
2.553137
2.553421
2.553705
2.553989
2.554273
2.554557
2.554841
2.555124
2.555409
2.555692
2.555976
2.556258
2.556543
2.556824
2.557111
2.557390
2.557679
2.557954
2.558249
2.558515
2.558822
2.559072
2.559401
2.559618
2.559996
2.560142
2.560620
2.560623
2.561310
2.561010
2.562140
2.561198
2.563279
2.560963
2.565120
2.559846
2.568644
2.556945
2.576633
2.550505
2.598487
2.538412
2.620790
2.522171
2.532948
2.565430
2.598569
2.661339
2.720562
2.599368
2.502431
2.499477
2.561087
2.599009
2.553869
2.611450
2.580385
2.599783
2.566279
2.617792
2.572894
2.650002
2.554275
2.524410
2.492322
2.484140
2.497275
2.511785
2.512901
2.505016
2.539735
2.522701
2.501511
2.462448
2.444478
2.471985
2.441345
2.430193
2.446828
2.418901
2.427682
2.424442
2.441592
2.458320
2.477343
2.472042
2.436192
2.448308
2.390793
2.433743
2.445396
2.369785
2.393779
2.412610
2.425187
2.367712
2.416365
2.442816
2.422988
2.397774
2.351876
2.336422
2.333750
2.337067
2.345747
2.356403
2.366849
2.376468
2.385782
2.395723
2.407045
2.419858
2.435214
2.451953
2.452648
2.435220
2.400806
2.340147
2.345813
2.351540
2.351304
2.356063
2.364091
2.365484
2.380804
2.393859
2.410164
2.427803
2.445591
2.461327
2.470005
2.469072
2.465075
2.461725
2.458521
2.463373
2.450903
2.470028
2.453170
2.453197
2.474649
2.449148
2.432668
2.440207
2.417720
2.432317
2.435548
2.409652
2.425197
2.442259
2.459811
2.473052
2.477242
2.475915
2.474783
2.474034
2.473389
2.472772
2.472128
2.471403
2.470521
2.469341
2.467573
2.464552
2.459361
2.464700
2.461606
2.456086
2.478727
2.453579
2.411581
2.371802
2.381192
2.395335
2.409596
2.425899
2.443452
2.456135
2.475012
2.443806
2.460969
2.456311
2.462405
2.443846
2.465795
2.403598
2.383317
2.397714
2.415701
2.412204
2.430136
2.450034
2.462654
2.459192
2.460309
2.450565
2.473504
2.458649
2.453716
2.438295
2.448954
2.469423
2.457313
2.475153
2.475960
2.476893
2.476574
2.476514
2.476539
2.476538
2.476539
2.476536
2.476524
2.476506
2.476482
2.476454
2.476421
2.476386
2.476347
2.476307
2.476265
2.476221
2.476176
2.476130
2.476084
2.476037
2.475989
2.475940
2.475891
2.475841
2.475791
2.475741
2.475690
2.475639
2.475587
2.475535
2.475483
2.475430
2.475377
2.475323
2.475270
2.475215
2.475161
2.475106
2.475050
2.474994
2.474938
2.474882
2.474825
2.474768
2.474710
2.474652
2.474594
2.474535
2.474476
2.474416
2.474356
2.474296
2.474236
2.474175
2.474113
2.474051
2.473989
2.473927
2.473864
2.473801
2.473737
2.473674
2.473609
2.473545
2.473480
2.473415
2.473349
2.473349
2.473283
2.473217
2.473150
2.473083
2.473016
2.472949
2.472881
2.472812
2.472744
2.472675
2.472606
2.472536
2.472467
2.472396
2.472326
2.472255
2.472184
2.472113
2.472042
2.471970
2.471898
2.471825
2.471752
2.471680
2.471606
2.471533
2.471459
2.471385
2.471311
2.471236
2.471161
2.471086
2.471011
2.470935
2.470859
2.470783
2.470707
2.470630
2.470553
2.470476
2.470399
2.470322
2.470244
2.470166
2.470088
2.470009
2.469930
2.469852
2.469773
2.469693
2.469614
2.469534
2.469454
2.469374
2.469294
2.469213
2.469132
2.469051
2.468970
2.468889
2.468807
2.468726
2.468644
2.468562
2.468480
2.468397
2.468315
2.468232
2.468149
2.468066
2.467982
2.467899
2.467815
2.467731
2.467648
2.467563
2.467479
2.467395
2.467310
2.467225
2.467140
2.467055
2.466970
2.466885
2.466799
2.466714
2.466628
2.466542
2.466456
2.466370
2.466283
2.466197
2.466110
2.466023
2.465937
2.465850
2.465762
2.465675
2.465588
2.465500
2.465413
2.465325
2.465237
2.465149
2.465061
2.464973
2.464885
2.464796
2.464708
2.464619
2.464530
2.464441
2.464353
2.464263
2.464174
2.464085
2.463996
2.463906
2.463817
2.463727
2.463637
2.463548
2.463458
2.463368
2.463278
2.463187
2.463097
2.463007
2.462916
2.462826
2.462735
2.462645
2.462554
2.462463
2.462372
2.462281
2.462190
2.462099
2.462008
2.461917
2.461826
2.461734
2.461643
2.461551
2.461460
2.461368
2.461276
2.461185
2.461093
2.461001
2.460909
2.460817
2.460725
2.460633
2.460541
2.460448
2.460356
2.460264
2.460172
2.460079
2.459987
2.459894
2.459802
2.459709
2.459616
2.459524
2.459431
2.459338
2.459246
2.459153
2.459060
2.458967
2.458874
2.458781
2.458688
2.458595
2.458502
2.458409
2.458316
2.458222
2.458129
2.458036
2.457943
2.457849
2.457756
2.457663
2.457569
2.457476
2.457383
2.457289
2.457196
2.457102
2.457009
2.456915
2.456822
2.456728
2.456635
2.456541
2.456448
2.456354
2.456260
2.456167
2.456073
2.455979
2.455886
2.455792
2.455698
2.455605
2.455511
2.455417
2.455324
2.455230
2.455136
2.455043
2.454949
2.454855
2.454761
2.454668
2.454574
2.454480
2.454386
2.454293
2.454199
2.454105
2.454012
2.453918
2.453824
2.453730
2.453637
2.453543
2.453449
2.453356
2.453262
2.453168
2.453075
2.452981
2.452887
2.452794
2.452700
2.452607
2.452513
2.452419
2.452326
2.452232
2.452139
2.452045
2.451952
2.451858
2.451765
2.451671
2.451578
2.451484
2.451391
2.451298
2.451204
2.451111
2.451018
2.450924
2.450831
2.450738
2.450645
2.450551
2.450458
2.450365
2.450272
2.450179
2.450086
2.449993
2.449900
2.449807
2.449714
2.449621
2.449528
2.449435
2.449342
2.449249
2.449157
2.449064
2.448971
2.448878
2.448786
2.448693
2.448601
2.448508
2.448415
2.448323
2.448231
2.448138
2.448046
2.447953
2.447861
2.447769
2.447677
2.447584
2.447492
2.447400
2.447308
2.447216
2.447124
2.447032
2.446940
2.446848
2.446756
2.446664
2.446573
2.446481
2.446389
2.446298
2.446206
2.446115
2.446023
2.445932
2.445840
2.445749
2.445657
2.445566
2.445475
2.445384
2.445293
2.445202
2.445110
2.445019
2.444929
2.444838
2.444747
2.444656
2.444565
2.444475
2.444384
2.444293
2.444203
2.444112
2.444022
2.443931
2.443841
2.443751
2.443660
2.443570
2.443480
2.443390
2.443300
2.443210
2.443120
2.443030
2.442940
2.442851
2.442761
2.442671
2.442582
2.442492
2.442403
2.442313
2.442224
2.442134
2.442045
2.441956
2.441867
2.441778
2.441689
2.441600
2.441511
2.441422
2.441333
2.441244
2.441156
2.441067
2.440979
2.440890
2.440802
2.440713
2.440625
2.440537
2.440449
2.440360
2.440272
2.440184
2.440096
2.440008
2.439921
2.439833
2.439745
2.439658
2.439570
2.439483
2.439395
2.439308
2.439220
2.439133
2.439046
2.438959
2.438872
2.438785
2.438698
2.438611
2.438524
2.438438
2.438351
2.438264
2.438178
2.438091
2.438005
2.437919
2.437832
2.437746
2.437660
2.437574
2.437488
2.437402
2.437316
2.437230
2.437145
2.437059
2.436974
2.436888
2.436803
2.436717
2.436632
2.436547
2.436462
2.436376
2.436291
2.436206
2.436122
2.436037
2.435952
2.435867
2.435783
2.435698
2.435614
2.435529
2.435445
2.435361
2.435277
2.435193
2.435109
2.435025
2.434941
2.434857
2.434773
2.434690
2.434606
2.434523
2.434439
2.434356
2.434273
2.434189
2.434106
2.434023
2.433940
2.433857
2.433774
2.433692
2.433609
2.433526
2.433444
2.433361
2.433279
2.433197
2.433114
2.433032
2.432950
2.432868
2.432786
2.432704
2.432622
2.432541
2.432459
2.432378
2.432296
2.432215
2.432133
2.432052
2.431971
2.431890
2.431809
2.431728
2.431647
2.431566
2.431485
2.431405
2.431324
2.431244
2.431163
2.431083
2.431003
2.430923
2.430843
2.430763
2.430683
2.430603
2.430523
2.430443
2.430364
2.430284
2.430205
2.430125
2.430046
2.429967
2.429888
2.429888
2.429809
2.429730
2.429651
2.429572
2.429493
2.429414
2.429336
2.429257
2.429179
2.429101
2.429022
2.428944
2.428866
2.428788
2.428710
2.428632
2.428554
2.428477
2.428399
2.428321
2.428244
2.428167
2.428089
2.428012
2.427935
2.427858
2.427781
2.427704
2.427627
2.427550
2.427474
2.427397
2.427321
2.427244
2.427168
2.427092
2.427015
2.426939
2.426863
2.426787
2.426711
2.426636
2.426560
2.426484
2.426409
2.426333
2.426258
2.426183
2.426108
2.426033
2.425957
2.425883
2.425808
2.425733
2.425658
2.425584
2.425509
2.425435
2.425360
2.425286
2.425212
2.425138
2.425064
2.424990
2.424916
2.424842
2.424768
2.424695
2.424621
2.424548
2.424474
2.424401
2.424328
2.424254
2.424181
2.424108
2.424036
2.423963
2.423890
2.423817
2.423745
2.423672
2.423600
2.423528
2.423455
2.423383
2.423311
2.423239
2.423167
2.423096
2.423024
2.422952
2.422881
2.422809
2.422738
2.422667
2.422595
2.422524
2.422453
2.422382
2.422311
2.422240
2.422170
2.422099
2.422029
2.421958
2.421888
2.421817
2.421747
2.421677
2.421607
2.421537
2.421467
2.421397
2.421328
2.421258
2.421188
2.421119
2.421050
2.420980
2.420911
2.420842
2.420773
2.420704
2.420635
2.420566
2.420497
2.420429
2.420360
2.420292
2.420223
2.420155
2.420087
2.420019
2.419951
2.419883
2.419815
2.419747
2.419679
2.419612
2.419544
2.419477
2.419409
2.419342
2.419275
2.419208
2.419141
2.419074
2.419007
2.418940
2.418873
2.418807
2.418740
2.418674
2.418607
2.418541
2.418475
2.418409
2.418343
2.418277
2.418211
2.418145
2.418080
2.418014
2.417948
2.417883
2.417818
2.417752
2.417687
2.417622
2.417557
2.417492
2.417427
2.417362
2.417298
2.417233
2.417169
2.417104
2.417040
2.416976
2.416911
2.416847
2.416783
2.416719
2.416655
2.416592
2.416528
2.416464
2.416401
2.416337
2.416274
2.416211
2.416148
2.416084
2.416021
2.415959
2.415896
2.415833
2.415770
2.415708
2.415645
2.415583
2.415520
2.415458
2.415396
2.415334
2.415272
2.415210
2.415148
2.415086
2.415024
2.414963
2.414901
2.414840
2.414779
2.414717
2.414656
2.414595
2.414534
2.414473
2.414412
2.414351
2.414291
2.414230
2.414170
2.414109
2.414049
2.413989
2.413928
2.413868
2.413808
2.413748
2.413688
2.413629
2.413569
2.413509
2.413450
2.413390
2.413331
2.413272
2.413213
2.413153
2.413094
2.413035
2.412977
2.412918
2.412859
2.412800
2.412742
2.412683
2.412625
2.412567
2.412509
2.412450
2.412392
2.412334
2.412277
2.412219
2.412161
2.412103
2.412046
2.411988
2.411931
2.411874
2.411817
2.411759
2.411702
2.411645
2.411588
2.411532
2.411475
2.411418
2.411362
2.411305
2.411249
2.411192
2.411136
2.411080
2.411024
2.410968
2.410912
2.410856
2.410801
2.410745
2.410689
2.410634
2.410578
2.410523
2.410468
2.410413
2.410357
2.410302
2.410248
2.410193
2.410138
2.410083
2.410029
2.409974
2.409920
2.409865
2.409811
2.409757
2.409703
2.409649
2.409595
2.409541
2.409487
2.409433
2.409380
2.409326
2.409273
2.409219
2.409166
2.409113
2.409059
2.409006
2.408953
2.408900
2.408848
2.408795
2.408742
2.408690
2.408637
2.408585
2.408532
2.408480
2.408428
2.408376
2.408324
2.408272
2.408220
2.408168
2.408116
2.408065
2.408013
2.407962
2.407910
2.407859
2.407808
2.407757
2.407706
2.407655
2.407604
2.407553
2.407502
2.407451
2.407401
2.407350
2.407300
2.407249
2.407199
2.407149
2.407099
2.407049
2.406999
2.406949
2.406899
2.406849
2.406800
2.406750
2.406701
2.406651
2.406602
2.406553
2.406504
2.406455
2.406406
2.406357
2.406308
2.406259
2.406210
2.406162
2.406113
2.406065
2.406016
2.405968
2.405920
2.405872
2.405823
2.405775
2.405728
2.405680
2.405632
2.405584
2.405537
2.405489
2.405442
2.405394
2.405347
2.405300
2.405253
2.405206
2.405159
2.405112
2.405065
2.405018
2.404972
2.404925
2.404878
2.404832
2.404786
2.404739
2.404693
2.404647
2.404601
2.404555
2.404509
2.404463
2.404418
2.404372
2.404326
2.404281
2.404235
2.404190
2.404145
2.404100
2.404054
2.404009
2.403964
2.403920
2.403875
2.403830
2.403785
2.403741
2.403696
2.403652
2.403607
2.403563
2.403519
2.403475
2.403431
2.403387
2.403343
2.403299
2.403255
2.403212
2.403168
2.403125
2.403081
2.403038
2.402995
2.402951
2.402908
2.402865
2.402822
2.402779
2.402736
2.402694
2.402651
2.402608
2.402566
2.402523
2.402481
2.402439
2.402396
2.402354
2.402312
2.402270
2.402228
2.402186
2.402145
2.402103
2.402061
2.402020
2.401978
2.401937
2.401896
2.401854
2.401813
2.401772
2.401731
2.401690
2.401649
2.401608
2.401568
2.401527
2.401486
2.401446
2.401405
2.401365
2.401325
2.401285
2.401245
2.401204
2.401164
2.401125
2.401085
2.401045
2.401005
2.400966
2.400926
2.400887
2.400847
2.400808
2.400769
2.400730
2.400690
2.400651
2.400612
2.400612
2.400574
2.400535
2.400496
2.400457
2.400419
2.400380
2.400342
2.400304
2.400265
2.400227
2.400189
2.400151
2.400113
2.400075
2.400037
2.399999
2.399962
2.399924
2.399886
2.399849
2.399812
2.399774
2.399737
2.399700
2.399663
2.399626
2.399589
2.399552
2.399515
2.399478
2.399441
2.399405
2.399368
2.399332
2.399295
2.399259
2.399223
2.399187
2.399151
2.399115
2.399079
2.399043
2.399007
2.398971
2.398936
2.398900
2.398864
2.398829
2.398794
2.398758
2.398723
2.398688
2.398653
2.398618
2.398583
2.398548
2.398513
2.398478
2.398444
2.398409
2.398375
2.398340
2.398306
2.398271
2.398237
2.398203
2.398169
2.398135
2.398101
2.398067
2.398033
2.398000
2.397966
2.397932
2.397899
2.397865
2.397832
2.397799
2.397765
2.397732
2.397699
2.397666
2.397633
2.397600
2.397567
2.397535
2.397502
2.397469
2.397437
2.397404
2.397372
2.397340
2.397307
2.397275
2.397243
2.397211
2.397179
2.397147
2.397115
2.397083
2.397052
2.397020
2.396989
2.396957
2.396926
2.396894
2.396863
2.396832
2.396801
2.396770
2.396739
2.396708
2.396677
2.396646
2.396615
2.396585
2.396554
2.396524
2.396493
2.396463
2.396432
2.396402
2.396372
2.396342
2.396312
2.396282
2.396252
2.396222
2.396192
2.396163
2.396133
2.396104
2.396074
2.396045
2.396015
2.395986
2.395957
2.395928
2.395899
2.395870
2.395841
2.395812
2.395783
2.395754
2.395726
2.395697
2.395669
2.395640
2.395612
2.395584
2.395555
2.395527
2.395499
2.395471
2.395443
2.395415
2.395387
2.395359
2.395332
2.395304
2.395277
2.395249
2.395222
2.395194
2.395167
2.395140
2.395113
2.395085
2.395058
2.395031
2.395005
2.394978
2.394951
2.394924
2.394898
2.394871
2.394845
2.394818
2.394792
2.394766
2.394739
2.394713
2.394687
2.394661
2.394635
2.394609
2.394584
2.394558
2.394532
2.394506
2.394481
2.394455
2.394430
2.394405
2.394379
2.394354
2.394329
2.394304
2.394279
2.394254
2.394229
2.394204
2.394180
2.394155
2.394130
2.394106
2.394081
2.394057
2.394033
2.394008
2.393984
2.393960
2.393936
2.393912
2.393888
2.393864
2.393840
2.393816
2.393793
2.393769
2.393746
2.393722
2.393699
2.393675
2.393652
2.393629
2.393606
2.393582
2.393559
2.393536
2.393514
2.393491
2.393468
2.393445
2.393423
2.393400
2.393378
2.393355
2.393333
2.393310
2.393288
2.393266
2.393244
2.393222
2.393200
2.393178
2.393156
2.393134
2.393113
2.393091
2.393069
2.393048
2.393026
2.393005
2.392984
2.392962
2.392941
2.392920
2.392899
2.392878
2.392857
2.392836
2.392815
2.392795
2.392774
2.392753
2.392733
2.392712
2.392692
2.392672
2.392651
2.392631
2.392611
2.392591
2.392571
2.392551
2.392531
2.392511
2.392491
2.392472
2.392452
2.392432
2.392413
2.392393
2.392374
2.392355
2.392335
2.392316
2.392297
2.392278
2.392259
2.392240
2.392221
2.392202
2.392183
2.392165
2.392146
2.392128
2.392109
2.392090
2.392072
2.392054
2.392035
2.392018
2.391999
2.391981
2.391964
2.391945
2.391928
2.391910
2.391891
2.391875
2.391857
2.391838
2.391823
2.391803
2.391787
2.391771
2.391750
2.391737
2.391719
2.391698
2.391688
2.391665
2.391649
2.391638
2.391611
2.391603
2.391587
2.391559
2.391559
2.391531
2.391511
2.391515
2.391472
2.391472
2.391466
2.391414
2.391441
2.391404
2.391365
2.391412
2.391329
2.391338
2.391371
2.391247
2.391339
2.391297
2.391183
2.391356
2.391173
2.391177
2.391350
2.391014
2.391260
2.391253
2.390883
2.391417
2.391002
2.390900
2.391542
2.390602
2.391195
2.391430
2.390206
2.391776
2.390853
2.390181
2.392355
2.389732
2.391022
2.392315
2.388374
2.392862
2.390956
2.387837
2.394752
2.388011
2.389935
2.394919
2.383962
2.394784
2.392046
2.381225
2.398146
2.387550
2.384943
2.398069
2.382634
2.392336
2.395061
2.376553
2.397705
2.389955
2.379252
2.398346
2.385971
2.385610
2.397270
2.380556
2.393556
2.393346
2.375182
2.397426
2.388584
2.380245
2.397675
2.384132
2.387196
2.395996
2.378027
2.394975
2.391081
2.375238
2.397139
2.386884
2.381621
2.396894
2.381893
2.389350
2.394274
2.375343
2.395835
2.388765
2.377068
2.396815
2.384485
2.384075
2.395764
2.378634
2.392445
2.391515
2.373518
2.396000
2.386617
2.379773
2.396116
2.381517
2.387631
2.393778
2.374763
2.394737
2.388112
2.375791
2.395945
2.383631
2.383235
2.394906
2.377484
2.391864
2.390424
2.372619
2.395204
2.385437
2.379610
2.395206
2.379895
2.388004
2.392370
2.372969
2.394350
2.386465
2.376559
2.395164
2.381447
2.384709
2.393410
2.374519
2.392957
2.387765
2.373414
2.394766
2.383012
2.381468
2.393981
2.376588
2.390500
2.389513
2.371316
2.394111
2.384161
2.379006
2.394091
2.378077
2.387997
2.390728
2.371145
2.393553
2.384661
2.377162
2.394044
2.378832
2.386175
2.391326
2.371411
2.393021
2.384976
2.375595
2.393898
2.393898
2.379349
2.384683
2.391650
2.371769
2.392458
2.385254
2.374185
2.393681
2.379766
2.383382
2.391824
2.372150
2.391852
2.385523
2.372918
2.393411
2.380098
2.382262
2.391885
2.372484
2.391235
2.385750
2.371853
2.393116
2.380302
2.381384
2.391841
2.372673
2.390687
2.385855
2.371076
2.392830
2.380318
2.380820
2.391699
2.372620
2.390313
2.385752
2.370639
2.392585
2.380101
2.380614
2.391464
2.372266
2.390174
2.385389
2.370576
2.392399
2.379620
2.380799
2.391127
2.371578
2.390273
2.384742
2.370982
2.392273
2.378809
2.381464
2.390640
2.370502
2.390559
2.383781
2.372082
2.392171
2.377508
2.382835
2.389842
2.368976
2.390903
2.382507
2.374176
2.391930
2.375510
2.385139
2.388371
2.367431
2.391059
2.381130
2.376878
2.391262
2.373219
2.387569
2.386168
2.367702
2.391212
2.379618
2.379005
2.390477
2.371132
2.389134
2.384024
2.369795
2.391461
2.377518
2.381401
2.389505
2.368573
2.390191
2.381838
2.373472
2.391383
2.374343
2.385196
2.387328
2.366344
2.390519
2.379874
2.377743
2.390288
2.371173
2.388375
2.383971
2.368792
2.391031
2.377156
2.381091
2.389050
2.367913
2.389907
2.381028
2.373941
2.390964
2.372894
2.386058
2.386015
2.365961
2.390292
2.378687
2.378893
2.389421
2.369476
2.389004
2.382026
2.371056
2.390939
2.374393
2.383860
2.387202
2.365547
2.389929
2.379008
2.377804
2.389567
2.369636
2.388540
2.382275
2.369991
2.390758
2.374593
2.383268
2.387228
2.365419
2.389758
2.378717
2.377788
2.389369
2.369092
2.388586
2.381696
2.370538
2.390658
2.373591
2.384131
2.386421
2.364919
2.389655
2.378007
2.378844
2.388692
2.368203
2.388930
2.380390
2.372682
2.390464
2.371391
2.386161
2.384532
2.365439
2.389824
2.376643
2.380510
2.387773
2.366796
2.389317
2.378726
2.375868
2.389747
2.368620
2.388133
2.381650
2.369490
2.390407
2.373096
2.384167
2.385764
2.364550
2.389445
2.376944
2.379913
2.387748
2.366884
2.389144
2.378482
2.375788
2.389641
2.367991
2.388246
2.380969
2.370392
2.390360
2.371743
2.385341
2.384566
2.364782
2.389526
2.375876
2.381194
2.386872
2.366016
2.389307
2.377114
2.378301
2.388595
2.366117
2.388914
2.378643
2.375250
2.389654
2.367733
2.388207
2.380537
2.370842
2.390310
2.370635
2.386199
2.383414
2.365657
2.389749
2.374446
2.382709
2.385837
2.365145
2.389398
2.375769
2.380755
2.387080
2.365204
2.389206
2.376605
2.379238
2.387957
2.365382
2.389058
2.377286
2.377882
2.388643
2.365706
2.388922
2.377915
2.376519
2.389231
2.366169
2.388759
2.378581
2.375001
2.389748
2.366860
2.388511
2.379386
2.373117
2.390180
2.367939
2.388041
2.380481
2.370626
2.390413
2.369628
2.387071
2.381994
2.367666
2.390235
2.371808
2.385473
2.383585
2.365748
2.389858
2.373310
2.384209
2.384451
2.365548
2.389744
2.373706
2.383729
2.384842
2.365271
2.389673
2.373886
2.383598
2.384879
2.365369
2.389697
2.373766
2.383736
2.384768
2.365380
2.389731
2.373571
2.384020
2.384491
2.365607
2.389815
2.373225
2.384418
2.384146
2.365822
2.389907
2.372836
2.384867
2.383721
2.366192
2.390026
2.372349
2.385364
2.383251
2.366624
2.390156
2.371806
2.385886
2.382722
2.367217
2.390304
2.371157
2.386450
2.382120
2.368002
2.390464
2.370364
2.387067
2.381392
2.369133
2.390627
2.369316
2.387768
2.380434
2.370908
2.390735
2.367805
2.388552
2.379041
2.373971
2.390489
2.365564
2.389224
2.377012
2.379014
2.388640
2.363787
2.389459
2.374942
2.383688
2.384671
2.366898
2.390365
2.371979
2.386331
2.382568
2.368067
2.390795
2.369976
2.387991
2.380233
2.372137
2.391009
2.366667
2.389348
2.377434
2.378420
2.389397
2.363407
2.389592
2.374724
2.384906
2.383441
2.369157
2.390889
2.370141
2.388092
2.380628
2.371788
2.391321
2.366750
2.389668
2.377006
2.379923
2.388923
2.363164
2.389796
2.374097
2.386482
2.381484
2.372737
2.391087
2.367426
2.389688
2.377597
2.378985
2.389787
2.362984
2.389872
2.374157
2.387004
2.380837
2.374413
2.391039
2.366409
2.390175
2.376282
2.382414
2.387708
2.363857
2.390417
2.373014
2.388298
2.379371
2.376967
2.390771
2.364424
2.390417
2.374444
2.386722
2.382466
2.371896
2.391854
2.367623
2.390422
2.376718
2.382205
2.388533
2.363294
2.390483
2.373110
2.389228
2.377749
2.380822
2.389387
2.363559
2.390616
2.373227
2.389239
2.378053
2.380561
2.389723
2.363530
2.390692
2.373189
2.389557
2.377540
2.381736
2.389157
2.363586
2.390833
2.372838
2.390081
2.376581
2.383534
2.387983
2.364158
2.391166
2.372165
2.390599
2.375806
2.384909
2.386930
2.365139
2.391620
2.371331
2.391040
2.375273
2.385935
2.386026
2.366426
2.392128
2.370352
2.391442
2.374774
2.386996
2.384855
2.368574
2.392761
2.368834
2.391821
2.374133
2.388414
2.382720
2.373070
2.393246
2.365943
2.391892
2.373040
2.373040
2.390689
2.377445
2.383788
2.389041
2.363938
2.391607
2.371958
2.392183
2.372809
2.390160
2.380192
2.378680
2.392579
2.362935
2.391248
2.372560
2.392502
2.371677
2.391306
2.377596
2.384082
2.389466
2.363556
2.391645
2.371892
2.392861
2.371105
2.391940
2.375911
2.387288
2.386009
2.368521
2.393514
2.368524
2.393023
2.371455
2.392496
2.374220
2.389965
2.381767
2.377258
2.393792
2.363488
2.391868
2.371772
2.393636
2.369494
2.393158
2.372056
2.392453
2.375166
2.389405
2.383404
2.374704
2.394541
2.364586
2.392517
2.370912
2.394003
2.368853
2.393593
2.370231
2.393620
2.370671
2.393422
2.371889
2.392959
2.374171
2.391265
2.379830
2.382946
2.391994
2.362544
2.391689
2.371531
2.394666
2.366586
2.393466
2.368580
2.394039
2.367330
2.393632
2.367607
2.393674
2.367111
2.393458
2.367019
2.393369
2.366689
2.393188
2.366495
2.393051
2.366192
2.392866
2.365950
2.392700
2.365632
2.392496
2.365351
2.392306
2.364993
2.392075
2.364673
2.391864
2.364243
2.391594
2.363899
2.391386
2.363320
2.391051
2.363081
2.391001
2.361993
2.390490
2.362464
2.391697
2.359248
2.395904
2.369687
2.369150
2.393435
2.445975
2.441017
2.497696
2.497098
2.481859
2.557714
2.600315
2.650626
2.687914
2.762654
2.793122
2.781125
2.818631
2.856416
2.875647
2.880627
2.885374
2.872071
2.848927
2.825597
2.837049
2.840549
2.831395
2.811832
2.803539
2.806666
2.807796
2.785806
2.812304
2.786872
2.733458
2.717308
2.710189
2.748724
2.737635
2.821966
2.796820
2.708307
2.748310
2.825240
2.856186
2.869739
2.888235
2.848434
2.941110
2.857903
2.839493
2.889270
2.961284
3.000474
2.973407
3.038987
2.895583
2.912461
2.915392
3.016750
2.990434
3.144667
3.184749
3.176967
3.100959
3.083726
3.148160
3.072446
3.197821
3.164369
3.067496
3.089159
3.223638
3.310077
3.291912
3.236998
3.180286
3.158302
3.168382
3.230380
3.241166
3.338611
3.411532
3.390589
3.346526
3.354408
3.284703
3.293049
3.344599
3.328776
3.288906
3.309411
3.333726
3.319326
3.295768
3.245212
3.322121
3.307460
3.299380
3.407583
3.503068
3.549553
3.555844
3.460549
3.452508
3.418772
3.421646
3.385264
3.290606
3.295013
3.412533
3.522705
3.573478
3.533270
3.509071
3.470021
3.571649
3.661166
3.718290
3.749174
3.765437
3.774138
3.778909
3.781587
3.783114
3.783978
3.784440
3.784643
3.784668
3.784563
3.784357
3.784070
3.783714
3.783299
3.782833
3.782321
3.781769
3.781181
3.780560
3.779913
3.779242
3.778553
3.777852
3.777148
3.776459
3.775815
3.775294
3.775143
3.776774
3.780990
3.678367
3.102064
3.021210
3.011940
3.208802
2.829052
3.008488
3.161235
2.326124
2.593426
2.785882
2.956695
3.052732
2.816726
2.970929
3.065224
2.933983
3.083657
2.995649
3.223316
2.841982
2.783955
2.828616
3.001792
3.075722
2.802136
2.871662
2.987139
2.850454
3.084331
2.748367
2.870522
2.986348
3.006607
2.286584
2.253456
2.301906
2.409425
2.541811
2.721200
2.854310
2.896524
3.116275
2.943454
2.679370
2.731222
2.898596
3.062468
2.968437
2.420491
2.565055
2.738075
2.840971
2.996760
2.708710
2.826647
2.919372
1.862056
1.899678
2.032248
1.964874
1.874747
1.856322
1.584830
1.580313
1.580288
1.580911
1.554573
1.556238
1.551771
1.548732
1.547238
1.548999
1.550422
1.548318
1.548376
1.551034
1.554326
1.553782
1.555510
1.558253
1.561962
1.564650
1.567715
1.576585
1.606344
1.628515
1.682993
1.661945
1.683631
1.708898
1.686851
1.717228
1.699591
1.709975
1.717718
1.723160
1.728991
1.741700
1.736141
1.773931
1.767618
1.769028
1.799156
1.892781
1.805399
1.820525
1.839322
1.859202
1.878592
1.897948
1.915627
1.929821
1.940116
1.947378
1.952862
1.957537
1.961934
1.966255
1.970527
1.974703
1.978729
1.982564
1.986191
1.989608
1.992823
1.995854
1.998716
2.001426
2.003999
2.006447
2.008781
2.011009
2.013139
2.015176
2.017126
2.018994
2.020784
2.022499
2.024143
2.025718
2.027229
2.028678
2.030067
2.031399
2.032676
2.033902
2.035079
2.036208
2.037292
2.038333
2.039333
2.040295
2.041220
2.042111
2.042969
2.043796
2.044593
2.045363
2.046107
2.046827
2.047524
2.048199
2.048854
2.049490
2.050108
2.050709
2.051295
2.051867
2.052424
2.052969
2.053503
2.054025
2.054536
2.055038
2.055531
2.056016
2.056492
2.056962
2.057424
2.057880
2.058331
2.058775
2.059215
2.059649
2.060079
2.060505
2.060927
2.061345
2.061759
2.062170
2.062578
2.062984
2.063386
2.063786
2.064184
2.064579
2.064972
2.065363
2.065752
2.066139
2.066524
2.066908
2.067290
2.067670
2.068049
2.068427
2.068803
2.069178
2.069551
2.069924
2.070295
2.070665
2.071033
2.071401
2.071768
2.072133
2.072497
2.072861
2.073223
2.073584
2.073945
2.074304
2.074663
2.075020
2.075377
2.075732
2.076087
2.076441
2.076794
2.077146
2.077497
2.077497
2.077847
2.078197
2.078545
2.078893
2.079240
2.079585
2.079931
2.080275
2.080618
2.080961
2.081302
2.081643
2.081983
2.082322
2.082660
2.082998
2.083335
2.083670
2.084005
2.084340
2.084673
2.085005
2.085337
2.085668
2.085998
2.086327
2.086656
2.086983
2.087310
2.087636
2.087962
2.088286
2.088610
2.088933
2.089255
2.089576
2.089897
2.090216
2.090535
2.090854
2.091171
2.091488
2.091804
2.092119
2.092433
2.092747
2.093060
2.093372
2.093683
2.093994
2.094304
2.094613
2.094921
2.095229
2.095536
2.095842
2.096148
2.096453
2.096757
2.097060
2.097363
2.097665
2.097966
2.098267
2.098567
2.098866
2.099164
2.099462
2.099759
2.100056
2.100352
2.100647
2.100941
2.101235
2.101528
2.101821
2.102113
2.102404
2.102695
2.102985
2.103274
2.103563
2.103851
2.104138
2.104425
2.104711
2.104997
2.105282
2.105566
2.105850
2.106133
2.106416
2.106698
2.106979
2.107260
2.107540
2.107820
2.108099
2.108377
2.108655
2.108933
2.109209
2.109486
2.109761
2.110037
2.110311
2.110585
2.110859
2.111132
2.111404
2.111676
2.111948
2.112218
2.112489
2.112759
2.113028
2.113297
2.113565
2.113833
2.114100
2.114367
2.114633
2.114899
2.115164
2.115429
2.115693
2.115957
2.116221
2.116484
2.116746
2.117008
2.117270
2.117531
2.117791
2.118051
2.118311
2.118570
2.118829
2.119087
2.119345
2.119603
2.119860
2.120116
2.120372
2.120628
2.120883
2.121138
2.121393
2.121647
2.121900
2.122153
2.122406
2.122659
2.122910
2.123162
2.123413
2.123664
2.123914
2.124164
2.124414
2.124663
2.124912
2.125160
2.125408
2.125656
2.125903
2.126150
2.126397
2.126643
2.126889
2.127134
2.127379
2.127624
2.127868
2.128112
2.128356
2.128599
2.128842
2.129084
2.129327
2.129568
2.129810
2.130051
2.130292
2.130533
2.130773
2.131013
2.131252
2.131491
2.131730
2.131969
2.132207
2.132445
2.132682
2.132920
2.133156
2.133393
2.133629
2.133865
2.134101
2.134336
2.134571
2.134806
2.135041
2.135275
2.135509
2.135742
2.135975
2.136208
2.136441
2.136673
2.136906
2.137137
2.137369
2.137600
2.137831
2.138062
2.138292
2.138522
2.138752
2.138981
2.139211
2.139440
2.139668
2.139897
2.140125
2.140353
2.140581
2.140808
2.141035
2.141262
2.141489
2.141715
2.141941
2.142167
2.142392
2.142618
2.142843
2.143067
2.143292
2.143516
2.143740
2.143964
2.144188
2.144411
2.144634
2.144857
2.145079
2.145302
2.145524
2.145745
2.145967
2.146188
2.146410
2.146630
2.146851
2.147071
2.147292
2.147512
2.147731
2.147951
2.148170
2.148389
2.148608
2.148827
2.149045
2.149263
2.149481
2.149699
2.149916
2.150133
2.150350
2.150567
2.150784
2.151000
2.151216
2.151432
2.151648
2.151864
2.152079
2.152294
2.152509
2.152724
2.152938
2.153152
2.153366
2.153580
2.153794
2.154007
2.154220
2.154433
2.154646
2.154859
2.155071
2.155284
2.155496
2.155707
2.155919
2.156130
2.156342
2.156553
2.156763
2.156974
2.157184
2.157395
2.157605
2.157815
2.158024
2.158234
2.158443
2.158652
2.158861
2.159070
2.159278
2.159486
2.159695
2.159903
2.160110
2.160318
2.160525
2.160732
2.160939
2.161146
2.161353
2.161559
2.161766
2.161972
2.162178
2.162383
2.162589
2.162794
2.163000
2.163205
2.163409
2.163614
2.163819
2.164023
2.164227
2.164431
2.164635
2.164838
2.165042
2.165245
2.165448
2.165651
2.165854
2.166056
2.166259
2.166461
2.166663
2.166865
2.167066
2.167268
2.167469
2.167670
2.167871
2.168072
2.168273
2.168473
2.168674
2.168874
2.169074
2.169274
2.169473
2.169673
2.169872
2.170071
2.170270
2.170469
2.170668
2.170866
2.171065
2.171263
2.171461
2.171659
2.171857
2.172054
2.172251
2.172449
2.172646
2.172843
2.173039
2.173236
2.173432
2.173628
2.173825
2.174020
2.174216
2.174412
2.174607
2.174803
2.174998
2.175193
2.175388
2.175582
2.175777
2.175971
2.176165
2.176359
2.176553
2.176747
2.176940
2.177134
2.177327
2.177520
2.177713
2.177906
2.178099
2.178291
2.178483
2.178676
2.178868
2.179059
2.179251
2.179443
2.179634
2.179825
2.180016
2.180207
2.180398
2.180589
2.180779
2.180970
2.181160
2.181350
2.181540
2.181730
2.181919
2.182109
2.182298
2.182487
2.182676
2.182865
2.183054
2.183242
2.183431
2.183619
2.183807
2.183995
2.184183
2.184371
2.184558
2.184746
2.184933
2.185120
2.185307
2.185494
2.185680
2.185867
2.186053
2.186240
2.186426
2.186612
2.186797
2.186983
2.187169
2.187354
2.187539
2.187724
2.187909
2.188094
2.188279
2.188463
2.188648
2.188832
2.189016
2.189200
2.189384
2.189567
2.189751
2.189934
2.190117
2.190301
2.190484
2.190666
2.190849
2.191032
2.191214
2.191396
2.191578
2.191760
2.191942
2.192124
2.192305
2.192487
2.192668
2.192849
2.193030
2.193211
2.193392
2.193572
2.193753
2.193933
2.194113
2.194293
2.194473
2.194653
2.194833
2.195012
2.195012
2.195192
2.195371
2.195550
2.195729
2.195908
2.196086
2.196265
2.196443
2.196622
2.196800
2.196978
2.197156
2.197333
2.197511
2.197689
2.197866
2.198043
2.198220
2.198397
2.198574
2.198751
2.198927
2.199104
2.199280
2.199456
2.199632
2.199808
2.199984
2.200159
2.200335
2.200510
2.200685
2.200860
2.201035
2.201210
2.201385
2.201559
2.201734
2.201908
2.202082
2.202256
2.202430
2.202604
2.202778
2.202951
2.203125
2.203298
2.203471
2.203644
2.203817
2.203990
2.204162
2.204335
2.204507
2.204680
2.204852
2.205024
2.205196
2.205367
2.205539
2.205710
2.205882
2.206053
2.206224
2.206395
2.206566
2.206737
2.206907
2.207078
2.207248
2.207418
2.207588
2.207758
2.207928
2.208098
2.208267
2.208437
2.208606
2.208775
2.208945
2.209114
2.209282
2.209451
2.209620
2.209788
2.209957
2.210125
2.210293
2.210461
2.210629
2.210797
2.210964
2.211132
2.211299
2.211466
2.211633
2.211800
2.211967
2.212134
2.212301
2.212467
2.212634
2.212800
2.212966
2.213132
2.213298
2.213464
2.213630
2.213795
2.213961
2.214126
2.214291
2.214456
2.214621
2.214786
2.214951
2.215115
2.215280
2.215444
2.215609
2.215773
2.215937
2.216101
2.216264
2.216428
2.216592
2.216755
2.216918
2.217082
2.217245
2.217408
2.217570
2.217733
2.217896
2.218058
2.218221
2.218383
2.218545
2.218707
2.218869
2.219031
2.219193
2.219354
2.219516
2.219677
2.219838
2.219999
2.220160
2.220321
2.220482
2.220643
2.220803
2.220964
2.221124
2.221284
2.221444
2.221604
2.221764
2.221924
2.222084
2.222243
2.222403
2.222562
2.222721
2.222880
2.223039
2.223198
2.223357
2.223515
2.223674
2.223832
2.223991
2.224149
2.224307
2.224465
2.224623
2.224781
2.224938
2.225096
2.225253
2.225410
2.225568
2.225725
2.225882
2.226039
2.226195
2.226352
2.226509
2.226665
2.226821
2.226978
2.227134
2.227290
2.227446
2.227601
2.227757
2.227913
2.228068
2.228224
2.228379
2.228534
2.228689
2.228844
2.228999
2.229154
2.229308
2.229463
2.229617
2.229771
2.229926
2.230080
2.230234
2.230388
2.230541
2.230695
2.230849
2.231002
2.231156
2.231309
2.231462
2.231615
2.231768
2.231921
2.232074
2.232226
2.232379
2.232531
2.232683
2.232836
2.232988
2.233140
2.233292
2.233444
2.233595
2.233747
2.233898
2.234050
2.234201
2.234352
2.234503
2.234654
2.234805
2.234956
2.235107
2.235257
2.235408
2.235558
2.235709
2.235859
2.236009
2.236159
2.236309
2.236459
2.236608
2.236758
2.236907
2.237057
2.237206
2.237355
2.237504
2.237653
2.237802
2.237951
2.238100
2.238248
2.238397
2.238545
2.238694
2.238842
2.238990
2.239138
2.239286
2.239434
2.239581
2.239729
2.239877
2.240024
2.240171
2.240319
2.240466
2.240613
2.240760
2.240907
2.241053
2.241200
2.241347
2.241493
2.241639
2.241786
2.241932
2.242078
2.242224
2.242370
2.242516
2.242661
2.242807
2.242953
2.243098
2.243243
2.243389
2.243534
2.243679
2.243824
2.243969
2.244113
2.244258
2.244403
2.244547
2.244692
2.244836
2.244980
2.245124
2.245268
2.245412
2.245556
2.245700
2.245843
2.245987
2.246130
2.246274
2.246417
2.246560
2.246703
2.246847
2.246989
2.247132
2.247275
2.247418
2.247560
2.247703
2.247845
2.247987
2.248130
2.248272
2.248414
2.248556
2.248698
2.248839
2.248981
2.249123
2.249264
2.249405
2.249547
2.249688
2.249829
2.249970
2.250111
2.250252
2.250393
2.250533
2.250674
2.250815
2.250955
2.251095
2.251236
2.251376
2.251516
2.251656
2.251796
2.251936
2.252075
2.252215
2.252355
2.252494
2.252633
2.252773
2.252912
2.253051
2.253190
2.253329
2.253468
2.253607
2.253745
2.253884
2.254022
2.254161
2.254299
2.254437
2.254576
2.254714
2.254852
2.254990
2.255128
2.255265
2.255403
2.255541
2.255678
2.255815
2.255953
2.256090
2.256227
2.256364
2.256501
2.256638
2.256775
2.256912
2.257048
2.257185
2.257322
2.257458
2.257594
2.257731
2.257867
2.258003
2.258139
2.258275
2.258411
2.258546
2.258682
2.258818
2.258953
2.259089
2.259224
2.259359
2.259494
2.259629
2.259765
2.259899
2.260034
2.260169
2.260304
2.260438
2.260573
2.260707
2.260842
2.260976
2.261110
2.261244
2.261378
2.261512
2.261646
2.261780
2.261914
2.262048
2.262181
2.262315
2.262448
2.262581
2.262715
2.262848
2.262981
2.263114
2.263247
2.263380
2.263513
2.263645
2.263778
2.263910
2.264043
2.264175
2.264308
2.264440
2.264572
2.264704
2.264836
2.264968
2.265100
2.265232
2.265363
2.265495
2.265627
2.265758
2.265889
2.266021
2.266152
2.266283
2.266414
2.266545
2.266676
2.266807
2.266938
2.267068
2.267199
2.267330
2.267460
2.267590
2.267721
2.267851
2.267981
2.268111
2.268241
2.268371
2.268501
2.268631
2.268761
2.268890
2.269020
2.269149
2.269279
2.269408
2.269537
2.269667
2.269796
2.269925
2.270054
2.270183
2.270311
2.270440
2.270569
2.270569
2.270698
2.270826
2.270955
2.271083
2.271211
2.271339
2.271468
2.271596
2.271724
2.271852
2.271980
2.272107
2.272235
2.272363
2.272490
2.272618
2.272745
2.272873
2.273000
2.273127
2.273254
2.273381
2.273508
2.273635
2.273762
2.273889
2.274016
2.274142
2.274269
2.274395
2.274522
2.274648
2.274774
2.274901
2.275027
2.275153
2.275279
2.275405
2.275531
2.275657
2.275782
2.275908
2.276033
2.276159
2.276284
2.276410
2.276535
2.276660
2.276786
2.276911
2.277036
2.277161
2.277285
2.277410
2.277535
2.277660
2.277784
2.277909
2.278033
2.278158
2.278282
2.278406
2.278531
2.278655
2.278779
2.278903
2.279027
2.279150
2.279274
2.279398
2.279522
2.279645
2.279769
2.279892
2.280016
2.280139
2.280262
2.280385
2.280508
2.280631
2.280754
2.280877
2.281000
2.281123
2.281246
2.281368
2.281491
2.281613
2.281736
2.281858
2.281980
2.282103
2.282225
2.282347
2.282469
2.282591
2.282713
2.282835
2.282956
2.283078
2.283200
2.283321
2.283443
2.283564
2.283686
2.283807
2.283928
2.284049
2.284171
2.284292
2.284413
2.284533
2.284654
2.284775
2.284896
2.285016
2.285137
2.285258
2.285378
2.285498
2.285619
2.285739
2.285859
2.285979
2.286099
2.286220
2.286339
2.286459
2.286579
2.286699
2.286819
2.286938
2.287058
2.287177
2.287297
2.287416
2.287535
2.287655
2.287774
2.287893
2.288012
2.288131
2.288250
2.288369
2.288488
2.288606
2.288725
2.288844
2.288962
2.289081
2.289199
2.289318
2.289436
2.289554
2.289672
2.289790
2.289908
2.290026
2.290144
2.290262
2.290380
2.290498
2.290615
2.290733
2.290851
2.290968
2.291086
2.291203
2.291320
2.291437
2.291555
2.291672
2.291789
2.291906
2.292023
2.292140
2.292257
2.292373
2.292490
2.292607
2.292723
2.292840
2.292956
2.293073
2.293189
2.293305
2.293421
2.293538
2.293654
2.293770
2.293886
2.294002
2.294117
2.294233
2.294349
2.294465
2.294580
2.294696
2.294811
2.294927
2.295042
2.295158
2.295273
2.295388
2.295503
2.295618
2.295733
2.295848
2.295963
2.296078
2.296193
2.296307
2.296422
2.296537
2.296651
2.296766
2.296880
2.296995
2.297109
2.297223
2.297337
2.297452
2.297566
2.297680
2.297794
2.297908
2.298021
2.298135
2.298249
2.298363
2.298476
2.298590
2.298703
2.298817
2.298930
2.299043
2.299157
2.299270
2.299383
2.299496
2.299609
2.299722
2.299835
2.299948
2.300061
2.300174
2.300286
2.300399
2.300512
2.300624
2.300737
2.300849
2.300961
2.301074
2.301186
2.301298
2.301410
2.301522
2.301635
2.301746
2.301858
2.301970
2.302082
2.302194
2.302306
2.302417
2.302529
2.302640
2.302752
2.302863
2.302975
2.303086
2.303197
2.303308
2.303419
2.303530
2.303642
2.303752
2.303863
2.303974
2.304085
2.304196
2.304307
2.304417
2.304528
2.304638
2.304749
2.304859
2.304970
2.305080
2.305190
2.305300
2.305411
2.305521
2.305631
2.305741
2.305851
2.305960
2.306070
2.306180
2.306290
2.306399
2.306509
2.306619
2.306728
2.306838
2.306947
2.307056
2.307166
2.307275
2.307384
2.307493
2.307602
2.307711
2.307820
2.307929
2.308038
2.308147
2.308256
2.308364
2.308473
2.308582
2.308690
2.308799
2.308907
2.309015
2.309124
2.309232
2.309340
2.309448
2.309557
2.309665
2.309773
2.309881
2.309989
2.310096
2.310204
2.310312
2.310420
2.310527
2.310635
2.310743
2.310850
2.310957
2.311065
2.311172
2.311280
2.311387
2.311494
2.311601
2.311708
2.311815
2.311922
2.312029
2.312136
2.312243
2.312350
2.312456
2.312563
2.312670
2.312776
2.312883
2.312989
2.313096
2.313202
2.313308
2.313415
2.313521
2.313627
2.313733
2.313839
2.313945
2.314051
2.314157
2.314263
2.314369
2.314474
2.314580
2.314686
2.314791
2.314897
2.315003
2.315108
2.315213
2.315319
2.315424
2.315529
2.315635
2.315740
2.315845
2.315950
2.316055
2.316160
2.316265
2.316370
2.316475
2.316579
2.316684
2.316789
2.316893
2.316998
2.317102
2.317207
2.317311
2.317416
2.317520
2.317624
2.317728
2.317833
2.317937
2.318041
2.318145
2.318249
2.318353
2.318457
2.318561
2.318664
2.318768
2.318872
2.318975
2.319079
2.319183
2.319286
2.319389
2.319493
2.319596
2.319700
2.319803
2.319906
2.320009
2.320112
2.320215
2.320318
2.320421
2.320524
2.320627
2.320730
2.320833
2.320935
2.321038
2.321141
2.321243
2.321346
2.321448
2.321551
2.321653
2.321756
2.321858
2.321960
2.322062
2.322165
2.322267
2.322369
2.322471
2.322573
2.322675
2.322777
2.322878
2.322980
2.323082
2.323184
2.323285
2.323387
2.323488
2.323590
2.323691
2.323793
2.323894
2.323996
2.324097
2.324198
2.324299
2.324400
2.324501
2.324602
2.324703
2.324804
2.324905
2.325006
2.325107
2.325208
2.325309
2.325409
2.325510
2.325610
2.325711
2.325811
2.325912
2.326012
2.326113
2.326213
2.326313
2.326413
2.326514
2.326614
2.326714
2.326814
2.326914
2.327014
2.327014
2.327114
2.327214
2.327313
2.327413
2.327513
2.327613
2.327712
2.327812
2.327911
2.328011
2.328110
2.328210
2.328309
2.328408
2.328508
2.328607
2.328706
2.328805
2.328904
2.329003
2.329102
2.329201
2.329300
2.329399
2.329498
2.329597
2.329695
2.329794
2.329893
2.329991
2.330090
2.330189
2.330287
2.330385
2.330484
2.330582
2.330680
2.330779
2.330877
2.330975
2.331073
2.331171
2.331269
2.331367
2.331465
2.331563
2.331661
2.331759
2.331857
2.331954
2.332052
2.332150
2.332247
2.332345
2.332442
2.332540
2.332637
2.332735
2.332832
2.332929
2.333027
2.333124
2.333221
2.333318
2.333415
2.333512
2.333609
2.333706
2.333803
2.333900
2.333997
2.334094
2.334190
2.334287
2.334384
2.334480
2.334577
2.334674
2.334770
2.334867
2.334963
2.335059
2.335156
2.335252
2.335348
2.335444
2.335540
2.335637
2.335733
2.335829
2.335925
2.336021
2.336117
2.336212
2.336308
2.336404
2.336500
2.336595
2.336691
2.336787
2.336882
2.336978
2.337073
2.337169
2.337264
2.337359
2.337455
2.337550
2.337645
2.337741
2.337836
2.337931
2.338026
2.338121
2.338216
2.338311
2.338406
2.338501
2.338595
2.338690
2.338785
2.338880
2.338974
2.339069
2.339164
2.339258
2.339353
2.339447
2.339541
2.339636
2.339730
2.339824
2.339919
2.340013
2.340107
2.340201
2.340295
2.340389
2.340483
2.340577
2.340671
2.340765
2.340859
2.340953
2.341047
2.341140
2.341234
2.341328
2.341421
2.341515
2.341608
2.341702
2.341795
2.341889
2.341982
2.342075
2.342169
2.342262
2.342355
2.342448
2.342541
2.342635
2.342728
2.342821
2.342914
2.343007
2.343099
2.343192
2.343285
2.343378
2.343471
2.343563
2.343656
2.343749
2.343841
2.343934
2.344026
2.344119
2.344211
2.344303
2.344396
2.344488
2.344580
2.344673
2.344765
2.344857
2.344949
2.345041
2.345133
2.345225
2.345317
2.345409
2.345501
2.345593
2.345684
2.345776
2.345868
2.345960
2.346051
2.346143
2.346234
2.346326
2.346417
2.346509
2.346600
2.346692
2.346783
2.346874
2.346966
2.347057
2.347148
2.347239
2.347330
2.347421
2.347512
2.347603
2.347694
2.347785
2.347876
2.347967
2.348058
2.348149
2.348239
2.348330
2.348421
2.348511
2.348602
2.348692
2.348783
2.348873
2.348964
2.349054
2.349144
2.349235
2.349325
2.349415
2.349505
2.349596
2.349686
2.349776
2.349866
2.349956
2.350046
2.350136
2.350226
2.350316
2.350405
2.350495
2.350585
2.350675
2.350764
2.350854
2.350944
2.351033
2.351123
2.351212
2.351302
2.351391
2.351480
2.351570
2.351659
2.351748
2.351838
2.351927
2.352016
2.352105
2.352194
2.352283
2.352372
2.352461
2.352550
2.352639
2.352728
2.352817
2.352906
2.352994
2.353083
2.353172
2.353260
2.353349
2.353438
2.353526
2.353615
2.353703
2.353791
2.353880
2.353968
2.354057
2.354145
2.354233
2.354321
2.354409
2.354498
2.354586
2.354674
2.354762
2.354850
2.354938
2.355026
2.355114
2.355201
2.355289
2.355377
2.355465
2.355553
2.355640
2.355728
2.355815
2.355903
2.355991
2.356078
2.356166
2.356253
2.356340
2.356428
2.356515
2.356602
2.356690
2.356777
2.356864
2.356951
2.357038
2.357125
2.357212
2.357299
2.357386
2.357473
2.357560
2.357647
2.357734
2.357821
2.357907
2.357994
2.358081
2.358168
2.358254
2.358341
2.358427
2.358514
2.358600
2.358687
2.358773
2.358860
2.358946
2.359032
2.359118
2.359205
2.359291
2.359377
2.359463
2.359549
2.359635
2.359721
2.359807
2.359893
2.359979
2.360065
2.360151
2.360237
2.360323
2.360408
2.360494
2.360580
2.360665
2.360751
2.360837
2.360922
2.361008
2.361093
2.361179
2.361264
2.361349
2.361435
2.361520
2.361605
2.361691
2.361776
2.361861
2.361946
2.362031
2.362116
2.362201
2.362286
2.362371
2.362456
2.362541
2.362626
2.362711
2.362796
2.362881
2.362965
2.363050
2.363135
2.363219
2.363304
2.363389
2.363473
2.363558
2.363642
2.363726
2.363811
2.363895
2.363980
2.364064
2.364148
2.364232
2.364317
2.364401
2.364485
2.364569
2.364653
2.364737
2.364821
2.364905
2.364989
2.365073
2.365157
2.365241
2.365325
2.365408
2.365492
2.365576
2.365659
2.365743
2.365827
2.365910
2.365994
2.366077
2.366161
2.366244
2.366328
2.366411
2.366494
2.366578
2.366661
2.366744
2.366827
2.366911
2.366994
2.367077
2.367160
2.367243
2.367326
2.367409
2.367492
2.367575
2.367658
2.367741
2.367824
2.367906
2.367989
2.368072
2.368155
2.368237
2.368320
2.368403
2.368485
2.368568
2.368650
2.368733
2.368815
2.368898
2.368980
2.369062
2.369145
2.369227
2.369309
2.369391
2.369474
2.369556
2.369638
2.369720
2.369802
2.369884
2.369966
2.370048
2.370130
2.370212
2.370294
2.370376
2.370457
2.370539
2.370621
2.370703
2.370784
2.370866
2.370948
2.371029
2.371111
2.371192
2.371274
2.371355
2.371437
2.371518
2.371599
2.371681
2.371762
2.371843
2.371925
2.371925
2.372006
2.372087
2.372168
2.372249
2.372330
2.372411
2.372492
2.372573
2.372654
2.372735
2.372816
2.372897
2.372978
2.373059
2.373140
2.373220
2.373301
2.373382
2.373462
2.373543
2.373624
2.373704
2.373785
2.373865
2.373946
2.374026
2.374107
2.374187
2.374267
2.374348
2.374428
2.374508
2.374588
2.374669
2.374749
2.374829
2.374909
2.374989
2.375069
2.375149
2.375229
2.375309
2.375389
2.375469
2.375549
2.375629
2.375708
2.375788
2.375868
2.375948
2.376027
2.376107
2.376187
2.376266
2.376346
2.376425
2.376505
2.376584
2.376664
2.376743
2.376823
2.376902
2.376981
2.377061
2.377140
2.377219
2.377298
2.377377
2.377457
2.377536
2.377615
2.377694
2.377773
2.377852
2.377931
2.378010
2.378089
2.378168
2.378246
2.378325
2.378404
2.378483
2.378562
2.378640
2.378719
2.378798
2.378876
2.378955
2.379033
2.379112
2.379190
2.379269
2.379347
2.379426
2.379504
2.379582
2.379661
2.379739
2.379817
2.379895
2.379974
2.380052
2.380130
2.380208
2.380286
2.380364
2.380442
2.380520
2.380598
2.380676
2.380754
2.380832
2.380910
2.380988
2.381065
2.381143
2.381221
2.381299
2.381376
2.381454
2.381532
2.381609
2.381687
2.381764
2.381842
2.381919
2.381997
2.382074
2.382151
2.382229
2.382306
2.382383
2.382461
2.382538
2.382615
2.382692
2.382770
2.382847
2.382924
2.383001
2.383078
2.383155
2.383232
2.383309
2.383386
2.383463
2.383540
2.383616
2.383693
2.383770
2.383847
2.383924
2.384000
2.384077
2.384154
2.384230
2.384307
2.384383
2.384460
2.384536
2.384613
2.384689
2.384766
2.384842
2.384919
2.384995
2.385071
2.385147
2.385224
2.385300
2.385376
2.385452
2.385529
2.385605
2.385681
2.385757
2.385833
2.385909
2.385985
2.386061
2.386137
2.386213
2.386288
2.386364
2.386440
2.386516
2.386592
2.386667
2.386743
2.386819
2.386894
2.386970
2.387046
2.387121
2.387197
2.387272
2.387348
2.387423
2.387499
2.387574
2.387649
2.387725
2.387800
2.387875
2.387951
2.388026
2.388101
2.388176
2.388251
2.388326
2.388402
2.388477
2.388552
2.388627
2.388702
2.388777
2.388852
2.388926
2.389001
2.389076
2.389151
2.389226
2.389301
2.389375
2.389450
2.389525
2.389599
2.389674
2.389749
2.389823
2.389898
2.389972
2.390047
2.390121
2.390196
2.390270
2.390345
2.390419
2.390493
2.390568
2.390642
2.390716
2.390790
2.390865
2.390939
2.391013
2.391087
2.391161
2.391235
2.391309
2.391383
2.391457
2.391531
2.391605
2.391679
2.391753
2.391827
2.391901
2.391974
2.392048
2.392122
2.392196
2.392269
2.392343
2.392417
2.392490
2.392564
2.392638
2.392711
2.392785
2.392858
2.392932
2.393005
2.393078
2.393152
2.393225
2.393298
2.393372
2.393445
2.393518
2.393592
2.393665
2.393738
2.393811
2.393884
2.393957
2.394030
2.394103
2.394176
2.394249
2.394322
2.394395
2.394468
2.394541
2.394614
2.394687
2.394760
2.394832
2.394905
2.394978
2.395051
2.395123
2.395196
2.395269
2.395341
2.395414
2.395486
2.395559
2.395631
2.395704
2.395776
2.395849
2.395921
2.395993
2.396066
2.396138
2.396210
2.396283
2.396355
2.396427
2.396499
2.396572
2.396644
2.396716
2.396788
2.396860
2.396932
2.397004
2.397076
2.397148
2.397220
2.397292
2.397364
2.397436
2.397507
2.397579
2.397651
2.397723
2.397795
2.397866
2.397938
2.398010
2.398081
2.398153
2.398224
2.398296
2.398368
2.398439
2.398511
2.398582
2.398653
2.398725
2.398796
2.398868
2.398939
2.399010
2.399082
2.399153
2.399224
2.399295
2.399366
2.399438
2.399509
2.399580
2.399651
2.399722
2.399793
2.399864
2.399935
2.400006
2.400077
2.400148
2.400219
2.400290
2.400360
2.400431
2.400502
2.400573
2.400643
2.400714
2.400785
2.400856
2.400926
2.400997
2.401067
2.401138
2.401208
2.401279
2.401349
2.401420
2.401490
2.401561
2.401631
2.401702
2.401772
2.401842
2.401913
2.401983
2.402053
2.402123
2.402193
2.402264
2.402334
2.402404
2.402474
2.402544
2.402614
2.402684
2.402754
2.402824
2.402894
2.402964
2.403034
2.403104
2.403174
2.403244
2.403313
2.403383
2.403453
2.403523
2.403592
2.403662
2.403732
2.403801
2.403871
2.403941
2.404010
2.404080
2.404149
2.404219
2.404288
2.404358
2.404427
2.404496
2.404566
2.404635
2.404704
2.404774
2.404843
2.404912
2.404982
2.405051
2.405120
2.405189
2.405258
2.405327
2.405396
2.405466
2.405535
2.405604
2.405673
2.405742
2.405810
2.405879
2.405948
2.406017
2.406086
2.406155
2.406224
2.406292
2.406361
2.406430
2.406499
2.406567
2.406636
2.406705
2.406773
2.406842
2.406910
2.406979
2.407048
2.407116
2.407185
2.407253
2.407321
2.407390
2.407458
2.407527
2.407595
2.407663
2.407731
2.407800
2.407868
2.407936
2.408004
2.408073
2.408141
2.408209
2.408277
2.408345
2.408413
2.408481
2.408549
2.408617
2.408685
2.408753
2.408821
2.408889
2.408957
2.408957
2.409025
2.409092
2.409160
2.409228
2.409296
2.409363
2.409431
2.409499
2.409567
2.409634
2.409702
2.409769
2.409837
2.409905
2.409972
2.410040
2.410107
2.410174
2.410242
2.410309
2.410377
2.410444
2.410511
2.410579
2.410646
2.410713
2.410781
2.410848
2.410915
2.410982
2.411049
2.411116
2.411184
2.411251
2.411318
2.411385
2.411452
2.411519
2.411586
2.411653
2.411720
2.411787
2.411854
2.411920
2.411987
2.412054
2.412121
2.412188
2.412254
2.412321
2.412388
2.412455
2.412521
2.412588
2.412654
2.412721
2.412788
2.412854
2.412921
2.412987
2.413054
2.413120
2.413187
2.413253
2.413319
2.413386
2.413452
2.413518
2.413585
2.413651
2.413717
2.413784
2.413850
2.413916
2.413982
2.414048
2.414114
2.414181
2.414247
2.414313
2.414379
2.414445
2.414511
2.414577
2.414643
2.414709
2.414775
2.414840
2.414906
2.414972
2.415038
2.415104
2.415170
2.415235
2.415301
2.415367
2.415432
2.415498
2.415564
2.415629
2.415695
2.415761
2.415826
2.415892
2.415957
2.416023
2.416088
2.416154
2.416219
2.416284
2.416350
2.416415
2.416480
2.416546
2.416611
2.416676
2.416742
2.416807
2.416872
2.416937
2.417002
2.417068
2.417133
2.417198
2.417263
2.417328
2.417393
2.417458
2.417523
2.417588
2.417653
2.417718
2.417783
2.417848
2.417912
2.417977
2.418042
2.418107
2.418172
2.418236
2.418301
2.418366
2.418431
2.418495
2.418560
2.418625
2.418689
2.418754
2.418818
2.418883
2.418947
2.419012
2.419076
2.419141
2.419205
2.419270
2.419334
2.419398
2.419463
2.419527
2.419591
2.419656
2.419720
2.419784
2.419848
2.419913
2.419977
2.420041
2.420105
2.420169
2.420233
2.420297
2.420362
2.420426
2.420490
2.420554
2.420618
2.420681
2.420745
2.420809
2.420873
2.420937
2.421001
2.421065
2.421129
2.421192
2.421256
2.421320
2.421384
2.421447
2.421511
2.421575
2.421638
2.421702
2.421765
2.421829
2.421893
2.421956
2.422020
2.422083
2.422147
2.422210
2.422273
2.422337
2.422400
2.422464
2.422527
2.422590
2.422654
2.422717
2.422780
2.422843
2.422907
2.422970
2.423033
2.423096
2.423159
2.423222
2.423285
2.423349
2.423412
2.423475
2.423538
2.423601
2.423664
2.423727
2.423790
2.423852
2.423915
2.423978
2.424041
2.424104
2.424167
2.424229
2.424292
2.424355
2.424418
2.424480
2.424543
2.424606
2.424668
2.424731
2.424794
2.424856
2.424919
2.424981
2.425044
2.425106
2.425169
2.425231
2.425294
2.425356
2.425419
2.425481
2.425543
2.425606
2.425668
2.425730
2.425793
2.425855
2.425917
2.425979
2.426042
2.426104
2.426166
2.426228
2.426290
2.426352
2.426414
2.426476
2.426538
2.426600
2.426662
2.426724
2.426786
2.426848
2.426910
2.426972
2.427034
2.427096
2.427158
2.427220
2.427281
2.427343
2.427405
2.427467
2.427528
2.427590
2.427652
2.427713
2.427775
2.427837
2.427898
2.427960
2.428021
2.428083
2.428145
2.428206
2.428268
2.428329
2.428390
2.428452
2.428513
2.428575
2.428636
2.428697
2.428759
2.428820
2.428881
2.428943
2.429004
2.429065
2.429126
2.429187
2.429249
2.429310
2.429371
2.429432
2.429493
2.429554
2.429615
2.429676
2.429737
2.429798
2.429859
2.429920
2.429981
2.430042
2.430103
2.430164
2.430225
2.430286
2.430346
2.430407
2.430468
2.430529
2.430589
2.430650
2.430711
2.430772
2.430832
2.430893
2.430953
2.431014
2.431075
2.431135
2.431196
2.431256
2.431317
2.431377
2.431438
2.431498
2.431559
2.431619
2.431679
2.431740
2.431800
2.431860
2.431921
2.431981
2.432041
2.432102
2.432162
2.432222
2.432282
2.432342
2.432403
2.432463
2.432523
2.432583
2.432643
2.432703
2.432763
2.432823
2.432883
2.432943
2.433003
2.433063
2.433123
2.433183
2.433243
2.433303
2.433363
2.433422
2.433482
2.433542
2.433602
2.433662
2.433721
2.433781
2.433841
2.433900
2.433960
2.434020
2.434079
2.434139
2.434199
2.434258
2.434318
2.434377
2.434437
2.434496
2.434556
2.434615
2.434675
2.434734
2.434794
2.434853
2.434912
2.434972
2.435031
2.435090
2.435150
2.435209
2.435268
2.435327
2.435387
2.435446
2.435505
2.435564
2.435623
2.435682
2.435741
2.435801
2.435860
2.435919
2.435978
2.436037
2.436096
2.436155
2.436214
2.436273
2.436332
2.436390
2.436449
2.436508
2.436567
2.436626
2.436685
2.436743
2.436802
2.436861
2.436920
2.436978
2.437037
2.437096
2.437154
2.437213
2.437272
2.437330
2.437389
2.437447
2.437506
2.437565
2.437623
2.437682
2.437740
2.437799
2.437857
2.437915
2.437974
2.438032
2.438091
2.438149
2.438207
2.438266
2.438324
2.438382
2.438440
2.438499
2.438557
2.438615
2.438673
2.438731
2.438790
2.438848
2.438906
2.438964
2.439022
2.439080
2.439138
2.439196
2.439254
2.439312
2.439370
2.439428
2.439486
2.439544
2.439602
2.439660
2.439717
2.439775
2.439833
2.439891
2.439949
2.440006
2.440064
2.440122
2.440180
2.440180
2.440237
2.440295
2.440353
2.440410
2.440468
2.440526
2.440583
2.440641
2.440698
2.440756
2.440813
2.440871
2.440928
2.440986
2.441043
2.441101
2.441158
2.441216
2.441273
2.441330
2.441388
2.441445
2.441502
2.441560
2.441617
2.441674
2.441731
2.441788
2.441846
2.441903
2.441960
2.442017
2.442074
2.442131
2.442188
2.442246
2.442303
2.442360
2.442417
2.442474
2.442531
2.442588
2.442645
2.442702
2.442758
2.442815
2.442872
2.442929
2.442986
2.443043
2.443100
2.443156
2.443213
2.443270
2.443327
2.443383
2.443440
2.443497
2.443553
2.443610
2.443667
2.443723
2.443780
2.443837
2.443893
2.443950
2.444006
2.444063
2.444119
2.444176
2.444232
2.444289
2.444345
2.444401
2.444458
2.444514
2.444571
2.444627
2.444683
2.444739
2.444796
2.444852
2.444908
2.444965
2.445021
2.445077
2.445133
2.445189
2.445245
2.445302
2.445358
2.445414
2.445470
2.445526
2.445582
2.445638
2.445694
2.445750
2.445806
2.445862
2.445918
2.445974
2.446030
2.446086
2.446142
2.446197
2.446253
2.446309
2.446365
2.446421
2.446476
2.446532
2.446588
2.446644
2.446699
2.446755
2.446811
2.446866
2.446922
2.446978
2.447033
2.447089
2.447144
2.447200
2.447255
2.447311
2.447366
2.447422
2.447477
2.447533
2.447588
2.447644
2.447699
2.447754
2.447810
2.447865
2.447921
2.447976
2.448031
2.448086
2.448142
2.448197
2.448252
2.448307
2.448363
2.448418
2.448473
2.448528
2.448583
2.448638
2.448693
2.448748
2.448804
2.448859
2.448914
2.448969
2.449024
2.449079
2.449134
2.449189
2.449243
2.449298
2.449353
2.449408
2.449463
2.449518
2.449573
2.449627
2.449682
2.449737
2.449792
2.449847
2.449901
2.449956
2.450011
2.450065
2.450120
2.450175
2.450229
2.450284
2.450339
2.450393
2.450448
2.450502
2.450557
2.450611
2.450666
2.450720
2.450775
2.450829
2.450884
2.450938
2.450992
2.451047
2.451101
2.451155
2.451210
2.451264
2.451318
2.451373
2.451427
2.451481
2.451535
2.451590
2.451644
2.451698
2.451752
2.451806
2.451861
2.451915
2.451969
2.452023
2.452077
2.452131
2.452185
2.452239
2.452293
2.452347
2.452401
2.452455
2.452509
2.452563
2.452617
2.452671
2.452724
2.452778
2.452832
2.452886
2.452940
2.452994
2.453047
2.453101
2.453155
2.453209
2.453262
2.453316
2.453370
2.453423
2.453477
2.453531
2.453584
2.453638
2.453691
2.453745
2.453799
2.453852
2.453906
2.453959
2.454013
2.454066
2.454120
2.454173
2.454226
2.454280
2.454333
2.454387
2.454440
2.454493
2.454547
2.454600
2.454653
2.454707
2.454760
2.454813
2.454866
2.454919
2.454973
2.455026
2.455079
2.455132
2.455185
2.455238
2.455292
2.455345
2.455398
2.455451
2.455504
2.455557
2.455610
2.455663
2.455716
2.455769
2.455822
2.455875
2.455928
2.455980
2.456033
2.456086
2.456139
2.456192
2.456245
2.456297
2.456350
2.456403
2.456456
2.456509
2.456561
2.456614
2.456667
2.456719
2.456772
2.456825
2.456877
2.456930
2.456983
2.457035
2.457088
2.457140
2.457193
2.457245
2.457298
2.457350
2.457403
2.457455
2.457508
2.457560
2.457612
2.457665
2.457717
2.457770
2.457822
2.457874
2.457927
2.457979
2.458031
2.458083
2.458136
2.458188
2.458240
2.458292
2.458345
2.458397
2.458449
2.458501
2.458553
2.458605
2.458657
2.458710
2.458762
2.458814
2.458866
2.458918
2.458970
2.459022
2.459074
2.459126
2.459178
2.459230
2.459281
2.459333
2.459385
2.459437
2.459489
2.459541
2.459593
2.459644
2.459696
2.459748
2.459800
2.459851
2.459903
2.459955
2.460007
2.460058
2.460110
2.460162
2.460213
2.460265
2.460317
2.460368
2.460420
2.460471
2.460523
2.460574
2.460626
2.460677
2.460729
2.460780
2.460832
2.460883
2.460935
2.460986
2.461037
2.461089
2.461140
2.461192
2.461243
2.461294
2.461346
2.461397
2.461448
2.461499
2.461551
2.461602
2.461653
2.461704
2.461755
2.461807
2.461858
2.461909
2.461960
2.462011
2.462062
2.462113
2.462164
2.462215
2.462266
2.462317
2.462368
2.462419
2.462470
2.462521
2.462572
2.462623
2.462674
2.462725
2.462776
2.462827
2.462878
2.462928
2.462979
2.463030
2.463081
2.463132
2.463182
2.463233
2.463284
2.463335
2.463385
2.463436
2.463487
2.463537
2.463588
2.463639
2.463689
2.463740
2.463790
2.463841
2.463892
2.463942
2.463993
2.464043
2.464094
2.464144
2.464195
2.464245
2.464296
2.464346
2.464396
2.464447
2.464497
2.464547
2.464598
2.464648
2.464698
2.464749
2.464799
2.464849
2.464900
2.464950
2.465000
2.465050
2.465101
2.465151
2.465201
2.465251
2.465301
2.465351
2.465401
2.465452
2.465502
2.465552
2.465602
2.465652
2.465702
2.465752
2.465802
2.465852
2.465902
2.465952
2.466002
2.466052
2.466101
2.466151
2.466201
2.466251
2.466301
2.466351
2.466401
2.466450
2.466500
2.466550
2.466600
2.466650
2.466699
2.466749
2.466799
2.466848
2.466898
2.466898
2.466948
2.466997
2.467047
2.467097
2.467146
2.467196
2.467245
2.467295
2.467345
2.467394
2.467444
2.467493
2.467543
2.467592
2.467641
2.467691
2.467740
2.467790
2.467839
2.467889
2.467938
2.467987
2.468037
2.468086
2.468135
2.468185
2.468234
2.468283
2.468332
2.468382
2.468431
2.468480
2.468529
2.468579
2.468628
2.468677
2.468726
2.468775
2.468824
2.468873
2.468922
2.468972
2.469021
2.469070
2.469119
2.469168
2.469217
2.469266
2.469315
2.469364
2.469413
2.469461
2.469510
2.469559
2.469608
2.469657
2.469706
2.469755
2.469804
2.469852
2.469901
2.469950
2.469999
2.470048
2.470096
2.470145
2.470194
2.470243
2.470291
2.470340
2.470389
2.470437
2.470486
2.470534
2.470583
2.470632
2.470680
2.470729
2.470777
2.470826
2.470874
2.470923
2.470971
2.471020
2.471068
2.471117
2.471165
2.471214
2.471262
2.471311
2.471359
2.471407
2.471456
2.471504
2.471552
2.471601
2.471649
2.471697
2.471745
2.471794
2.471842
2.471890
2.471938
2.471987
2.472035
2.472083
2.472131
2.472179
2.472227
2.472276
2.472324
2.472372
2.472420
2.472468
2.472516
2.472564
2.472612
2.472660
2.472708
2.472756
2.472804
2.472852
2.472900
2.472948
2.472996
2.473044
2.473092
2.473139
2.473187
2.473235
2.473283
2.473331
2.473379
2.473426
2.473474
2.473522
2.473570
2.473617
2.473665
2.473713
2.473760
2.473808
2.473856
2.473903
2.473951
2.473999
2.474046
2.474094
2.474142
2.474189
2.474237
2.474284
2.474332
2.474379
2.474427
2.474474
2.474522
2.474569
2.474617
2.474664
2.474712
2.474759
2.474806
2.474854
2.474901
2.474948
2.474996
2.475043
2.475090
2.475138
2.475185
2.475232
2.475280
2.475327
2.475374
2.475421
2.475468
2.475516
2.475563
2.475610
2.475657
2.475704
2.475751
2.475798
2.475846
2.475893
2.475940
2.475987
2.476034
2.476081
2.476128
2.476175
2.476222
2.476269
2.476316
2.476363
2.476410
2.476457
2.476504
2.476550
2.476597
2.476644
2.476691
2.476738
2.476785
2.476832
2.476878
2.476925
2.476972
2.477019
2.477065
2.477112
2.477159
2.477206
2.477252
2.477299
2.477346
2.477392
2.477439
2.477486
2.477532
2.477579
2.477625
2.477672
2.477719
2.477765
2.477812
2.477858
2.477905
2.477951
2.477998
2.478044
2.478091
2.478137
2.478183
2.478230
2.478276
2.478323
2.478369
2.478415
2.478462
2.478508
2.478554
2.478601
2.478647
2.478693
2.478740
2.478786
2.478832
2.478878
2.478925
2.478971
2.479017
2.479063
2.479109
2.479155
2.479202
2.479248
2.479294
2.479340
2.479386
2.479432
2.479478
2.479524
2.479570
2.479616
2.479662
2.479708
2.479754
2.479800
2.479846
2.479892
2.479938
2.479984
2.480030
2.480076
2.480122
2.480168
2.480213
2.480259
2.480305
2.480351
2.480397
2.480443
2.480488
2.480534
2.480580
2.480626
2.480671
2.480717
2.480763
2.480808
2.480854
2.480900
2.480945
2.480991
2.481037
2.481082
2.481128
2.481173
2.481219
2.481265
2.481310
2.481356
2.481401
2.481447
2.481492
2.481538
2.481583
2.481629
2.481674
2.481719
2.481765
2.481810
2.481856
2.481901
2.481946
2.481992
2.482037
2.482082
2.482128
2.482173
2.482218
2.482264
2.482309
2.482354
2.482399
2.482445
2.482490
2.482535
2.482580
2.482625
2.482671
2.482716
2.482761
2.482806
2.482851
2.482896
2.482941
2.482986
2.483031
2.483076
2.483122
2.483167
2.483212
2.483257
2.483302
2.483347
2.483391
2.483436
2.483481
2.483526
2.483571
2.483616
2.483661
2.483706
2.483751
2.483796
2.483840
2.483885
2.483930
2.483975
2.484020
2.484064
2.484109
2.484154
2.484199
2.484243
2.484288
2.484333
2.484377
2.484422
2.484467
2.484511
2.484556
2.484601
2.484645
2.484690
2.484734
2.484779
2.484824
2.484868
2.484913
2.484957
2.485002
2.485046
2.485091
2.485135
2.485180
2.485224
2.485268
2.485313
2.485357
2.485402
2.485446
2.485490
2.485535
2.485579
2.485623
2.485668
2.485712
2.485756
2.485801
2.485845
2.485889
2.485933
2.485978
2.486022
2.486066
2.486110
2.486155
2.486199
2.486243
2.486287
2.486331
2.486375
2.486419
2.486463
2.486508
2.486552
2.486596
2.486640
2.486684
2.486728
2.486772
2.486816
2.486860
2.486904
2.486948
2.486992
2.487036
2.487080
2.487124
2.487167
2.487211
2.487255
2.487299
2.487343
2.487387
2.487431
2.487474
2.487518
2.487562
2.487606
2.487650
2.487693
2.487737
2.487781
2.487825
2.487868
2.487912
2.487956
2.487999
2.488043
2.488087
2.488130
2.488174
2.488217
2.488261
2.488305
2.488348
2.488392
2.488435
2.488479
2.488522
2.488566
2.488609
2.488653
2.488696
2.488740
2.488783
2.488827
2.488870
2.488914
2.488957
2.489000
2.489044
2.489087
2.489130
2.489174
2.489217
2.489260
2.489304
2.489347
2.489390
2.489434
2.489477
2.489520
2.489563
2.489607
2.489650
2.489693
2.489736
2.489779
2.489823
2.489866
2.489909
2.489952
2.489995
2.489995
2.490038
2.490081
2.490124
2.490167
2.490210
2.490254
2.490297
2.490340
2.490383
2.490426
2.490469
2.490512
2.490554
2.490597
2.490640
2.490683
2.490726
2.490769
2.490812
2.490855
2.490898
2.490941
2.490983
2.491026
2.491069
2.491112
2.491155
2.491197
2.491240
2.491283
2.491326
2.491369
2.491411
2.491454
2.491497
2.491539
2.491582
2.491625
2.491667
2.491710
2.491753
2.491795
2.491838
2.491880
2.491923
2.491966
2.492008
2.492051
2.492093
2.492136
2.492178
2.492221
2.492263
2.492306
2.492348
2.492391
2.492433
2.492476
2.492518
2.492560
2.492603
2.492645
2.492687
2.492730
2.492772
2.492815
2.492857
2.492899
2.492941
2.492984
2.493026
2.493068
2.493111
2.493153
2.493195
2.493237
2.493279
2.493322
2.493364
2.493406
2.493448
2.493490
2.493532
2.493575
2.493617
2.493659
2.493701
2.493743
2.493785
2.493827
2.493869
2.493911
2.493953
2.493995
2.494037
2.494079
2.494121
2.494163
2.494205
2.494247
2.494289
2.494331
2.494373
2.494415
2.494457
2.494498
2.494540
2.494582
2.494624
2.494666
2.494708
2.494749
2.494791
2.494833
2.494875
2.494917
2.494958
2.495000
2.495042
2.495083
2.495125
2.495167
2.495209
2.495250
2.495292
2.495333
2.495375
2.495417
2.495458
2.495500
2.495542
2.495583
2.495625
2.495666
2.495708
2.495749
2.495791
2.495832
2.495874
2.495915
2.495957
2.495998
2.496040
2.496081
2.496123
2.496164
2.496205
2.496247
2.496288
2.496329
2.496371
2.496412
2.496454
2.496495
2.496536
2.496577
2.496619
2.496660
2.496701
2.496743
2.496784
2.496825
2.496866
2.496907
2.496949
2.496990
2.497031
2.497072
2.497113
2.497154
2.497196
2.497237
2.497278
2.497319
2.497360
2.497401
2.497442
2.497483
2.497524
2.497565
2.497606
2.497647
2.497688
2.497729
2.497770
2.497811
2.497852
2.497893
2.497934
2.497975
2.498016
2.498057
2.498098
2.498139
2.498179
2.498220
2.498261
2.498302
2.498343
2.498384
2.498424
2.498465
2.498506
2.498547
2.498587
2.498628
2.498669
2.498710
2.498750
2.498791
2.498832
2.498872
2.498913
2.498954
2.498994
2.499035
2.499076
2.499116
2.499157
2.499197
2.499238
2.499278
2.499319
2.499360
2.499400
2.499441
2.499481
2.499522
2.499562
2.499603
2.499643
2.499684
2.499724
2.499764
2.499805
2.499845
2.499886
2.499926
2.499966
2.500007
2.500047
2.500087
2.500128
2.500168
2.500208
2.500249
2.500289
2.500329
2.500370
2.500410
2.500450
2.500490
2.500530
2.500571
2.500611
2.500651
2.500691
2.500731
2.500772
2.500812
2.500852
2.500892
2.500932
2.500972
2.501012
2.501052
2.501092
2.501132
2.501173
2.501213
2.501253
2.501293
2.501333
2.501373
2.501413
2.501453
2.501492
2.501532
2.501572
2.501612
2.501652
2.501692
2.501732
2.501772
2.501812
2.501852
2.501891
2.501931
2.501971
2.502011
2.502051
2.502091
2.502130
2.502170
2.502210
2.502250
2.502289
2.502329
2.502369
2.502409
2.502448
2.502488
2.502528
2.502567
2.502607
2.502647
2.502686
2.502726
2.502765
2.502805
2.502845
2.502884
2.502924
2.502963
2.503003
2.503042
2.503082
2.503122
2.503161
2.503201
2.503240
2.503279
2.503319
2.503358
2.503398
2.503437
2.503477
2.503516
2.503556
2.503595
2.503634
2.503674
2.503713
2.503752
2.503792
2.503831
2.503870
2.503910
2.503949
2.503988
2.504027
2.504067
2.504106
2.504145
2.504184
2.504224
2.504263
2.504302
2.504341
2.504380
2.504420
2.504459
2.504498
2.504537
2.504576
2.504615
2.504654
2.504693
2.504733
2.504772
2.504811
2.504850
2.504889
2.504928
2.504967
2.505006
2.505045
2.505084
2.505123
2.505162
2.505201
2.505240
2.505279
2.505317
2.505356
2.505395
2.505434
2.505473
2.505512
2.505551
2.505590
2.505629
2.505667
2.505706
2.505745
2.505784
2.505823
2.505861
2.505900
2.505939
2.505978
2.506016
2.506055
2.506094
2.506132
2.506171
2.506210
2.506249
2.506287
2.506326
2.506364
2.506403
2.506442
2.506480
2.506519
2.506558
2.506596
2.506635
2.506673
2.506712
2.506750
2.506789
2.506827
2.506866
2.506904
2.506943
2.506981
2.507020
2.507058
2.507097
2.507135
2.507174
2.507212
2.507250
2.507289
2.507327
2.507365
2.507404
2.507442
2.507481
2.507519
2.507557
2.507595
2.507634
2.507672
2.507710
2.507749
2.507787
2.507825
2.507863
2.507902
2.507940
2.507978
2.508016
2.508054
2.508093
2.508131
2.508169
2.508207
2.508245
2.508283
2.508321
2.508359
2.508398
2.508436
2.508474
2.508512
2.508550
2.508588
2.508626
2.508664
2.508702
2.508740
2.508778
2.508816
2.508854
2.508892
2.508930
2.508968
2.509006
2.509044
2.509081
2.509119
2.509157
2.509195
2.509233
2.509271
2.509309
2.509347
2.509384
2.509422
2.509460
2.509498
2.509536
2.509573
2.509611
2.509649
2.509687
2.509724
2.509762
2.509800
2.509838
2.509875
2.509913
2.509951
2.509988
2.510026
2.510064
2.510101
2.510101
2.510139
2.510176
2.510214
2.510252
2.510289
2.510327
2.510364
2.510402
2.510439
2.510477
2.510515
2.510552
2.510590
2.510627
2.510665
2.510702
2.510739
2.510777
2.510814
2.510852
2.510889
2.510927
2.510964
2.511001
2.511039
2.511076
2.511114
2.511151
2.511188
2.511226
2.511263
2.511300
2.511338
2.511375
2.511412
2.511449
2.511487
2.511524
2.511561
2.511598
2.511636
2.511673
2.511710
2.511747
2.511784
2.511822
2.511859
2.511896
2.511933
2.511970
2.512007
2.512044
2.512082
2.512119
2.512156
2.512193
2.512230
2.512267
2.512304
2.512341
2.512378
2.512415
2.512452
2.512489
2.512526
2.512563
2.512600
2.512637
2.512674
2.512711
2.512748
2.512785
2.512822
2.512858
2.512895
2.512932
2.512969
2.513006
2.513043
2.513080
2.513116
2.513153
2.513190
2.513227
2.513264
2.513300
2.513337
2.513374
2.513411
2.513447
2.513484
2.513521
2.513558
2.513594
2.513631
2.513668
2.513704
2.513741
2.513778
2.513814
2.513851
2.513888
2.513924
2.513961
2.513997
2.514034
2.514071
2.514107
2.514144
2.514180
2.514217
2.514253
2.514290
2.514326
2.514363
2.514399
2.514436
2.514472
2.514509
2.514545
2.514582
2.514618
2.514654
2.514691
2.514727
2.514764
2.514800
2.514836
2.514873
2.514909
2.514945
2.514982
2.515018
2.515054
2.515091
2.515127
2.515163
2.515199
2.515236
2.515272
2.515308
2.515344
2.515381
2.515417
2.515453
2.515489
2.515526
2.515562
2.515598
2.515634
2.515670
2.515706
2.515742
2.515779
2.515815
2.515851
2.515887
2.515923
2.515959
2.515995
2.516031
2.516067
2.516103
2.516139
2.516175
2.516211
2.516247
2.516283
2.516319
2.516355
2.516391
2.516427
2.516463
2.516499
2.516535
2.516571
2.516607
2.516643
2.516678
2.516714
2.516750
2.516786
2.516822
2.516858
2.516893
2.516929
2.516965
2.517001
2.517037
2.517072
2.517108
2.517144
2.517180
2.517215
2.517251
2.517287
2.517323
2.517358
2.517394
2.517430
2.517465
2.517501
2.517537
2.517572
2.517608
2.517644
2.517679
2.517715
2.517750
2.517786
2.517822
2.517857
2.517893
2.517928
2.517964
2.517999
2.518035
2.518070
2.518106
2.518141
2.518177
2.518212
2.518248
2.518283
2.518319
2.518354
2.518389
2.518425
2.518460
2.518496
2.518531
2.518566
2.518602
2.518637
2.518673
2.518708
2.518743
2.518779
2.518814
2.518849
2.518884
2.518920
2.518955
2.518990
2.519025
2.519061
2.519096
2.519131
2.519166
2.519202
2.519237
2.519272
2.519307
2.519342
2.519378
2.519413
2.519448
2.519483
2.519518
2.519553
2.519588
2.519623
2.519659
2.519694
2.519729
2.519764
2.519799
2.519834
2.519869
2.519904
2.519939
2.519974
2.520009
2.520044
2.520079
2.520114
2.520149
2.520184
2.520219
2.520254
2.520289
2.520323
2.520358
2.520393
2.520428
2.520463
2.520498
2.520533
2.520568
2.520602
2.520637
2.520672
2.520707
2.520742
2.520776
2.520811
2.520846
2.520881
2.520916
2.520950
2.520985
2.521020
2.521054
2.521089
2.521124
2.521159
2.521193
2.521228
2.521263
2.521297
2.521332
2.521367
2.521401
2.521436
2.521470
2.521505
2.521540
2.521574
2.521609
2.521643
2.521678
2.521712
2.521747
2.521781
2.521816
2.521851
2.521885
2.521920
2.521954
2.521988
2.522023
2.522057
2.522092
2.522126
2.522161
2.522195
2.522230
2.522264
2.522298
2.522333
2.522367
2.522401
2.522436
2.522470
2.522504
2.522539
2.522573
2.522607
2.522642
2.522676
2.522710
2.522745
2.522779
2.522813
2.522847
2.522882
2.522916
2.522950
2.522984
2.523018
2.523053
2.523087
2.523121
2.523155
2.523189
2.523223
2.523258
2.523292
2.523326
2.523360
2.523394
2.523428
2.523462
2.523496
2.523530
2.523564
2.523598
2.523633
2.523667
2.523701
2.523735
2.523769
2.523803
2.523837
2.523871
2.523905
2.523938
2.523972
2.524006
2.524040
2.524074
2.524108
2.524142
2.524176
2.524210
2.524244
2.524278
2.524311
2.524345
2.524379
2.524413
2.524447
2.524481
2.524514
2.524548
2.524582
2.524616
2.524650
2.524683
2.524717
2.524751
2.524785
2.524818
2.524852
2.524886
2.524919
2.524953
2.524987
2.525020
2.525054
2.525088
2.525121
2.525155
2.525189
2.525222
2.525256
2.525290
2.525323
2.525357
2.525390
2.525424
2.525457
2.525491
2.525524
2.525558
2.525592
2.525625
2.525659
2.525692
2.525726
2.525759
2.525793
2.525826
2.525859
2.525893
2.525926
2.525960
2.525993
2.526027
2.526060
2.526093
2.526127
2.526160
2.526193
2.526227
2.526260
2.526294
2.526327
2.526360
2.526393
2.526427
2.526460
2.526493
2.526527
2.526560
2.526593
2.526626
2.526660
2.526693
2.526726
2.526759
2.526793
2.526826
2.526859
2.526892
2.526925
2.526958
2.526992
2.527025
2.527058
2.527091
2.527124
2.527157
2.527190
2.527223
2.527257
2.527290
2.527323
2.527356
2.527389
2.527422
2.527455
2.527488
2.527521
2.527554
2.527587
2.527620
2.527653
2.527686
2.527686
