-0.355056
-0.461253
-0.364738
-0.321654
-0.311522
-0.309223
-0.309036
-0.309370
-0.309848
-0.310367
-0.310834
-0.311210
-0.311829
-0.312966
-0.313936
-0.314167
-0.312210
-0.311558
-0.312541
-0.314313
-0.316310
-0.318241
-0.319991
-0.321535
-0.322882
-0.324054
-0.325067
-0.325928
-0.326629
-0.327150
-0.327465
-0.327546
-0.327372
-0.326937
-0.326292
-0.325711
-0.325949
-0.327060
-0.328364
-0.329359
-0.329939
-0.330153
-0.330092
-0.329833
-0.329438
-0.328956
-0.328433
-0.327906
-0.327409
-0.326961
-0.326569
-0.326215
-0.325862
-0.325454
-0.324936
-0.324290
-0.323538
-0.322697
-0.321754
-0.320680
-0.319441
-0.318023
-0.316464
-0.314877
-0.313368
-0.311983
-0.310717
-0.309547
-0.308449
-0.307405
-0.306396
-0.305413
-0.304448
-0.303496
-0.302554
-0.301621
-0.300694
-0.299773
-0.298856
-0.297940
-0.297024
-0.296104
-0.295178
-0.294242
-0.293295
-0.292333
-0.291354
-0.290355
-0.289334
-0.288289
-0.287220
-0.286124
-0.285001
-0.283850
-0.282671
-0.281464
-0.280228
-0.278966
-0.277679
-0.276370
-0.275041
-0.273697
-0.272341
-0.270980
-0.269619
-0.268266
-0.266930
-0.265622
-0.264357
-0.263151
-0.262028
-0.261026
-0.260214
-0.259741
-0.259829
-0.260630
-0.262252
-0.264962
-0.268866
-0.273435
-0.278089
-0.282659
-0.286466
-0.289451
-0.292554
-0.293423
-0.294657
-0.295913
-0.296888
-0.297604
-0.298118
-0.298491
-0.299662
-0.299316
-0.300408
-0.301383
-0.301459
-0.301882
-0.301723
-0.300049
-0.294156
-0.292046
-0.290206
-0.288803
-0.287022
-0.285177
-0.283445
-0.281655
-0.279776
-0.277784
-0.275770
-0.273943
-0.272118
-0.269731
-0.267580
-0.265425
-0.264416
-0.261255
-0.258562
-0.256876
-0.251357
-0.248009
-0.249605
-0.249340
-0.246802
-0.244649
-0.246407
-0.235170
-0.230696
-0.227249
-0.224070
-0.221237
-0.218764
-0.216621
-0.214754
-0.206293
-0.212703
-0.207127
-0.209978
-0.211155
-0.211277
-0.211825
-0.211908
-0.211522
-0.210845
-0.209952
-0.208937
-0.207802
-0.206656
-0.205333
-0.204156
-0.202606
-0.201450
-0.199828
-0.198871
-0.197114
-0.196440
-0.194257
-0.194157
-0.191335
-0.189776
-0.190228
-0.190918
-0.183479
-0.184950
-0.185928
-0.183700
-0.181904
-0.181572
-0.178471
-0.177859
-0.176243
-0.174287
-0.172208
-0.170734
-0.165691
-0.195985
-0.194841
-0.185956
-0.195047
-0.187710
-0.202147
-0.189981
-0.181169
-0.177040
-0.175466
-0.174757
-0.173126
-0.169386
-0.167061
-0.166739
-0.167396
-0.168836
-0.170944
-0.173452
-0.175975
-0.178293
-0.180324
-0.182018
-0.183317
-0.184157
-0.184476
-0.184221
-0.183358
-0.181866
-0.179724
-0.176878
-0.173223
-0.168643
-0.164074
-0.175402
-0.173980
-0.177758
-0.167924
-0.162505
-0.149908
-0.149168
-0.150491
-0.140740
-0.134412
-0.144075
-0.199849
-0.175342
-0.152696
-0.188630
-0.135093
-0.125062
-0.125240
-0.128058
-0.133106
-0.139662
-0.147233
-0.155548
-0.164448
-0.173802
-0.183467
-0.193276
-0.203031
-0.212511
-0.221484
-0.229726
-0.237047
-0.243316
-0.248478
-0.252541
-0.255567
-0.257655
-0.258922
-0.259492
-0.259477
-0.258974
-0.258060
-0.256788
-0.255195
-0.253317
-0.251395
-0.258941
-0.242268
-0.246657
-0.237485
-0.260847
-0.249497
-0.245871
-0.244706
-0.244261
-0.244013
-0.243815
-0.243628
-0.243442
-0.243256
-0.243070
-0.242884
-0.242699
-0.242515
-0.242331
-0.242149
-0.241967
-0.241786
-0.241606
-0.241428
-0.241250
-0.241074
-0.240900
-0.240726
-0.240554
-0.240384
-0.240215
-0.240048
-0.239882
-0.239718
-0.239555
-0.239394
-0.239235
-0.239078
-0.238922
-0.238768
-0.238615
-0.238465
-0.238316
-0.238168
-0.238023
-0.237879
-0.237737
-0.237596
-0.237457
-0.237320
-0.237184
-0.237051
-0.236918
-0.236788
-0.236659
-0.236531
-0.236406
-0.236281
-0.236159
-0.236038
-0.235918
-0.235800
-0.235683
-0.235568
-0.235455
-0.235343
-0.235232
-0.235123
-0.235015
-0.234908
-0.234803
-0.234699
-0.234597
-0.234496
-0.234396
-0.234297
-0.234200
-0.234104
-0.234009
-0.233916
-0.233824
-0.233732
-0.233643
-0.233554
-0.233466
-0.233380
-0.233294
-0.233210
-0.233127
-0.233045
-0.232964
-0.232884
-0.232805
-0.232727
-0.232650
-0.232574
-0.232499
-0.232425
-0.232352
-0.232279
-0.232208
-0.232138
-0.232068
-0.232000
-0.231932
-0.231865
-0.231799
-0.231734
-0.231670
-0.231606
-0.231543
-0.231482
-0.231420
-0.231360
-0.231300
-0.231241
-0.231183
-0.231126
-0.231069
-0.231013
-0.230958
-0.230903
-0.230849
-0.230796
-0.230743
-0.230691
-0.230640
-0.230589
-0.230539
-0.230489
-0.230440
-0.230392
-0.230344
-0.230297
-0.230250
-0.230204
-0.230158
-0.230113
-0.230069
-0.230025
-0.229981
-0.229938
-0.229896
-0.229854
-0.229813
-0.229772
-0.229731
-0.229691
-0.229651
-0.229612
-0.229573
-0.229535
-0.229497
-0.229460
-0.229423
-0.229386
-0.229350
-0.229314
-0.229279
-0.229244
-0.229209
-0.229175
-0.229141
-0.229108
-0.229074
-0.229042
-0.229009
-0.228977
-0.228945
-0.228914
-0.228882
-0.228852
-0.228821
-0.228791
-0.228761
-0.228731
-0.228702
-0.228673
-0.228644
-0.228616
-0.228588
-0.228560
-0.228532
-0.228505
-0.228477
-0.228450
-0.228424
-0.228397
-0.228371
-0.228345
-0.228320
-0.228294
-0.228269
-0.228244
-0.228219
-0.228195
-0.228170
-0.228146
-0.228122
-0.228098
-0.228075
-0.228051
-0.228028
-0.228005
-0.228005
-0.227982
-0.227959
-0.227937
-0.227915
-0.227892
-0.227870
-0.227849
-0.227827
-0.227805
-0.227784
-0.227763
-0.227742
-0.227721
-0.227700
-0.227679
-0.227659
-0.227638
-0.227618
-0.227598
-0.227578
-0.227558
-0.227538
-0.227518
-0.227498
-0.227479
-0.227459
-0.227440
-0.227421
-0.227402
-0.227383
-0.227364
-0.227345
-0.227326
-0.227308
-0.227289
-0.227270
-0.227252
-0.227234
-0.227215
-0.227197
-0.227179
-0.227161
-0.227143
-0.227125
-0.227107
-0.227089
-0.227071
-0.227053
-0.227035
-0.227018
-0.227000
-0.226982
-0.226965
-0.226947
-0.226930
-0.226912
-0.226895
-0.226877
-0.226860
-0.226843
-0.226825
-0.226808
-0.226791
-0.226774
-0.226756
-0.226739
-0.226722
-0.226704
-0.226687
-0.226670
-0.226653
-0.226636
-0.226618
-0.226601
-0.226584
-0.226567
-0.226549
-0.226532
-0.226515
-0.226498
-0.226480
-0.226463
-0.226446
-0.226428
-0.226411
-0.226394
-0.226376
-0.226359
-0.226341
-0.226324
-0.226306
-0.226289
-0.226271
-0.226254
-0.226236
-0.226218
-0.226201
-0.226183
-0.226165
-0.226147
-0.226129
-0.226111
-0.226093
-0.226075
-0.226057
-0.226039
-0.226020
-0.226002
-0.225984
-0.225965
-0.225947
-0.225928
-0.225910
-0.225891
-0.225872
-0.225854
-0.225835
-0.225816
-0.225797
-0.225778
-0.225758
-0.225739
-0.225720
-0.225700
-0.225681
-0.225661
-0.225642
-0.225622
-0.225602
-0.225582
-0.225562
-0.225542
-0.225522
-0.225501
-0.225481
-0.225461
-0.225440
-0.225419
-0.225398
-0.225378
-0.225356
-0.225335
-0.225314
-0.225293
-0.225271
-0.225250
-0.225228
-0.225206
-0.225184
-0.225162
-0.225140
-0.225118
-0.225095
-0.225073
-0.225050
-0.225028
-0.225005
-0.224982
-0.224958
-0.224935
-0.224912
-0.224888
-0.224864
-0.224841
-0.224817
-0.224792
-0.224768
-0.224744
-0.224719
-0.224694
-0.224670
-0.224645
-0.224619
-0.224594
-0.224569
-0.224543
-0.224517
-0.224491
-0.224465
-0.224439
-0.224412
-0.224386
-0.224359
-0.224332
-0.224305
-0.224278
-0.224250
-0.224223
-0.224195
-0.224167
-0.224139
-0.224110
-0.224082
-0.224053
-0.224024
-0.223995
-0.223966
-0.223936
-0.223907
-0.223877
-0.223847
-0.223816
-0.223786
-0.223755
-0.223724
-0.223693
-0.223662
-0.223631
-0.223599
-0.223567
-0.223535
-0.223502
-0.223470
-0.223437
-0.223404
-0.223371
-0.223337
-0.223304
-0.223270
-0.223235
-0.223201
-0.223166
-0.223131
-0.223096
-0.223061
-0.223025
-0.222989
-0.222953
-0.222917
-0.222880
-0.222843
-0.222806
-0.222769
-0.222731
-0.222693
-0.222655
-0.222617
-0.222578
-0.222539
-0.222499
-0.222460
-0.222420
-0.222380
-0.222339
-0.222299
-0.222258
-0.222216
-0.222175
-0.222133
-0.222090
-0.222048
-0.222005
-0.221962
-0.221918
-0.221874
-0.221830
-0.221786
-0.221741
-0.221696
-0.221650
-0.221604
-0.221558
-0.221512
-0.221465
-0.221418
-0.221370
-0.221322
-0.221274
-0.221225
-0.221176
-0.221127
-0.221077
-0.221027
-0.220976
-0.220925
-0.220874
-0.220822
-0.220770
-0.220717
-0.220664
-0.220611
-0.220557
-0.220503
-0.220448
-0.220393
-0.220337
-0.220281
-0.220225
-0.220168
-0.220111
-0.220053
-0.219995
-0.219936
-0.219876
-0.219817
-0.219756
-0.219696
-0.219635
-0.219573
-0.219510
-0.219448
-0.219384
-0.219321
-0.219256
-0.219191
-0.219126
-0.219060
-0.218993
-0.218926
-0.218858
-0.218790
-0.218721
-0.218651
-0.218581
-0.218510
-0.218439
-0.218367
-0.218294
-0.218220
-0.218146
-0.218072
-0.217996
-0.217920
-0.217843
-0.217766
-0.217688
-0.217609
-0.217529
-0.217449
-0.217367
-0.217285
-0.217203
-0.217119
-0.217035
-0.216950
-0.216864
-0.216777
-0.216689
-0.216600
-0.216511
-0.216421
-0.216329
-0.216237
-0.216144
-0.216050
-0.215955
-0.215859
-0.215762
-0.215664
-0.215565
-0.215465
-0.215364
-0.215261
-0.215158
-0.215054
-0.214948
-0.214841
-0.214733
-0.214624
-0.214514
-0.214402
-0.214289
-0.214175
-0.214060
-0.213943
-0.213825
-0.213705
-0.213584
-0.213462
-0.213338
-0.213213
-0.213086
-0.212958
-0.212828
-0.212696
-0.212563
-0.212428
-0.212292
-0.212154
-0.212014
-0.211872
-0.211728
-0.211583
-0.211435
-0.211286
-0.211135
-0.210982
-0.210826
-0.210669
-0.210509
-0.210347
-0.210183
-0.210017
-0.209848
-0.209677
-0.209503
-0.209327
-0.209149
-0.208968
-0.208784
-0.208597
-0.208408
-0.208216
-0.208021
-0.207823
-0.207622
-0.207418
-0.207211
-0.207001
-0.206787
-0.206570
-0.206350
-0.206126
-0.205899
-0.205667
-0.205433
-0.205194
-0.204951
-0.204705
-0.204454
-0.204200
-0.203941
-0.203678
-0.203410
-0.203139
-0.202862
-0.202581
-0.202295
-0.202005
-0.201709
-0.201409
-0.201104
-0.200793
-0.200478
-0.200157
-0.199831
-0.199500
-0.199164
-0.198822
-0.198475
-0.198122
-0.197764
-0.197400
-0.197032
-0.196658
-0.196279
-0.195894
-0.195505
-0.195111
-0.194712
-0.194309
-0.193902
-0.193491
-0.193077
-0.192659
-0.192239
-0.191817
-0.191393
-0.190969
-0.190545
-0.190122
-0.189701
-0.189283
-0.188869
-0.188461
-0.188061
-0.187669
-0.187288
-0.186920
-0.186567
-0.186232
-0.185918
-0.185627
-0.185363
-0.185130
-0.184931
-0.184772
-0.184657
-0.184591
-0.184581
-0.184632
-0.184752
-0.184949
-0.185231
-0.185607
-0.186087
-0.186681
-0.187403
-0.188264
-0.189278
-0.190460
-0.191826
-0.193393
-0.195180
-0.197207
-0.199493
-0.202061
-0.204933
-0.208134
-0.208134
-0.211689
-0.215621
-0.219957
-0.224720
-0.229936
-0.235627
-0.241811
-0.248504
-0.255719
-0.263461
-0.271726
-0.280505
-0.289777
-0.299511
-0.309666
-0.320190
-0.331020
-0.342087
-0.353317
-0.364633
-0.375957
-0.387220
-0.398358
-0.409316
-0.420051
-0.430531
-0.440733
-0.450647
-0.460266
-0.469591
-0.478628
-0.487384
-0.495869
-0.504091
-0.512062
-0.519790
-0.527284
-0.534551
-0.541598
-0.548430
-0.555052
-0.561470
-0.567685
-0.573702
-0.579524
-0.585153
-0.590592
-0.595842
-0.600908
-0.605790
-0.610492
-0.615015
-0.619363
-0.623538
-0.627541
-0.631376
-0.635046
-0.638553
-0.641899
-0.645086
-0.648119
-0.650999
-0.653728
-0.656309
-0.658745
-0.661038
-0.663190
-0.665205
-0.667083
-0.668827
-0.670440
-0.671924
-0.673281
-0.674512
-0.675621
-0.676609
-0.677477
-0.678229
-0.678865
-0.679388
-0.679800
-0.680101
-0.680295
-0.680382
-0.680364
-0.680243
-0.680021
-0.679698
-0.679276
-0.678757
-0.678143
-0.677433
-0.676630
-0.675735
-0.674748
-0.673672
-0.672506
-0.671252
-0.669912
-0.668484
-0.666972
-0.665374
-0.663693
-0.661928
-0.660080
-0.658150
-0.656138
-0.654046
-0.651873
-0.649620
-0.647289
-0.644879
-0.642393
-0.639831
-0.637195
-0.634486
-0.631708
-0.628862
-0.625951
-0.622980
-0.619953
-0.616874
-0.613751
-0.610590
-0.607400
-0.604189
-0.600967
-0.597740
-0.594510
-0.591264
-0.587979
-0.584618
-0.581147
-0.577538
-0.573780
-0.569872
-0.565817
-0.561624
-0.557300
-0.552853
-0.548293
-0.543626
-0.538860
-0.534001
-0.529055
-0.524027
-0.518921
-0.513740
-0.508486
-0.503157
-0.497751
-0.492262
-0.486683
-0.481004
-0.475209
-0.469286
-0.463216
-0.456986
-0.450587
-0.444022
-0.437327
-0.430602
-0.424101
-0.418417
-0.414558
-0.412789
-0.411227
-0.408399
-0.404567
-0.400244
-0.395706
-0.391075
-0.386402
-0.381711
-0.377007
-0.372292
-0.367564
-0.362818
-0.358047
-0.353239
-0.348381
-0.343455
-0.338445
-0.333332
-0.328101
-0.322737
-0.317230
-0.311571
-0.305754
-0.299778
-0.293641
-0.287345
-0.280895
-0.274294
-0.267549
-0.260667
-0.253655
-0.246522
-0.239275
-0.231919
-0.224460
-0.216897
-0.209226
-0.201433
-0.193494
-0.185358
-0.176940
-0.168089
-0.158529
-0.147740
-0.134442
-0.106076
-0.083267
-0.160821
-0.024308
-0.178672
-0.167363
-0.105859
-0.157689
-0.115137
-0.145191
-0.125706
-0.133370
-0.129867
-0.130920
-0.131979
-0.133413
-0.135167
-0.137141
-0.139249
-0.141421
-0.143600
-0.145742
-0.147816
-0.149796
-0.151666
-0.153412
-0.155025
-0.156499
-0.157830
-0.159016
-0.160054
-0.160946
-0.161691
-0.162292
-0.162749
-0.163063
-0.163238
-0.163274
-0.163173
-0.162937
-0.162566
-0.162062
-0.161425
-0.160655
-0.159753
-0.158718
-0.157548
-0.156243
-0.154802
-0.153222
-0.151501
-0.149636
-0.147626
-0.145467
-0.143157
-0.140692
-0.138070
-0.135289
-0.132345
-0.129238
-0.125966
-0.122527
-0.118921
-0.115149
-0.111210
-0.107107
-0.102840
-0.098412
-0.093826
-0.089084
-0.084190
-0.079146
-0.073955
-0.068621
-0.063146
-0.057532
-0.051780
-0.045890
-0.039863
-0.033696
-0.027388
-0.020933
-0.014326
-0.007560
-0.000625
0.006490
0.013801
0.021322
0.029076
0.037086
0.045379
0.053988
0.062954
0.072320
0.082142
0.092481
0.103415
0.115030
0.127432
0.140745
0.155113
0.170706
0.187711
0.206334
0.226774
0.249192
0.273634
0.299932
0.327580
0.355665
0.382957
0.408150
0.430350
0.455384
0.499620
0.550578
0.601251
0.719304
0.315461
0.421217
0.407843
0.465959
0.498906
0.523882
0.544964
0.559856
0.569076
0.575897
0.581256
0.584539
0.585775
0.585901
0.585376
0.584266
0.582631
0.580524
0.578015
0.575219
0.572270
0.569301
0.566427
0.563753
0.561372
0.559371
0.557822
0.556786
0.556310
0.556426
0.557155
0.558501
0.560456
0.562991
0.566062
0.569604
0.573532
0.577747
0.582136
0.586578
0.590952
0.595137
0.598998
0.602342
0.604822
0.605655
0.602343
0.588716
0.573421
0.568856
0.566449
0.565885
0.567329
0.571081
0.577208
0.584421
0.590683
0.595582
0.599669
0.603301
0.606607
0.609630
0.612390
0.614905
0.617192
0.619267
0.621145
0.622842
0.624372
0.625751
0.626992
0.628109
0.629115
0.630024
0.630848
0.631597
0.632282
0.632914
0.633500
0.634050
0.634569
0.635064
0.635540
0.636001
0.636452
0.636896
0.637335
0.637772
0.638207
0.638642
0.639079
0.639517
0.639957
0.640400
0.640844
0.641291
0.641739
0.642188
0.642639
0.643090
0.643540
0.643990
0.644439
0.644887
0.645324
0.645812
0.645978
0.648158
0.638723
0.712230
0.692219
0.651042
0.642782
0.679301
0.632989
0.653538
0.664573
0.630926
0.671939
0.629071
0.667784
0.629463
0.664140
0.632148
0.666591
0.628849
0.653520
0.707816
0.638209
0.659543
0.633498
0.655977
0.709874
0.634055
0.678750
0.620954
0.634259
0.647085
0.658644
0.639245
0.660840
0.655446
0.680910
0.608770
0.601819
0.598903
0.595749
0.595673
0.593139
0.592894
0.591016
0.590796
0.589373
0.589221
0.588123
0.588047
0.587188
0.587181
0.586499
0.586551
0.586002
0.586104
0.585654
0.585795
0.585419
0.585593
0.585268
0.585471
0.585181
0.585409
0.585409
0.585138
0.585390
0.585126
0.585404
0.585133
0.585441
0.585150
0.585496
0.585167
0.585564
0.585176
0.585644
0.585170
0.585738
0.585138
0.585854
0.585064
0.586004
0.584927
0.586212
0.584687
0.586520
0.584277
0.586999
0.583577
0.587756
0.582386
0.588903
0.580461
0.590358
0.577954
0.591589
0.575975
0.592426
0.574408
0.592993
0.573187
0.593405
0.572096
0.593636
0.571330
0.593904
0.570230
0.593735
0.570355
0.594506
0.567425
0.592230
0.574166
0.597670
0.559598
0.586656
0.596297
0.558251
0.588574
0.589338
0.568563
0.589505
0.578163
0.594987
0.555686
0.573864
0.625967
0.687787
0.631694
0.667304
0.696894
0.673303
0.703105
0.687242
0.707940
0.696071
0.711892
0.703765
0.715251
0.710146
0.718324
0.715480
0.721174
0.719912
0.723836
0.723580
0.726303
0.726620
0.728553
0.729148
0.730569
0.731260
0.732343
0.733028
0.733880
0.734509
0.735192
0.735743
0.736296
0.736763
0.737210
0.737597
0.737955
0.738267
0.738547
0.738790
0.739004
0.739185
0.739340
0.739466
0.739568
0.739646
0.739702
0.739737
0.739751
0.739748
0.739726
0.739689
0.739635
0.739568
0.739486
0.739392
0.739286
0.739168
0.739040
0.738902
0.738754
0.738598
0.738433
0.738261
0.738081
0.737895
0.737702
0.737504
0.737300
0.737091
0.736877
0.736658
0.736436
0.736209
0.735979
0.735746
0.735509
0.735269
0.735027
0.734783
0.734536
0.734287
0.734036
0.733783
0.733529
0.733273
0.733016
0.732757
0.732498
0.732238
0.731976
0.731714
0.731452
0.731189
0.730925
0.730661
0.730397
0.730132
0.729867
0.729603
0.729338
0.729073
0.728808
0.728544
0.728279
0.728015
0.727751
0.727488
0.727224
0.726962
0.726699
0.726437
0.726176
0.725915
0.725655
0.725395
0.725136
0.724878
0.724621
0.724364
0.724108
0.723852
0.723598
0.723344
0.723091
0.722839
0.722587
0.722337
0.722088
0.721839
0.721591
0.721345
0.721099
0.720854
0.720610
0.720367
0.720125
0.719884
0.719645
0.719406
0.719168
0.718931
0.718695
0.718461
0.718227
0.717995
0.717763
0.717533
0.717304
0.717075
0.716848
0.716622
0.716397
0.716174
0.715951
0.715730
0.715509
0.715290
0.715072
0.714855
0.714639
0.714424
0.714211
0.713998
0.713787
0.713577
0.713368
0.713160
0.712953
0.712748
0.712544
0.712340
0.712138
0.711937
0.711737
0.711539
0.711341
0.711145
0.710950
0.710756
0.710563
0.710371
0.710181
0.709991
0.709803
0.709616
0.709429
0.709245
0.709061
0.708878
0.708696
0.708516
0.708337
0.708159
0.707981
0.707805
0.707631
0.707457
0.707284
0.707113
0.706942
0.706773
0.706604
0.706437
0.706271
0.706106
0.705942
0.705779
0.705617
0.705456
0.705296
0.705137
0.704980
0.704823
0.704667
0.704513
0.704359
0.704206
0.704055
0.703904
0.703755
0.703606
0.703458
0.703312
0.703166
0.703021
0.702878
0.702735
0.702593
0.702452
0.702312
0.702173
0.702035
0.701898
0.701762
0.701626
0.701492
0.701358
0.701226
0.701094
0.700963
0.700833
0.700704
0.700576
0.700448
0.700322
0.700196
0.700071
0.699947
0.699823
0.699701
0.699579
0.699458
0.699338
0.699219
0.699101
0.698983
0.698866
0.698750
0.698634
0.698519
0.698405
0.698292
0.698180
0.698068
0.697957
0.697846
0.697736
0.697627
0.697519
0.697411
0.697304
0.697198
0.697092
0.696987
0.696883
0.696779
0.696676
0.696573
0.696471
0.696370
0.696269
0.696169
0.696070
0.695971
0.695872
0.695775
0.695677
0.695581
0.695484
0.695389
0.695294
0.695199
0.695105
0.695012
0.694919
0.694826
0.694734
0.694642
0.694551
0.694461
0.694371
0.694281
0.694192
0.694103
0.694015
0.693927
0.693839
0.693752
0.693665
0.693579
0.693493
0.693408
0.693323
0.693238
0.693154
0.693070
0.692987
0.692903
0.692821
0.692738
0.692656
0.692574
0.692493
0.692412
0.692331
0.692251
0.692171
0.692091
0.692011
0.691932
0.691853
0.691774
0.691696
0.691618
0.691540
0.691463
0.691385
0.691308
0.691231
0.691155
0.691079
0.691003
0.690927
0.690851
0.690776
0.690701
0.690626
0.690551
0.690477
0.690402
0.690328
0.690254
0.690181
0.690107
0.690034
0.689961
0.689888
0.689815
0.689742
0.689670
0.689597
0.689525
0.689453
0.689381
0.689310
0.689238
0.689167
0.689096
0.689024
0.688953
0.688883
0.688812
0.688741
0.688671
0.688600
0.688530
0.688460
0.688390
0.688320
0.688250
0.688180
0.688111
0.688041
0.687972
0.687902
0.687833
0.687764
0.687695
0.687626
0.687557
0.687488
0.687419
0.687350
0.687282
0.687213
0.687145
0.687076
0.687008
0.686940
0.686871
0.686803
0.686735
0.686667
0.686599
0.686531
0.686463
0.686396
0.686328
0.686260
0.686192
0.686125
0.686057
0.685990
0.685922
0.685855
0.685787
0.685720
0.685653
0.685585
0.685518
0.685451
0.685384
0.685317
0.685250
0.685183
0.685116
0.685049
0.684982
0.684915
0.684848
0.684781
0.684714
0.684648
0.684581
0.684514
0.684448
0.684448
0.684381
0.684315
0.684248
0.684182
0.684115
0.684049
0.683982
0.683916
0.683850
0.683783
0.683717
0.683651
0.683585
0.683519
0.683452
0.683386
0.683320
0.683254
0.683188
0.683122
0.683057
0.682991
0.682925
0.682859
0.682793
0.682728
0.682662
0.682597
0.682531
0.682465
0.682400
0.682335
0.682269
0.682204
0.682139
0.682073
0.682008
0.681943
0.681878
0.681813
0.681748
0.681683
0.681618
0.681553
0.681488
0.681424
0.681359
0.681294
0.681230
0.681165
0.681101
0.681036
0.680972
0.680908
0.680844
0.680780
0.680716
0.680652
0.680588
0.680524
0.680460
0.680396
0.680333
0.680269
0.680205
0.680142
0.680079
0.680015
0.679952
0.679889
0.679826
0.679763
0.679700
0.679637
0.679575
0.679512
0.679450
0.679387
0.679325
0.679262
0.679200
0.679138
0.679076
0.679014
0.678952
0.678891
0.678829
0.678768
0.678706
0.678645
0.678584
0.678522
0.678461
0.678400
0.678340
0.678279
0.678218
0.678158
0.678098
0.678037
0.677977
0.677917
0.677857
0.677797
0.677738
0.677678
0.677619
0.677559
0.677500
0.677441
0.677382
0.677323
0.677265
0.677206
0.677147
0.677089
0.677031
0.676973
0.676915
0.676857
0.676799
0.676742
0.676685
0.676627
0.676570
0.676513
0.676456
0.676400
0.676343
0.676287
0.676230
0.676174
0.676118
0.676063
0.676007
0.675951
0.675896
0.675841
0.675786
0.675731
0.675676
0.675621
0.675567
0.675513
0.675459
0.675405
0.675351
0.675297
0.675244
0.675190
0.675137
0.675084
0.675031
0.674979
0.674926
0.674874
0.674822
0.674770
0.674718
0.674666
0.674615
0.674564
0.674513
0.674462
0.674411
0.674360
0.674310
0.674260
0.674210
0.674160
0.674110
0.674061
0.674011
0.673962
0.673913
0.673865
0.673816
0.673768
0.673719
0.673671
0.673624
0.673576
0.673529
0.673481
0.673434
0.673388
0.673341
0.673294
0.673248
0.673202
0.673156
0.673111
0.673065
0.673020
0.672975
0.672930
0.672885
0.672841
0.672797
0.672752
0.672709
0.672665
0.672622
0.672578
0.672535
0.672492
0.672450
0.672407
0.672365
0.672323
0.672281
0.672240
0.672199
0.672157
0.672117
0.672076
0.672035
0.671995
0.671955
0.671915
0.671876
0.671836
0.671797
0.671758
0.671719
0.671681
0.671642
0.671604
0.671566
0.671529
0.671491
0.671454
0.671417
0.671381
0.671344
0.671308
0.671271
0.671236
0.671199
0.671166
0.671128
0.671096
0.671057
0.671029
0.670986
0.670964
0.670913
0.670904
0.670835
0.670853
0.670747
0.670819
0.670637
0.670819
0.670479
0.670893
0.670216
0.671122
0.669728
0.671688
0.668748
0.672989
0.666706
0.675874
0.662572
0.681710
0.655892
0.676403
0.668493
0.682600
0.688974
0.682113
0.689759
0.683061
0.735452
0.823861
0.810369
0.798558
0.744221
0.749053
0.766674
0.729996
0.755371
0.736390
0.744186
0.709876
0.732919
0.706239
0.708923
0.718494
0.733505
0.759772
0.769620
0.780010
0.801635
0.819168
0.818212
0.854730
0.857282
0.909819
0.904748
0.918501
0.959746
0.950488
0.994368
0.982318
1.038508
1.022636
1.038504
1.020567
1.087108
1.076074
1.083407
1.103741
1.089268
1.120423
1.150816
1.201331
1.164613
1.133779
1.199757
1.167346
1.139614
1.259786
1.241138
1.262804
1.329330
1.166848
1.191909
1.201518
1.207316
1.212341
1.217196
1.222383
1.228311
1.235380
1.235997
1.249463
1.240958
1.261270
1.334391
1.304457
1.314290
1.287188
1.265960
1.340092
1.322076
1.312672
1.323514
1.451097
1.238419
1.223899
1.225757
1.226758
1.227578
1.229310
1.232752
1.237796
1.244202
1.251915
1.255926
1.267118
1.259434
1.271636
1.283282
1.250599
1.362741
1.394015
1.294335
1.372729
1.288486
1.299535
1.377933
1.285289
1.269881
1.267190
1.266419
1.266264
1.266955
1.268143
1.269522
1.271016
1.272629
1.274380
1.276319
1.278531
1.281179
1.284596
1.289500
1.297180
1.301341
1.307353
1.317070
1.284743
1.401888
1.351612
1.361234
1.362443
1.318574
1.281360
1.286561
1.288068
1.292817
1.274937
1.300082
1.298088
1.305511
1.307662
1.320390
1.298952
1.352570
1.452106
1.337604
1.308389
1.375431
1.339981
1.325870
1.332798
1.338192
1.341656
1.351017
1.324963
1.411387
1.392165
1.370273
1.304957
1.279252
1.304652
1.292906
1.294848
1.293394
1.292839
1.292564
1.292316
1.292128
1.291981
1.291859
1.291758
1.291676
1.291609
1.291556
1.291515
1.291486
1.291466
1.291457
1.291456
1.291464
1.291479
1.291501
1.291530
1.291565
1.291606
1.291652
1.291703
1.291760
1.291820
1.291885
1.291954
1.292027
1.292103
1.292183
1.292265
1.292351
1.292439
1.292530
1.292624
1.292719
1.292817
1.292917
1.293019
1.293122
1.293227
1.293334
1.293442
1.293551
1.293661
1.293773
1.293886
1.294000
1.294115
1.294230
1.294346
1.294464
1.294581
1.294700
1.294818
1.294938
1.295058
1.295178
1.295298
1.295419
1.295541
1.295662
1.295784
1.295905
1.296027
1.296149
1.296271
1.296394
1.296394
1.296516
1.296638
1.296760
1.296882
1.297004
1.297126
1.297248
1.297370
1.297491
1.297613
1.297734
1.297855
1.297976
1.298097
1.298217
1.298337
1.298457
1.298577
1.298696
1.298815
1.298934
1.299052
1.299171
1.299288
1.299406
1.299523
1.299640
1.299756
1.299873
1.299988
1.300104
1.300219
1.300333
1.300448
1.300562
1.300675
1.300788
1.300901
1.301013
1.301125
1.301237
1.301348
1.301459
1.301569
1.301679
1.301788
1.301897
1.302006
1.302114
1.302222
1.302329
1.302436
1.302543
1.302649
1.302755
1.302860
1.302965
1.303069
1.303173
1.303277
1.303380
1.303482
1.303584
1.303686
1.303788
1.303889
1.303989
1.304089
1.304189
1.304288
1.304387
1.304485
1.304583
1.304680
1.304777
1.304874
1.304970
1.305066
1.305161
1.305256
1.305351
1.305445
1.305538
1.305631
1.305724
1.305817
1.305909
1.306000
1.306091
1.306182
1.306272
1.306362
1.306451
1.306540
1.306629
1.306717
1.306805
1.306892
1.306979
1.307066
1.307152
1.307238
1.307323
1.307408
1.307492
1.307577
1.307660
1.307744
1.307826
1.307909
1.307991
1.308073
1.308154
1.308235
1.308316
1.308396
1.308476
1.308555
1.308634
1.308713
1.308791
1.308869
1.308946
1.309024
1.309100
1.309177
1.309253
1.309328
1.309404
1.309479
1.309553
1.309627
1.309701
1.309774
1.309848
1.309920
1.309993
1.310065
1.310136
1.310208
1.310278
1.310349
1.310419
1.310489
1.310559
1.310628
1.310697
1.310765
1.310833
1.310901
1.310969
1.311036
1.311102
1.311169
1.311235
1.311301
1.311366
1.311431
1.311496
1.311561
1.311625
1.311689
1.311752
1.311815
1.311878
1.311941
1.312003
1.312065
1.312126
1.312188
1.312249
1.312309
1.312370
1.312430
1.312489
1.312549
1.312608
1.312667
1.312725
1.312783
1.312841
1.312899
1.312956
1.313013
1.313070
1.313126
1.313183
1.313238
1.313294
1.313349
1.313404
1.313459
1.313513
1.313567
1.313621
1.313675
1.313728
1.313781
1.313834
1.313886
1.313939
1.313991
1.314042
1.314094
1.314145
1.314196
1.314246
1.314296
1.314347
1.314396
1.314446
1.314495
1.314544
1.314593
1.314641
1.314690
1.314738
1.314785
1.314833
1.314880
1.314927
1.314974
1.315020
1.315067
1.315113
1.315158
1.315204
1.315249
1.315294
1.315339
1.315384
1.315428
1.315472
1.315516
1.315559
1.315603
1.315646
1.315689
1.315732
1.315774
1.315816
1.315858
1.315900
1.315942
1.315983
1.316024
1.316065
1.316106
1.316146
1.316187
1.316227
1.316267
1.316306
1.316346
1.316385
1.316424
1.316463
1.316501
1.316540
1.316578
1.316616
1.316654
1.316691
1.316728
1.316766
1.316803
1.316839
1.316876
1.316912
1.316948
1.316984
1.317020
1.317056
1.317091
1.317126
1.317161
1.317196
1.317231
1.317265
1.317300
1.317334
1.317368
1.317401
1.317435
1.317468
1.317501
1.317534
1.317567
1.317600
1.317632
1.317664
1.317697
1.317729
1.317760
1.317792
1.317823
1.317855
1.317886
1.317917
1.317947
1.317978
1.318008
1.318039
1.318069
1.318099
1.318128
1.318158
1.318187
1.318217
1.318246
1.318275
1.318304
1.318332
1.318361
1.318389
1.318417
1.318445
1.318473
1.318501
1.318529
1.318556
1.318583
1.318610
1.318637
1.318664
1.318691
1.318718
1.318744
1.318770
1.318796
1.318822
1.318848
1.318874
1.318899
1.318925
1.318950
1.318975
1.319000
1.319025
1.319050
1.319075
1.319099
1.319123
1.319148
1.319172
1.319196
1.319220
1.319243
1.319267
1.319290
1.319314
1.319337
1.319360
1.319383
1.319406
1.319428
1.319451
1.319473
1.319496
1.319518
1.319540
1.319562
1.319584
1.319606
1.319627
1.319649
1.319670
1.319692
1.319713
1.319734
1.319755
1.319776
1.319796
1.319817
1.319838
1.319858
1.319878
1.319898
1.319919
1.319939
1.319958
1.319978
1.319998
1.320017
1.320037
1.320056
1.320075
1.320095
1.320114
1.320133
1.320151
1.320170
1.320189
1.320207
1.320226
1.320244
1.320262
1.320281
1.320299
1.320317
1.320335
1.320352
1.320370
1.320388
1.320405
1.320423
1.320440
1.320457
1.320475
1.320492
1.320509
1.320525
1.320542
1.320559
1.320576
1.320592
1.320609
1.320625
1.320641
1.320658
1.320674
1.320690
1.320706
1.320722
1.320738
1.320753
1.320769
1.320785
1.320800
1.320816
1.320831
1.320846
1.320862
1.320877
1.320892
1.320907
1.320922
1.320936
1.320951
1.320966
1.320981
1.320995
1.321010
1.321024
1.321038
1.321053
1.321067
1.321081
1.321095
1.321109
1.321123
1.321137
1.321151
1.321165
1.321178
1.321192
1.321205
1.321219
1.321232
1.321246
1.321259
1.321272
1.321285
1.321299
1.321312
1.321325
1.321338
1.321351
1.321363
1.321376
1.321389
1.321402
1.321414
1.321427
1.321439
1.321452
1.321464
1.321476
1.321489
1.321501
1.321513
1.321525
1.321537
1.321549
1.321561
1.321573
1.321585
1.321597
1.321609
1.321620
1.321632
1.321644
1.321655
1.321667
1.321678
1.321690
1.321701
1.321712
1.321724
1.321724
1.321735
1.321746
1.321757
1.321768
1.321779
1.321790
1.321801
1.321812
1.321823
1.321834
1.321845
1.321856
1.321867
1.321877
1.321888
1.321899
1.321909
1.321920
1.321930
1.321941
1.321951
1.321961
1.321972
1.321982
1.321992
1.322003
1.322013
1.322023
1.322033
1.322043
1.322053
1.322063
1.322073
1.322083
1.322093
1.322103
1.322113
1.322123
1.322133
1.322143
1.322152
1.322162
1.322172
1.322181
1.322191
1.322201
1.322210
1.322220
1.322229
1.322239
1.322248
1.322258
1.322267
1.322277
1.322286
1.322295
1.322305
1.322314
1.322323
1.322332
1.322342
1.322351
1.322360
1.322369
1.322378
1.322387
1.322396
1.322405
1.322414
1.322423
1.322432
1.322441
1.322450
1.322459
1.322468
1.322477
1.322486
1.322495
1.322504
1.322512
1.322521
1.322530
1.322539
1.322547
1.322556
1.322565
1.322574
1.322582
1.322591
1.322600
1.322608
1.322617
1.322625
1.322634
1.322642
1.322651
1.322660
1.322668
1.322677
1.322685
1.322693
1.322702
1.322710
1.322719
1.322727
1.322736
1.322744
1.322752
1.322761
1.322769
1.322778
1.322786
1.322794
1.322803
1.322811
1.322819
1.322827
1.322836
1.322844
1.322852
1.322861
1.322869
1.322877
1.322885
1.322893
1.322902
1.322910
1.322918
1.322926
1.322934
1.322943
1.322951
1.322959
1.322967
1.322975
1.322984
1.322992
1.323000
1.323008
1.323016
1.323024
1.323032
1.323041
1.323049
1.323057
1.323065
1.323073
1.323081
1.323089
1.323097
1.323105
1.323114
1.323122
1.323130
1.323138
1.323146
1.323154
1.323162
1.323170
1.323178
1.323186
1.323195
1.323203
1.323211
1.323219
1.323227
1.323235
1.323243
1.323251
1.323259
1.323267
1.323276
1.323284
1.323292
1.323300
1.323308
1.323316
1.323324
1.323332
1.323340
1.323349
1.323357
1.323365
1.323373
1.323381
1.323389
1.323397
1.323406
1.323414
1.323422
1.323430
1.323438
1.323447
1.323455
1.323463
1.323471
1.323479
1.323488
1.323496
1.323504
1.323512
1.323520
1.323529
1.323537
1.323545
1.323554
1.323562
1.323570
1.323578
1.323587
1.323595
1.323603
1.323612
1.323620
1.323628
1.323637
1.323645
1.323653
1.323662
1.323670
1.323679
1.323687
1.323695
1.323704
1.323712
1.323721
1.323729
1.323738
1.323746
1.323755
1.323763
1.323772
1.323780
1.323789
1.323797
1.323806
1.323815
1.323823
1.323832
1.323840
1.323849
1.323858
1.323866
1.323875
1.323884
1.323892
1.323901
1.323910
1.323919
1.323927
1.323936
1.323945
1.323954
1.323962
1.323971
1.323980
1.323989
1.323998
1.324007
1.324016
1.324024
1.324033
1.324042
1.324051
1.324060
1.324069
1.324078
1.324087
1.324096
1.324105
1.324114
1.324123
1.324133
1.324142
1.324151
1.324160
1.324169
1.324178
1.324187
1.324197
1.324206
1.324215
1.324224
1.324234
1.324243
1.324252
1.324262
1.324271
1.324280
1.324290
1.324299
1.324309
1.324318
1.324327
1.324337
1.324346
1.324356
1.324365
1.324375
1.324385
1.324394
1.324404
1.324413
1.324423
1.324433
1.324442
1.324452
1.324462
1.324472
1.324481
1.324491
1.324501
1.324511
1.324521
1.324531
1.324540
1.324550
1.324560
1.324570
1.324580
1.324590
1.324600
1.324610
1.324620
1.324630
1.324640
1.324651
1.324661
1.324671
1.324681
1.324691
1.324702
1.324712
1.324722
1.324732
1.324743
1.324753
1.324763
1.324774
1.324784
1.324795
1.324805
1.324816
1.324826
1.324837
1.324847
1.324858
1.324868
1.324879
1.324890
1.324900
1.324911
1.324922
1.324932
1.324943
1.324954
1.324965
1.324975
1.324986
1.324997
1.325008
1.325019
1.325030
1.325041
1.325052
1.325063
1.325074
1.325085
1.325096
1.325107
1.325118
1.325130
1.325141
1.325152
1.325163
1.325174
1.325186
1.325197
1.325208
1.325220
1.325231
1.325243
1.325254
1.325265
1.325277
1.325288
1.325300
1.325312
1.325323
1.325335
1.325346
1.325358
1.325370
1.325382
1.325393
1.325405
1.325417
1.325429
1.325441
1.325452
1.325464
1.325476
1.325488
1.325500
1.325512
1.325524
1.325536
1.325548
1.325561
1.325573
1.325585
1.325597
1.325609
1.325622
1.325634
1.325646
1.325658
1.325671
1.325683
1.325696
1.325708
1.325721
1.325733
1.325746
1.325758
1.325771
1.325783
1.325796
1.325809
1.325821
1.325834
1.325847
1.325860
1.325872
1.325885
1.325898
1.325911
1.325924
1.325937
1.325950
1.325963
1.325976
1.325989
1.326002
1.326015
1.326028
1.326041
1.326055
1.326068
1.326081
1.326094
1.326108
1.326121
1.326134
1.326148
1.326161
1.326175
1.326188
1.326202
1.326215
1.326229
1.326242
1.326256
1.326270
1.326283
1.326297
1.326311
1.326325
1.326339
1.326352
1.326366
1.326380
1.326394
1.326408
1.326422
1.326436
1.326450
1.326464
1.326478
1.326492
1.326507
1.326521
1.326535
1.326549
1.326563
1.326578
1.326592
1.326607
1.326621
1.326635
1.326650
1.326664
1.326679
1.326693
1.326708
1.326723
1.326737
1.326752
1.326767
1.326767
1.326781
1.326796
1.326811
1.326826
1.326841
1.326856
1.326870
1.326885
1.326900
1.326915
1.326930
1.326946
1.326961
1.326976
1.326991
1.327006
1.327021
1.327037
1.327052
1.327067
1.327083
1.327098
1.327113
1.327129
1.327144
1.327160
1.327175
1.327191
1.327206
1.327222
1.327238
1.327253
1.327269
1.327285
1.327301
1.327317
1.327332
1.327348
1.327364
1.327380
1.327396
1.327412
1.327428
1.327444
1.327460
1.327476
1.327493
1.327509
1.327525
1.327541
1.327558
1.327574
1.327590
1.327607
1.327623
1.327639
1.327656
1.327672
1.327689
1.327706
1.327722
1.327739
1.327755
1.327772
1.327789
1.327806
1.327822
1.327839
1.327856
1.327873
1.327890
1.327907
1.327924
1.327941
1.327958
1.327975
1.327992
1.328009
1.328026
1.328044
1.328061
1.328078
1.328095
1.328113
1.328130
1.328148
1.328165
1.328182
1.328200
1.328218
1.328235
1.328253
1.328270
1.328288
1.328306
1.328323
1.328341
1.328359
1.328377
1.328395
1.328413
1.328430
1.328448
1.328466
1.328484
1.328502
1.328521
1.328539
1.328557
1.328575
1.328593
1.328611
1.328630
1.328648
1.328666
1.328685
1.328703
1.328722
1.328740
1.328759
1.328777
1.328796
1.328814
1.328833
1.328852
1.328870
1.328889
1.328908
1.328927
1.328945
1.328964
1.328983
1.329002
1.329021
1.329040
1.329059
1.329078
1.329097
1.329116
1.329135
1.329155
1.329174
1.329193
1.329212
1.329232
1.329251
1.329271
1.329290
1.329309
1.329329
1.329348
1.329368
1.329388
1.329407
1.329427
1.329446
1.329466
1.329486
1.329506
1.329526
1.329545
1.329565
1.329585
1.329605
1.329625
1.329645
1.329665
1.329685
1.329705
1.329726
1.329746
1.329766
1.329786
1.329806
1.329827
1.329847
1.329868
1.329888
1.329908
1.329929
1.329949
1.329970
1.329990
1.330011
1.330032
1.330052
1.330073
1.330094
1.330115
1.330135
1.330156
1.330177
1.330198
1.330219
1.330240
1.330261
1.330282
1.330303
1.330324
1.330345
1.330367
1.330388
1.330409
1.330430
1.330452
1.330473
1.330494
1.330516
1.330537
1.330559
1.330580
1.330602
1.330623
1.330645
1.330667
1.330688
1.330710
1.330732
1.330753
1.330775
1.330797
1.330819
1.330841
1.330863
1.330885
1.330907
1.330929
1.330951
1.330973
1.330995
1.331017
1.331040
1.331062
1.331084
1.331106
1.331129
1.331151
1.331174
1.331196
1.331218
1.331241
1.331263
1.331286
1.331309
1.331331
1.331354
1.331377
1.331399
1.331422
1.331445
1.331468
1.331491
1.331514
1.331537
1.331560
1.331583
1.331606
1.331629
1.331652
1.331675
1.331698
1.331721
1.331745
1.331768
1.331791
1.331815
1.331838
1.331861
1.331885
1.331908
1.331932
1.331955
1.331979
1.332003
1.332026
1.332050
1.332074
1.332097
1.332121
1.332145
1.332169
1.332193
1.332217
1.332241
1.332265
1.332289
1.332313
1.332337
1.332361
1.332385
1.332409
1.332433
1.332458
1.332482
1.332506
1.332531
1.332555
1.332579
1.332604
1.332628
1.332653
1.332678
1.332702
1.332727
1.332752
1.332776
1.332801
1.332826
1.332850
1.332876
1.332900
1.332925
1.332950
1.332974
1.333000
1.333025
1.333049
1.333076
1.333100
1.333124
1.333152
1.333175
1.333201
1.333228
1.333249
1.333278
1.333303
1.333325
1.333357
1.333377
1.333402
1.333436
1.333450
1.333483
1.333512
1.333523
1.333567
1.333582
1.333601
1.333652
1.333648
1.333688
1.333731
1.333712
1.333786
1.333795
1.333786
1.333889
1.333839
1.333885
1.333980
1.333873
1.334019
1.334030
1.333924
1.334180
1.334018
1.334041
1.334320
1.333955
1.334271
1.334349
1.333916
1.334614
1.334184
1.334044
1.334943
1.333836
1.334518
1.334967
1.333489
1.335433
1.334394
1.333531
1.336478
1.333321
1.334518
1.336591
1.332249
1.336923
1.334970
1.331945
1.340005
1.333085
1.333310
1.339945
1.331723
1.336083
1.337022
1.330652
1.340882
1.334025
1.331744
1.341772
1.332612
1.333617
1.339514
1.331225
1.336895
1.336018
1.330450
1.341760
1.333547
1.332017
1.341045
1.332072
1.334169
1.338489
1.330690
1.338201
1.334795
1.330610
1.342145
1.332986
1.332439
1.340241
1.331486
1.335058
1.337203
1.330226
1.339887
1.333757
1.331164
1.341550
1.332225
1.333226
1.339080
1.330748
1.336775
1.335391
1.330093
1.341689
1.333005
1.331952
1.340306
1.331415
1.334536
1.337334
1.330065
1.339345
1.333674
1.330883
1.341492
1.332060
1.333071
1.338876
1.330522
1.336804
1.335061
1.329964
1.341707
1.332735
1.332006
1.339903
1.331076
1.334898
1.336655
1.329807
1.340099
1.333185
1.331198
1.340859
1.331529
1.333722
1.337877
1.330015
1.338322
1.333882
1.330396
1.341682
1.332078
1.332726
1.338916
1.330422
1.336502
1.335022
1.329790
1.341641
1.332548
1.332035
1.339588
1.330790
1.335281
1.336049
1.329638
1.340790
1.332806
1.331578
1.340161
1.331031
1.334603
1.336739
1.329650
1.340044
1.333021
1.331225
1.340654
1.331235
1.334127
1.334127
1.337259
1.329716
1.339401
1.333242
1.330924
1.341073
1.331430
1.333754
1.337676
1.329809
1.338832
1.333478
1.330666
1.341418
1.331614
1.333464
1.338004
1.329913
1.338361
1.333713
1.330466
1.341675
1.331772
1.333270
1.338234
1.330006
1.338040
1.333904
1.330348
1.341839
1.331881
1.333188
1.338354
1.330067
1.337926
1.333998
1.330329
1.341926
1.331923
1.333232
1.338360
1.330080
1.338048
1.333966
1.330420
1.341940
1.331886
1.333412
1.338242
1.330040
1.338432
1.333799
1.330642
1.341836
1.331752
1.333763
1.337961
1.329943
1.339133
1.333506
1.331046
1.341487
1.331486
1.334389
1.337403
1.329799
1.340268
1.333129
1.331712
1.340686
1.331071
1.335481
1.336384
1.329743
1.341761
1.332799
1.332580
1.339515
1.330683
1.336948
1.335121
1.330141
1.342557
1.332471
1.333389
1.338703
1.330419
1.338408
1.334174
1.330897
1.342268
1.331963
1.334375
1.337904
1.330107
1.340292
1.333399
1.332001
1.341021
1.331237
1.336103
1.336329
1.330016
1.342579
1.332910
1.333329
1.339152
1.330723
1.338289
1.334569
1.330985
1.342683
1.332225
1.334645
1.338042
1.330315
1.340742
1.333496
1.332496
1.340933
1.331249
1.337016
1.335947
1.330394
1.343315
1.332938
1.334084
1.338762
1.330777
1.339574
1.334135
1.331975
1.342154
1.331843
1.336190
1.337045
1.330385
1.342967
1.333269
1.333977
1.339294
1.331004
1.339432
1.334502
1.331945
1.342665
1.332142
1.336197
1.337372
1.330573
1.343040
1.333428
1.334230
1.339424
1.331136
1.339881
1.334532
1.332346
1.342631
1.332134
1.336872
1.337102
1.330796
1.343765
1.333492
1.334825
1.339048
1.331262
1.340743
1.334312
1.333179
1.341976
1.331875
1.338298
1.336247
1.331354
1.344433
1.333369
1.335695
1.338545
1.331331
1.342072
1.334027
1.334328
1.340793
1.331587
1.340300
1.335165
1.332717
1.343478
1.332634
1.337559
1.337372
1.331376
1.344511
1.333823
1.335834
1.338942
1.331695
1.342201
1.334329
1.334693
1.341109
1.331830
1.340947
1.335286
1.333338
1.343438
1.332682
1.338598
1.337059
1.331922
1.345154
1.333912
1.336703
1.338671
1.331994
1.343334
1.334316
1.335843
1.340248
1.331939
1.342727
1.334886
1.335036
1.341691
1.332257
1.341479
1.335629
1.333964
1.343688
1.332924
1.339666
1.336963
1.332710
1.345533
1.334015
1.337842
1.338467
1.332438
1.344719
1.334468
1.337177
1.339445
1.332432
1.344269
1.334820
1.336778
1.340278
1.332499
1.343955
1.335137
1.336471
1.341040
1.332613
1.343649
1.335437
1.336183
1.341804
1.332760
1.343305
1.335747
1.335863
1.342624
1.332954
1.342851
1.336104
1.335457
1.343579
1.333234
1.342196
1.336578
1.334906
1.344732
1.333676
1.341254
1.337273
1.334242
1.345914
1.334300
1.340191
1.338123
1.333798
1.346386
1.334813
1.339590
1.338711
1.333787
1.346185
1.335043
1.339492
1.339061
1.333834
1.346317
1.335239
1.339567
1.339228
1.333999
1.346384
1.335356
1.339778
1.339310
1.334166
1.346584
1.335458
1.340053
1.339304
1.334391
1.346724
1.335515
1.340391
1.339261
1.334619
1.346906
1.335559
1.340756
1.339180
1.334879
1.347026
1.335571
1.341158
1.339078
1.335149
1.347130
1.335564
1.341587
1.338951
1.335449
1.347160
1.335522
1.342063
1.338794
1.335787
1.347106
1.335440
1.342615
1.338590
1.336198
1.346895
1.335293
1.343312
1.338309
1.336759
1.346386
1.335047
1.344307
1.337906
1.337648
1.345235
1.334696
1.345872
1.337398
1.339167
1.342929
1.334685
1.347668
1.337062
1.340966
1.340550
1.335932
1.347431
1.336472
1.342586
1.339711
1.336587
1.347969
1.336163
1.343942
1.338926
1.337786
1.346704
1.335536
1.345981
1.338124
1.339609
1.344034
1.335182
1.348605
1.337640
1.342030
1.340535
1.337160
1.347453
1.336648
1.344364
1.339514
1.338188
1.347490
1.336041
1.346638
1.338479
1.340541
1.343910
1.335727
1.349659
1.338021
1.343233
1.340216
1.338624
1.346860
1.336579
1.346657
1.339027
1.340646
1.344919
1.336008
1.350157
1.338430
1.343809
1.340342
1.339446
1.346676
1.336787
1.347879
1.339061
1.342116
1.343626
1.336877
1.350847
1.338579
1.345004
1.340232
1.340610
1.346352
1.336865
1.349882
1.339073
1.344234
1.341516
1.339447
1.348587
1.337633
1.348054
1.339774
1.342632
1.344605
1.337344
1.351948
1.339265
1.346044
1.340334
1.342353
1.345411
1.337552
1.351805
1.339515
1.346235
1.340660
1.342505
1.345838
1.337768
1.352107
1.339754
1.346635
1.340744
1.343113
1.345595
1.338114
1.352619
1.339937
1.347238
1.340710
1.343973
1.345045
1.338632
1.353023
1.340024
1.347929
1.340729
1.344728
1.344668
1.339196
1.353168
1.340037
1.348630
1.340802
1.345359
1.344415
1.339781
1.353086
1.339991
1.349382
1.340875
1.346010
1.344081
1.340540
1.352597
1.339792
1.350404
1.340914
1.346856
1.343435
1.341841
1.351072
1.339302
1.352298
1.340920
1.348379
1.341966
1.341966
1.345037
1.346434
1.339675
1.354765
1.341150
1.350062
1.341057
1.348324
1.343031
1.343795
1.349406
1.339305
1.355188
1.341548
1.350327
1.340983
1.349409
1.342459
1.345615
1.347035
1.340112
1.355800
1.341711
1.351113
1.341163
1.350288
1.342315
1.347118
1.345610
1.341790
1.354382
1.341050
1.352900
1.341593
1.350899
1.342191
1.348706
1.344338
1.344260
1.351199
1.340239
1.356331
1.342273
1.352337
1.341334
1.352470
1.341914
1.350804
1.342692
1.348567
1.345161
1.343939
1.352777
1.340760
1.356332
1.342365
1.353358
1.341536
1.353707
1.341844
1.352874
1.341915
1.352370
1.342240
1.351503
1.342874
1.349971
1.344496
1.346618
1.349635
1.341392
1.358801
1.343497
1.354699
1.341797
1.356709
1.342338
1.355742
1.341869
1.356282
1.341918
1.356150
1.341727
1.356394
1.341678
1.356441
1.341563
1.356620
1.341506
1.356736
1.341433
1.356934
1.341402
1.357123
1.341378
1.357398
1.341403
1.357698
1.341455
1.358122
1.341582
1.358615
1.341767
1.359334
1.342097
1.360200
1.342545
1.361604
1.343358
1.363310
1.344417
1.366993
1.346831
1.371753
1.349891
1.392427
1.341247
1.453018
1.434482
1.417010
1.385684
1.523726
1.438658
1.575677
1.637278
1.502686
1.606800
1.612024
1.653991
1.609890
1.827945
1.897454
1.717369
1.839735
1.934369
2.038895
2.030295
2.171749
2.292557
2.546345
2.641157
2.690788
2.657122
2.784711
2.907250
2.971432
3.130427
3.228575
3.055694
3.186490
3.425265
3.571063
3.655375
3.509970
3.708607
3.933548
3.931042
3.951367
3.925825
3.463180
3.722480
3.945275
3.918771
4.194487
4.293666
4.306988
4.335265
4.343624
4.323775
4.293277
4.265955
4.254541
4.212257
4.233224
4.204546
3.953796
4.238181
3.701503
3.732236
3.800571
4.038756
4.200228
4.262525
4.257128
4.268143
4.212192
4.173472
4.018812
3.597884
3.663406
3.882876
4.097892
4.232458
4.271233
4.236487
4.086452
4.049525
3.687474
3.672720
3.971445
4.032310
3.817299
3.924838
4.013773
4.006511
3.697872
3.796668
3.544450
3.657503
3.892454
4.007285
4.104036
3.823915
3.986390
3.976679
3.578213
3.629964
3.657256
3.665413
3.931293
3.775414
3.956065
3.837195
3.999069
4.282626
4.262102
3.674337
3.743794
3.807772
4.001059
3.957362
4.019658
2.779513
2.733491
2.699905
2.673719
2.652490
2.634721
2.619467
2.606109
2.594225
2.583518
2.573772
2.564826
2.556554
2.548859
2.541663
2.534901
2.528520
2.522478
2.516735
2.511261
2.506025
2.501004
2.496174
2.491515
2.487007
2.482630
2.478366
2.474192
2.470084
2.466009
2.461921
2.457747
2.453459
2.451513
2.449245
2.446409
2.444683
2.446554
2.440907
2.436009
2.434307
2.420930
2.280976
2.281063
2.190984
2.191044
2.190201
2.187877
2.187075
2.186875
2.182751
2.181602
2.178083
2.173233
2.177114
2.173541
2.170623
2.169951
2.156457
2.115092
2.116669
2.114695
2.114801
2.114244
2.105299
2.102217
2.102080
2.093268
2.073352
2.073350
2.073340
2.075413
2.075550
2.074158
2.070720
2.068192
1.999205
1.989138
1.987593
1.984973
1.981656
1.974939
1.963066
1.954194
1.953814
1.953218
1.952081
1.944482
1.931567
1.926484
1.920646
1.911190
1.911066
1.906280
1.904777
1.904785
1.904770
1.904842
1.904836
1.904834
1.904834
1.904847
1.904843
1.904857
1.904855
1.904854
1.904850
1.904860
1.904860
1.904858
1.904853
1.904865
1.904866
1.904864
1.904859
1.904868
1.904870
1.904863
1.904869
1.904862
1.904854
1.904846
1.904840
1.904868
1.904860
1.904859
1.904877
1.904870
1.904871
1.904871
1.904871
1.904878
1.904872
1.904865
1.904866
1.904859
1.904956
1.904945
1.904937
1.904935
1.904937
1.904939
1.904941
1.904942
1.904945
1.904949
1.904952
1.904951
1.904947
1.904942
1.904937
1.904933
1.904928
1.904924
1.904920
1.904917
1.904913
1.904909
1.904906
1.904903
1.904900
1.904897
1.904894
1.904891
1.904888
1.904886
1.904884
1.904882
1.904880
1.904878
1.904876
1.904875
1.904874
1.904873
1.904872
1.904871
1.904871
1.904870
1.904870
1.904870
1.904870
1.904870
1.904870
1.904871
1.904871
1.904872
1.904873
1.904873
1.904874
1.904875
1.904877
1.904878
1.904879
1.904880
1.904882
1.904883
1.904885
1.904886
1.904888
1.904889
1.904891
1.904893
1.904895
1.904896
1.904898
1.904900
1.904902
1.904903
1.904905
1.904907
1.904909
1.904911
1.904913
1.904915
1.904916
1.904918
1.904920
1.904922
1.904924
1.904926
1.904928
1.904929
1.904931
1.904933
1.904935
1.904937
1.904938
1.904940
1.904942
1.904944
1.904945
1.904947
1.904949
1.904950
1.904952
1.904954
1.904955
1.904957
1.904958
1.904960
1.904961
1.904963
1.904964
1.904966
1.904967
1.904969
1.904970
1.904972
1.904973
1.904974
1.904976
1.904977
1.904978
1.904980
1.904981
1.904982
1.904984
1.904985
1.904986
1.904987
1.904988
1.904989
1.904991
1.904992
1.904993
1.904994
1.904995
1.904995
1.904996
1.904997
1.904998
1.904999
1.905000
1.905001
1.905002
1.905003
1.905004
1.905005
1.905005
1.905006
1.905007
1.905008
1.905009
1.905009
1.905010
1.905011
1.905012
1.905012
1.905013
1.905014
1.905014
1.905015
1.905016
1.905016
1.905017
1.905018
1.905018
1.905019
1.905019
1.905020
1.905020
1.905021
1.905021
1.905022
1.905022
1.905022
1.905023
1.905023
1.905024
1.905024
1.905024
1.905025
1.905025
1.905025
1.905025
1.905026
1.905026
1.905026
1.905026
1.905027
1.905027
1.905027
1.905027
1.905027
1.905027
1.905028
1.905028
1.905028
1.905028
1.905028
1.905028
1.905028
1.905028
1.905028
1.905028
1.905028
1.905028
1.905028
1.905028
1.905028
1.905028
1.905027
1.905027
1.905027
1.905027
1.905027
1.905027
1.905026
1.905026
1.905026
1.905026
1.905026
1.905025
1.905025
1.905025
1.905024
1.905024
1.905024
1.905023
1.905023
1.905023
1.905022
1.905022
1.905021
1.905021
1.905021
1.905020
1.905020
1.905019
1.905019
1.905018
1.905018
1.905017
1.905016
1.905016
1.905015
1.905015
1.905014
1.905013
1.905013
1.905012
1.905012
1.905011
1.905010
1.905010
1.905009
1.905008
1.905007
1.905007
1.905006
1.905005
1.905004
1.905003
1.905003
1.905002
1.905001
1.905000
1.904999
1.904998
1.904998
1.904997
1.904996
1.904995
1.904994
1.904993
1.904992
1.904991
1.904990
1.904989
1.904988
1.904987
1.904986
1.904985
1.904984
1.904983
1.904982
1.904980
1.904979
1.904978
1.904977
1.904976
1.904975
1.904974
1.904972
1.904971
1.904970
1.904969
1.904968
1.904966
1.904965
1.904964
1.904962
1.904961
1.904960
1.904959
1.904957
1.904956
1.904955
1.904953
1.904952
1.904950
1.904949
1.904948
1.904946
1.904945
1.904943
1.904942
1.904940
1.904939
1.904937
1.904936
1.904934
1.904933
1.904931
1.904930
1.904928
1.904927
1.904925
1.904923
1.904922
1.904920
1.904918
1.904917
1.904915
1.904913
1.904912
1.904910
1.904908
1.904907
1.904905
1.904903
1.904901
1.904900
1.904898
1.904896
1.904894
1.904893
1.904891
1.904889
1.904887
1.904885
1.904883
1.904881
1.904880
1.904878
1.904876
1.904874
1.904872
1.904870
1.904868
1.904866
1.904864
1.904862
1.904860
1.904858
1.904856
1.904854
1.904852
1.904850
1.904848
1.904846
1.904844
1.904842
1.904840
1.904838
1.904835
1.904833
1.904831
1.904829
1.904827
1.904825
1.904822
1.904820
1.904818
1.904816
1.904814
1.904811
1.904809
1.904807
1.904805
1.904802
1.904800
1.904798
1.904795
1.904793
1.904791
1.904788
1.904786
1.904784
1.904781
1.904779
1.904777
1.904774
1.904772
1.904769
1.904767
1.904765
1.904762
1.904760
1.904757
1.904755
1.904752
1.904750
1.904747
1.904745
1.904742
1.904740
1.904737
1.904734
1.904732
1.904729
1.904727
1.904724
1.904722
1.904719
1.904716
1.904714
1.904711
1.904708
1.904706
1.904703
1.904700
1.904698
1.904695
1.904692
1.904690
1.904687
1.904684
1.904681
1.904679
1.904676
1.904673
1.904670
1.904667
1.904665
1.904662
1.904659
1.904656
1.904653
1.904650
1.904648
1.904645
1.904642
1.904639
1.904636
1.904633
1.904630
1.904627
1.904624
1.904621
1.904619
1.904616
1.904613
1.904610
1.904607
1.904604
1.904601
1.904598
1.904595
1.904592
1.904589
1.904586
1.904582
1.904579
1.904576
1.904573
1.904570
1.904567
1.904564
1.904561
1.904558
1.904555
1.904551
1.904548
1.904545
1.904542
1.904539
1.904536
1.904532
1.904529
1.904526
1.904523
1.904520
1.904516
1.904513
1.904510
1.904507
1.904503
1.904500
1.904497
1.904494
1.904490
1.904487
1.904484
1.904480
1.904477
1.904474
1.904470
1.904467
1.904464
1.904460
1.904457
1.904454
1.904450
1.904447
1.904443
1.904440
1.904436
1.904433
1.904430
1.904426
1.904423
1.904419
1.904416
1.904412
1.904409
1.904405
1.904402
1.904398
1.904395
1.904391
1.904388
1.904384
1.904381
1.904377
1.904374
1.904370
1.904366
1.904363
1.904359
1.904356
1.904352
1.904349
1.904345
1.904341
1.904338
1.904334
1.904330
1.904327
1.904323
1.904319
1.904316
1.904312
1.904308
1.904305
1.904301
1.904297
1.904294
1.904290
1.904286
1.904282
1.904279
1.904275
1.904271
1.904267
1.904264
1.904260
1.904256
1.904252
1.904248
1.904245
1.904241
1.904237
1.904233
1.904229
1.904226
1.904222
1.904218
1.904214
1.904210
1.904206
1.904202
1.904198
1.904195
1.904191
1.904187
1.904183
1.904179
1.904175
1.904171
1.904167
1.904163
1.904159
1.904155
1.904151
1.904147
1.904143
1.904139
1.904135
1.904132
1.904128
1.904124
1.904119
1.904115
1.904111
1.904107
1.904103
1.904099
1.904095
1.904091
1.904087
1.904083
1.904079
1.904075
1.904071
1.904067
1.904063
1.904059
1.904055
1.904050
1.904046
1.904042
1.904038
1.904034
1.904030
1.904026
1.904021
1.904017
1.904013
1.904009
1.904005
1.904001
1.903996
1.903992
1.903988
1.903984
1.903980
1.903980
1.903975
1.903971
1.903967
1.903963
1.903958
1.903954
1.903950
1.903946
1.903941
1.903937
1.903933
1.903929
1.903924
1.903920
1.903916
1.903911
1.903907
1.903903
1.903899
1.903894
1.903890
1.903886
1.903881
1.903877
1.903873
1.903868
1.903864
1.903859
1.903855
1.903851
1.903846
1.903842
1.903838
1.903833
1.903829
1.903824
1.903820
1.903816
1.903811
1.903807
1.903802
1.903798
1.903793
1.903789
1.903784
1.903780
1.903776
1.903771
1.903767
1.903762
1.903758
1.903753
1.903749
1.903744
1.903740
1.903735
1.903731
1.903726
1.903722
1.903717
1.903713
1.903708
1.903703
1.903699
1.903694
1.903690
1.903685
1.903681
1.903676
1.903672
1.903667
1.903662
1.903658
1.903653
1.903649
1.903644
1.903639
1.903635
1.903630
1.903626
1.903621
1.903616
1.903612
1.903607
1.903602
1.903598
1.903593
1.903588
1.903584
1.903579
1.903574
1.903570
1.903565
1.903560
1.903556
1.903551
1.903546
1.903542
1.903537
1.903532
1.903527
1.903523
1.903518
1.903513
1.903509
1.903504
1.903499
1.903494
1.903490
1.903485
1.903480
1.903475
1.903471
1.903466
1.903461
1.903456
1.903451
1.903447
1.903442
1.903437
1.903432
1.903427
1.903423
1.903418
1.903413
1.903408
1.903403
1.903399
1.903394
1.903389
1.903384
1.903379
1.903374
1.903369
1.903365
1.903360
1.903355
1.903350
1.903345
1.903340
1.903335
1.903330
1.903326
1.903321
1.903316
1.903311
1.903306
1.903301
1.903296
1.903291
1.903286
1.903281
1.903276
1.903271
1.903267
1.903262
1.903257
1.903252
1.903247
1.903242
1.903237
1.903232
1.903227
1.903222
1.903217
1.903212
1.903207
1.903202
1.903197
1.903192
1.903187
1.903182
1.903177
1.903172
1.903167
1.903162
1.903157
1.903152
1.903147
1.903142
1.903137
1.903132
1.903127
1.903122
1.903117
1.903112
1.903106
1.903101
1.903096
1.903091
1.903086
1.903081
1.903076
1.903071
1.903066
1.903061
1.903056
1.903051
1.903046
1.903040
1.903035
1.903030
1.903025
1.903020
1.903015
1.903010
1.903005
1.902999
1.902994
1.902989
1.902984
1.902979
1.902974
1.902969
1.902963
1.902958
1.902953
1.902948
1.902943
1.902938
1.902932
1.902927
1.902922
1.902917
1.902912
1.902906
1.902901
1.902896
1.902891
1.902886
1.902880
1.902875
1.902870
1.902865
1.902860
1.902854
1.902849
1.902844
1.902839
1.902833
1.902828
1.902823
1.902818
1.902812
1.902807
1.902802
1.902797
1.902791
1.902786
1.902781
1.902776
1.902770
1.902765
1.902760
1.902755
1.902749
1.902744
1.902739
1.902733
1.902728
1.902723
1.902717
1.902712
1.902707
1.902702
1.902696
1.902691
1.902686
1.902680
1.902675
1.902670
1.902664
1.902659
1.902654
1.902648
1.902643
1.902638
1.902632
1.902627
1.902621
1.902616
1.902611
1.902605
1.902600
1.902595
1.902589
1.902584
1.902578
1.902573
1.902568
1.902562
1.902557
1.902552
1.902546
1.902541
1.902535
1.902530
1.902525
1.902519
1.902514
1.902508
1.902503
1.902497
1.902492
1.902487
1.902481
1.902476
1.902470
1.902465
1.902459
1.902454
1.902449
1.902443
1.902438
1.902432
1.902427
1.902421
1.902416
1.902410
1.902405
1.902399
1.902394
1.902388
1.902383
1.902377
1.902372
1.902366
1.902361
1.902356
1.902350
1.902345
1.902339
1.902334
1.902328
1.902323
1.902317
1.902312
1.902306
1.902300
1.902295
1.902289
1.902284
1.902278
1.902273
1.902267
1.902262
1.902256
1.902251
1.902245
1.902240
1.902234
1.902229
1.902223
1.902217
1.902212
1.902206
1.902201
1.902195
1.902190
1.902184
1.902179
1.902173
1.902167
1.902162
1.902156
1.902151
1.902145
1.902140
1.902134
1.902128
1.902123
1.902117
1.902112
1.902106
1.902100
1.902095
1.902089
1.902084
1.902078
1.902072
1.902067
1.902061
1.902055
1.902050
1.902044
1.902039
1.902033
1.902027
1.902022
1.902016
1.902010
1.902005
1.901999
1.901994
1.901988
1.901982
1.901977
1.901971
1.901965
1.901960
1.901954
1.901948
1.901943
1.901937
1.901931
1.901926
1.901920
1.901914
1.901909
1.901903
1.901897
1.901892
1.901886
1.901880
1.901875
1.901869
1.901863
1.901858
1.901852
1.901846
1.901841
1.901835
1.901829
1.901823
1.901818
1.901812
1.901806
1.901801
1.901795
1.901789
1.901783
1.901778
1.901772
1.901766
1.901761
1.901755
1.901749
1.901743
1.901738
1.901732
1.901726
1.901720
1.901715
1.901709
1.901703
1.901698
1.901692
1.901686
1.901680
1.901675
1.901669
1.901663
1.901657
1.901652
1.901646
1.901640
1.901634
1.901629
1.901623
1.901617
1.901611
1.901605
1.901600
1.901594
1.901588
1.901582
1.901577
1.901571
1.901565
1.901559
1.901553
1.901548
1.901542
1.901536
1.901530
1.901525
1.901519
1.901513
1.901507
1.901501
1.901496
1.901490
1.901484
1.901478
1.901472
1.901467
1.901461
1.901455
1.901449
1.901443
1.901437
1.901432
1.901426
1.901420
1.901414
1.901408
1.901403
1.901397
1.901391
1.901391
1.901385
1.901379
1.901373
1.901368
1.901362
1.901356
1.901350
1.901344
1.901338
1.901333
1.901327
1.901321
1.901315
1.901309
1.901303
1.901297
1.901292
1.901286
1.901280
1.901274
1.901268
1.901262
1.901256
1.901251
1.901245
1.901239
1.901233
1.901227
1.901221
1.901215
1.901210
1.901204
1.901198
1.901192
1.901186
1.901180
1.901174
1.901168
1.901163
1.901157
1.901151
1.901145
1.901139
1.901133
1.901127
1.901121
1.901115
1.901110
1.901104
1.901098
1.901092
1.901086
1.901080
1.901074
1.901068
1.901062
1.901057
1.901051
1.901045
1.901039
1.901033
1.901027
1.901021
1.901015
1.901009
1.901003
1.900997
1.900992
1.900986
1.900980
1.900974
1.900968
1.900962
1.900956
1.900950
1.900944
1.900938
1.900932
1.900926
1.900920
1.900915
1.900909
1.900903
1.900897
1.900891
1.900885
1.900879
1.900873
1.900867
1.900861
1.900855
1.900849
1.900843
1.900837
1.900831
1.900825
1.900820
1.900814
1.900808
1.900802
1.900796
1.900790
1.900784
1.900778
1.900772
1.900766
1.900760
1.900754
1.900748
1.900742
1.900736
1.900730
1.900724
1.900718
1.900712
1.900706
1.900700
1.900695
1.900689
1.900683
1.900677
1.900671
1.900665
1.900659
1.900653
1.900647
1.900641
1.900635
1.900629
1.900623
1.900617
1.900611
1.900605
1.900599
1.900593
1.900587
1.900581
1.900575
1.900569
1.900563
1.900557
1.900551
1.900545
1.900539
1.900533
1.900527
1.900521
1.900515
1.900509
1.900503
1.900497
1.900491
1.900485
1.900479
1.900473
1.900467
1.900461
1.900455
1.900449
1.900443
1.900437
1.900431
1.900425
1.900419
1.900413
1.900407
1.900401
1.900395
1.900389
1.900383
1.900377
1.900371
1.900365
1.900359
1.900353
1.900347
1.900341
1.900335
1.900329
1.900323
1.900317
1.900311
1.900305
1.900299
1.900293
1.900287
1.900281
1.900275
1.900269
1.900263
1.900257
1.900251
1.900245
1.900239
1.900233
1.900227
1.900221
1.900215
1.900209
1.900203
1.900197
1.900191
1.900185
1.900179
1.900173
1.900167
1.900161
1.900155
1.900149
1.900143
1.900137
1.900131
1.900125
1.900119
1.900113
1.900107
1.900101
1.900095
1.900089
1.900083
1.900077
1.900071
1.900065
1.900059
1.900053
1.900047
1.900040
1.900034
1.900028
1.900022
1.900016
1.900010
1.900004
1.899998
1.899992
1.899986
1.899980
1.899974
1.899968
1.899962
1.899956
1.899950
1.899944
1.899938
1.899932
1.899926
1.899920
1.899914
1.899908
1.899902
1.899896
1.899890
1.899884
1.899878
1.899872
1.899866
1.899859
1.899853
1.899847
1.899841
1.899835
1.899829
1.899823
1.899817
1.899811
1.899805
1.899799
1.899793
1.899787
1.899781
1.899775
1.899769
1.899763
1.899757
1.899751
1.899745
1.899739
1.899733
1.899727
1.899721
1.899714
1.899708
1.899702
1.899696
1.899690
1.899684
1.899678
1.899672
1.899666
1.899660
1.899654
1.899648
1.899642
1.899636
1.899630
1.899624
1.899618
1.899612
1.899606
1.899600
1.899594
1.899588
1.899582
1.899575
1.899569
1.899563
1.899557
1.899551
1.899545
1.899539
1.899533
1.899527
1.899521
1.899515
1.899509
1.899503
1.899497
1.899491
1.899485
1.899479
1.899473
1.899467
1.899461
1.899455
1.899449
1.899442
1.899436
1.899430
1.899424
1.899418
1.899412
1.899406
1.899400
1.899394
1.899388
1.899382
1.899376
1.899370
1.899364
1.899358
1.899352
1.899346
1.899340
1.899334
1.899328
1.899322
1.899316
1.899309
1.899303
1.899297
1.899291
1.899285
1.899279
1.899273
1.899267
1.899261
1.899255
1.899249
1.899243
1.899237
1.899231
1.899225
1.899219
1.899213
1.899207
1.899201
1.899195
1.899189
1.899183
1.899177
1.899170
1.899164
1.899158
1.899152
1.899146
1.899140
1.899134
1.899128
1.899122
1.899116
1.899110
1.899104
1.899098
1.899092
1.899086
1.899080
1.899074
1.899068
1.899062
1.899056
1.899050
1.899044
1.899038
1.899032
1.899025
1.899019
1.899013
1.899007
1.899001
1.898995
1.898989
1.898983
1.898977
1.898971
1.898965
1.898959
1.898953
1.898947
1.898941
1.898935
1.898929
1.898923
1.898917
1.898911
1.898905
1.898899
1.898893
1.898887
1.898881
1.898875
1.898869
1.898863
1.898857
1.898851
1.898844
1.898838
1.898832
1.898826
1.898820
1.898814
1.898808
1.898802
1.898796
1.898790
1.898784
1.898778
1.898772
1.898766
1.898760
1.898754
1.898748
1.898742
1.898736
1.898730
1.898724
1.898718
1.898712
1.898706
1.898700
1.898694
1.898688
1.898682
1.898676
1.898670
1.898664
1.898658
1.898652
1.898646
1.898640
1.898634
1.898628
1.898622
1.898616
1.898610
1.898604
1.898598
1.898592
1.898586
1.898580
1.898574
1.898567
1.898561
1.898555
1.898549
1.898543
1.898537
1.898531
1.898525
1.898519
1.898513
1.898507
1.898501
1.898495
1.898489
1.898483
1.898477
1.898471
1.898465
1.898459
1.898453
1.898447
1.898441
1.898435
1.898429
1.898423
1.898417
1.898411
1.898405
1.898399
1.898399
1.898393
1.898387
1.898381
1.898375
1.898369
1.898363
1.898357
1.898351
1.898345
1.898339
1.898333
1.898327
1.898321
1.898315
1.898309
1.898303
1.898297
1.898291
1.898285
1.898279
1.898273
1.898267
1.898261
1.898256
1.898250
1.898244
1.898238
1.898232
1.898226
1.898220
1.898214
1.898208
1.898202
1.898196
1.898190
1.898184
1.898178
1.898172
1.898166
1.898160
1.898154
1.898148
1.898142
1.898136
1.898130
1.898124
1.898118
1.898112
1.898106
1.898100
1.898094
1.898088
1.898082
1.898076
1.898070
1.898064
1.898058
1.898052
1.898046
1.898040
1.898034
1.898028
1.898022
1.898017
1.898011
1.898005
1.897999
1.897993
1.897987
1.897981
1.897975
1.897969
1.897963
1.897957
1.897951
1.897945
1.897939
1.897933
1.897927
1.897921
1.897915
1.897909
1.897903
1.897897
1.897891
1.897886
1.897880
1.897874
1.897868
1.897862
1.897856
1.897850
1.897844
1.897838
1.897832
1.897826
1.897820
1.897814
1.897808
1.897802
1.897796
1.897790
1.897785
1.897779
1.897773
1.897767
1.897761
1.897755
1.897749
1.897743
1.897737
1.897731
1.897725
1.897719
1.897713
1.897707
1.897702
1.897696
1.897690
1.897684
1.897678
1.897672
1.897666
1.897660
1.897654
1.897648
1.897642
1.897636
1.897630
1.897625
1.897619
1.897613
1.897607
1.897601
1.897595
1.897589
1.897583
1.897577
1.897571
1.897565
1.897560
1.897554
1.897548
1.897542
1.897536
1.897530
1.897524
1.897518
1.897512
1.897506
1.897501
1.897495
1.897489
1.897483
1.897477
1.897471
1.897465
1.897459
1.897453
1.897448
1.897442
1.897436
1.897430
1.897424
1.897418
1.897412
1.897406
1.897400
1.897395
1.897389
1.897383
1.897377
1.897371
1.897365
1.897359
1.897353
1.897348
1.897342
1.897336
1.897330
1.897324
1.897318
1.897312
1.897306
1.897301
1.897295
1.897289
1.897283
1.897277
1.897271
1.897265
1.897259
1.897254
1.897248
1.897242
1.897236
1.897230
1.897224
1.897218
1.897213
1.897207
1.897201
1.897195
1.897189
1.897183
1.897177
1.897172
1.897166
1.897160
1.897154
1.897148
1.897142
1.897137
1.897131
1.897125
1.897119
1.897113
1.897107
1.897102
1.897096
1.897090
1.897084
1.897078
1.897072
1.897066
1.897061
1.897055
1.897049
1.897043
1.897037
1.897032
1.897026
1.897020
1.897014
1.897008
1.897002
1.896997
1.896991
1.896985
1.896979
1.896973
1.896967
1.896962
1.896956
1.896950
1.896944
1.896938
1.896933
1.896927
1.896921
1.896915
1.896909
1.896904
1.896898
1.896892
1.896886
1.896880
1.896875
1.896869
1.896863
1.896857
1.896851
1.896846
1.896840
1.896834
1.896828
1.896822
1.896817
1.896811
1.896805
1.896799
1.896793
1.896788
1.896782
1.896776
1.896770
1.896764
1.896759
1.896753
1.896747
1.896741
1.896736
1.896730
1.896724
1.896718
1.896712
1.896707
1.896701
1.896695
1.896689
1.896684
1.896678
1.896672
1.896666
1.896661
1.896655
1.896649
1.896643
1.896638
1.896632
1.896626
1.896620
1.896614
1.896609
1.896603
1.896597
1.896591
1.896586
1.896580
1.896574
1.896568
1.896563
1.896557
1.896551
1.896545
1.896540
1.896534
1.896528
1.896523
1.896517
1.896511
1.896505
1.896500
1.896494
1.896488
1.896482
1.896477
1.896471
1.896465
1.896459
1.896454
1.896448
1.896442
1.896437
1.896431
1.896425
1.896419
1.896414
1.896408
1.896402
1.896397
1.896391
1.896385
1.896379
1.896374
1.896368
1.896362
1.896357
1.896351
1.896345
1.896339
1.896334
1.896328
1.896322
1.896317
1.896311
1.896305
1.896300
1.896294
1.896288
1.896282
1.896277
1.896271
1.896265
1.896260
1.896254
1.896248
1.896243
1.896237
1.896231
1.896226
1.896220
1.896214
1.896208
1.896203
1.896197
1.896191
1.896186
1.896180
1.896174
1.896169
1.896163
1.896157
1.896152
1.896146
1.896140
1.896135
1.896129
1.896123
1.896118
1.896112
1.896106
1.896101
1.896095
1.896089
1.896084
1.896078
1.896072
1.896067
1.896061
1.896056
1.896050
1.896044
1.896039
1.896033
1.896027
1.896022
1.896016
1.896010
1.896005
1.895999
1.895993
1.895988
1.895982
1.895977
1.895971
1.895965
1.895960
1.895954
1.895948
1.895943
1.895937
1.895931
1.895926
1.895920
1.895915
1.895909
1.895903
1.895898
1.895892
1.895887
1.895881
1.895875
1.895870
1.895864
1.895858
1.895853
1.895847
1.895842
1.895836
1.895830
1.895825
1.895819
1.895814
1.895808
1.895802
1.895797
1.895791
1.895786
1.895780
1.895774
1.895769
1.895763
1.895758
1.895752
1.895746
1.895741
1.895735
1.895730
1.895724
1.895719
1.895713
1.895707
1.895702
1.895696
1.895691
1.895685
1.895680
1.895674
1.895668
1.895663
1.895657
1.895652
1.895646
1.895641
1.895635
1.895629
1.895624
1.895618
1.895613
1.895607
1.895602
1.895596
1.895590
1.895585
1.895579
1.895574
1.895568
1.895563
1.895557
1.895552
1.895546
1.895541
1.895535
1.895529
1.895524
1.895518
1.895513
1.895507
1.895507
1.895502
1.895496
1.895491
1.895485
1.895480
1.895474
1.895469
1.895463
1.895458
1.895452
1.895446
1.895441
1.895435
1.895430
1.895424
1.895419
1.895413
1.895408
1.895402
1.895397
1.895391
1.895386
1.895380
1.895375
1.895369
1.895364
1.895358
1.895353
1.895347
1.895342
1.895336
1.895331
1.895325
1.895320
1.895314
1.895309
1.895303
1.895298
1.895292
1.895287
1.895281
1.895276
1.895270
1.895265
1.895259
1.895254
1.895248
1.895243
1.895237
1.895232
1.895226
1.895221
1.895216
1.895210
1.895205
1.895199
1.895194
1.895188
1.895183
1.895177
1.895172
1.895166
1.895161
1.895155
1.895150
1.895144
1.895139
1.895134
1.895128
1.895123
1.895117
1.895112
1.895106
1.895101
1.895095
1.895090
1.895085
1.895079
1.895074
1.895068
1.895063
1.895057
1.895052
1.895046
1.895041
1.895036
1.895030
1.895025
1.895019
1.895014
1.895008
1.895003
1.894998
1.894992
1.894987
1.894981
1.894976
1.894970
1.894965
1.894960
1.894954
1.894949
1.894943
1.894938
1.894933
1.894927
1.894922
1.894916
1.894911
1.894906
1.894900
1.894895
1.894889
1.894884
1.894879
1.894873
1.894868
1.894862
1.894857
1.894852
1.894846
1.894841
1.894835
1.894830
1.894825
1.894819
1.894814
1.894808
1.894803
1.894798
1.894792
1.894787
1.894782
1.894776
1.894771
1.894765
1.894760
1.894755
1.894749
1.894744
1.894739
1.894733
1.894728
1.894723
1.894717
1.894712
1.894706
1.894701
1.894696
1.894690
1.894685
1.894680
1.894674
1.894669
1.894664
1.894658
1.894653
1.894648
1.894642
1.894637
1.894632
1.894626
1.894621
1.894616
1.894610
1.894605
1.894600
1.894594
1.894589
1.894584
1.894578
1.894573
1.894568
1.894562
1.894557
1.894552
1.894546
1.894541
1.894536
1.894530
1.894525
1.894520
1.894514
1.894509
1.894504
1.894498
1.894493
1.894488
1.894483
1.894477
1.894472
1.894467
1.894461
1.894456
1.894451
1.894445
1.894440
1.894435
1.894430
1.894424
1.894419
1.894414
1.894408
1.894403
1.894398
1.894393
1.894387
1.894382
1.894377
1.894371
1.894366
1.894361
1.894356
1.894350
1.894345
1.894340
1.894335
1.894329
1.894324
1.894319
1.894313
1.894308
1.894303
1.894298
1.894292
1.894287
1.894282
1.894277
1.894271
1.894266
1.894261
1.894256
1.894250
1.894245
1.894240
1.894235
1.894229
1.894224
1.894219
1.894214
1.894208
1.894203
1.894198
1.894193
1.894187
1.894182
1.894177
1.894172
1.894167
1.894161
1.894156
1.894151
1.894146
1.894140
1.894135
1.894130
1.894125
1.894119
1.894114
1.894109
1.894104
1.894099
1.894093
1.894088
1.894083
1.894078
1.894073
1.894067
1.894062
1.894057
1.894052
1.894047
1.894041
1.894036
1.894031
1.894026
1.894021
1.894015
1.894010
1.894005
1.894000
1.893995
1.893989
1.893984
1.893979
1.893974
1.893969
1.893964
1.893958
1.893953
1.893948
1.893943
1.893938
1.893932
1.893927
1.893922
1.893917
1.893912
1.893907
1.893901
1.893896
1.893891
1.893886
1.893881
1.893876
1.893870
1.893865
1.893860
1.893855
1.893850
1.893845
1.893840
1.893834
1.893829
1.893824
1.893819
1.893814
1.893809
1.893804
1.893798
1.893793
1.893788
1.893783
1.893778
1.893773
1.893768
1.893762
1.893757
1.893752
1.893747
1.893742
1.893737
1.893732
1.893727
1.893721
1.893716
1.893711
1.893706
1.893701
1.893696
1.893691
1.893686
1.893680
1.893675
1.893670
1.893665
1.893660
1.893655
1.893650
1.893645
1.893640
1.893635
1.893629
1.893624
1.893619
1.893614
1.893609
1.893604
1.893599
1.893594
1.893589
1.893584
1.893579
1.893573
1.893568
1.893563
1.893558
1.893553
1.893548
1.893543
1.893538
1.893533
1.893528
1.893523
1.893518
1.893512
1.893507
1.893502
1.893497
1.893492
1.893487
1.893482
1.893477
1.893472
1.893467
1.893462
1.893457
1.893452
1.893447
1.893442
1.893437
1.893432
1.893426
1.893421
1.893416
1.893411
1.893406
1.893401
1.893396
1.893391
1.893386
1.893381
1.893376
1.893371
1.893366
1.893361
1.893356
1.893351
1.893346
1.893341
1.893336
1.893331
1.893326
1.893321
1.893316
1.893311
1.893306
1.893301
1.893296
1.893291
1.893286
1.893281
1.893276
1.893271
1.893266
1.893261
1.893256
1.893251
1.893246
1.893241
1.893236
1.893231
1.893226
1.893221
1.893216
1.893211
1.893206
1.893201
1.893196
1.893191
1.893186
1.893181
1.893176
1.893171
1.893166
1.893161
1.893156
1.893151
1.893146
1.893141
1.893136
1.893131
1.893126
1.893121
1.893116
1.893111
1.893106
1.893101
1.893096
1.893091
1.893086
1.893081
1.893076
1.893071
1.893066
1.893061
1.893056
1.893051
1.893046
1.893041
1.893037
1.893032
1.893027
1.893022
1.893017
1.893012
1.893007
1.893002
1.892997
1.892992
1.892987
1.892982
1.892977
1.892972
1.892967
1.892962
1.892957
1.892953
1.892948
1.892943
1.892938
1.892933
1.892928
1.892923
1.892918
1.892913
1.892908
1.892903
1.892898
1.892898
1.892893
1.892889
1.892884
1.892879
1.892874
1.892869
1.892864
1.892859
1.892854
1.892849
1.892844
1.892839
1.892835
1.892830
1.892825
1.892820
1.892815
1.892810
1.892805
1.892800
1.892795
1.892791
1.892786
1.892781
1.892776
1.892771
1.892766
1.892761
1.892756
1.892751
1.892747
1.892742
1.892737
1.892732
1.892727
1.892722
1.892717
1.892712
1.892708
1.892703
1.892698
1.892693
1.892688
1.892683
1.892678
1.892674
1.892669
1.892664
1.892659
1.892654
1.892649
1.892644
1.892640
1.892635
1.892630
1.892625
1.892620
1.892615
1.892610
1.892606
1.892601
1.892596
1.892591
1.892586
1.892581
1.892577
1.892572
1.892567
1.892562
1.892557
1.892552
1.892548
1.892543
1.892538
1.892533
1.892528
1.892523
1.892519
1.892514
1.892509
1.892504
1.892499
1.892495
1.892490
1.892485
1.892480
1.892475
1.892470
1.892466
1.892461
1.892456
1.892451
1.892446
1.892442
1.892437
1.892432
1.892427
1.892422
1.892418
1.892413
1.892408
1.892403
1.892398
1.892394
1.892389
1.892384
1.892379
1.892375
1.892370
1.892365
1.892360
1.892355
1.892351
1.892346
1.892341
1.892336
1.892332
1.892327
1.892322
1.892317
1.892312
1.892308
1.892303
1.892298
1.892293
1.892289
1.892284
1.892279
1.892274
1.892270
1.892265
1.892260
1.892255
1.892251
1.892246
1.892241
1.892236
1.892232
1.892227
1.892222
1.892217
1.892213
1.892208
1.892203
1.892198
1.892194
1.892189
1.892184
1.892179
1.892175
1.892170
1.892165
1.892160
1.892156
1.892151
1.892146
1.892142
1.892137
1.892132
1.892127
1.892123
1.892118
1.892113
1.892109
1.892104
1.892099
1.892094
1.892090
1.892085
1.892080
1.892076
1.892071
1.892066
1.892061
1.892057
1.892052
1.892047
1.892043
1.892038
1.892033
1.892028
1.892024
1.892019
1.892014
1.892010
1.892005
1.892000
1.891996
1.891991
1.891986
1.891982
1.891977
1.891972
1.891968
1.891963
1.891958
1.891953
1.891949
1.891944
1.891939
1.891935
1.891930
1.891925
1.891921
1.891916
1.891911
1.891907
1.891902
1.891897
1.891893
1.891888
1.891883
1.891879
1.891874
1.891869
1.891865
1.891860
1.891855
1.891851
1.891846
1.891842
1.891837
1.891832
1.891828
1.891823
1.891818
1.891814
1.891809
1.891804
1.891800
1.891795
1.891790
1.891786
1.891781
1.891777
1.891772
1.891767
1.891763
1.891758
1.891753
1.891749
1.891744
1.891740
1.891735
1.891730
1.891726
1.891721
1.891716
1.891712
1.891707
1.891703
1.891698
1.891693
1.891689
1.891684
1.891679
1.891675
1.891670
1.891666
1.891661
1.891656
1.891652
1.891647
1.891643
1.891638
1.891633
1.891629
1.891624
1.891620
1.891615
1.891610
1.891606
1.891601
1.891597
1.891592
1.891588
1.891583
1.891578
1.891574
1.891569
1.891565
1.891560
1.891555
1.891551
1.891546
1.891542
1.891537
1.891533
1.891528
1.891523
1.891519
1.891514
1.891510
1.891505
1.891501
1.891496
1.891491
1.891487
1.891482
1.891478
1.891473
1.891469
1.891464
1.891460
1.891455
1.891450
1.891446
1.891441
1.891437
1.891432
1.891428
1.891423
1.891419
1.891414
1.891410
1.891405
1.891400
1.891396
1.891391
1.891387
1.891382
1.891378
1.891373
1.891369
1.891364
1.891360
1.891355
1.891351
1.891346
1.891342
1.891337
1.891332
1.891328
1.891323
1.891319
1.891314
1.891310
1.891305
1.891301
1.891296
1.891292
1.891287
1.891283
1.891278
1.891274
1.891269
1.891265
1.891260
1.891256
1.891251
1.891247
1.891242
1.891238
1.891233
1.891229
1.891224
1.891220
1.891215
1.891211
1.891206
1.891202
1.891197
1.891193
1.891188
1.891184
1.891179
1.891175
1.891170
1.891166
1.891161
1.891157
1.891152
1.891148
1.891143
1.891139
1.891135
1.891130
1.891126
1.891121
1.891117
1.891112
1.891108
1.891103
1.891099
1.891094
1.891090
1.891085
1.891081
1.891076
1.891072
1.891068
1.891063
1.891059
1.891054
1.891050
1.891045
1.891041
1.891036
1.891032
1.891027
1.891023
1.891019
1.891014
1.891010
1.891005
1.891001
1.890996
1.890992
1.890987
1.890983
1.890979
1.890974
1.890970
1.890965
1.890961
1.890956
1.890952
1.890948
1.890943
1.890939
1.890934
1.890930
1.890925
1.890921
1.890917
1.890912
1.890908
1.890903
1.890899
1.890895
1.890890
1.890886
1.890881
1.890877
1.890872
1.890868
1.890864
1.890859
1.890855
1.890850
1.890846
1.890842
1.890837
1.890833
1.890828
1.890824
1.890820
1.890815
1.890811
1.890806
1.890802
1.890798
1.890793
1.890789
1.890785
1.890780
1.890776
1.890771
1.890767
1.890763
1.890758
1.890754
1.890749
1.890745
1.890741
1.890736
1.890732
1.890728
1.890723
1.890719
1.890714
1.890710
1.890706
1.890701
1.890697
1.890693
1.890688
1.890684
1.890679
1.890675
1.890671
1.890666
1.890662
1.890658
1.890653
1.890649
1.890645
1.890640
1.890636
1.890632
1.890627
1.890623
1.890619
1.890614
1.890610
1.890605
1.890601
1.890597
1.890592
1.890592
1.890588
1.890584
1.890579
1.890575
1.890571
1.890566
1.890562
1.890558
1.890553
1.890549
1.890545
1.890540
1.890536
1.890532
1.890527
1.890523
1.890519
1.890514
1.890510
1.890506
1.890502
1.890497
1.890493
1.890489
1.890484
1.890480
1.890476
1.890471
1.890467
1.890463
1.890458
1.890454
1.890450
1.890445
1.890441
1.890437
1.890433
1.890428
1.890424
1.890420
1.890415
1.890411
1.890407
1.890402
1.890398
1.890394
1.890390
1.890385
1.890381
1.890377
1.890372
1.890368
1.890364
1.890360
1.890355
1.890351
1.890347
1.890342
1.890338
1.890334
1.890330
1.890325
1.890321
1.890317
1.890312
1.890308
1.890304
1.890300
1.890295
1.890291
1.890287
1.890283
1.890278
1.890274
1.890270
1.890266
1.890261
1.890257
1.890253
1.890248
1.890244
1.890240
1.890236
1.890231
1.890227
1.890223
1.890219
1.890214
1.890210
1.890206
1.890202
1.890197
1.890193
1.890189
1.890185
1.890180
1.890176
1.890172
1.890168
1.890164
1.890159
1.890155
1.890151
1.890147
1.890142
1.890138
1.890134
1.890130
1.890125
1.890121
1.890117
1.890113
1.890109
1.890104
1.890100
1.890096
1.890092
1.890087
1.890083
1.890079
1.890075
1.890071
1.890066
1.890062
1.890058
1.890054
1.890049
1.890045
1.890041
1.890037
1.890033
1.890028
1.890024
1.890020
1.890016
1.890012
1.890007
1.890003
1.889999
1.889995
1.889991
1.889986
1.889982
1.889978
1.889974
1.889970
1.889965
1.889961
1.889957
1.889953
1.889949
1.889944
1.889940
1.889936
1.889932
1.889928
1.889924
1.889919
1.889915
1.889911
1.889907
1.889903
1.889898
1.889894
1.889890
1.889886
1.889882
1.889878
1.889873
1.889869
1.889865
1.889861
1.889857
1.889853
1.889848
1.889844
1.889840
1.889836
1.889832
1.889828
1.889823
1.889819
1.889815
1.889811
1.889807
1.889803
1.889799
1.889794
1.889790
1.889786
1.889782
1.889778
1.889774
1.889769
1.889765
1.889761
1.889757
1.889753
1.889749
1.889745
1.889740
1.889736
1.889732
1.889728
1.889724
1.889720
1.889716
1.889712
1.889707
1.889703
1.889699
1.889695
1.889691
1.889687
1.889683
1.889679
1.889674
1.889670
1.889666
1.889662
1.889658
1.889654
1.889650
1.889646
1.889641
1.889637
1.889633
1.889629
1.889625
1.889621
1.889617
1.889613
1.889609
1.889604
1.889600
1.889596
1.889592
1.889588
1.889584
1.889580
1.889576
1.889572
1.889567
1.889563
1.889559
1.889555
1.889551
1.889547
1.889543
1.889539
1.889535
1.889531
1.889527
1.889522
1.889518
1.889514
1.889510
1.889506
1.889502
1.889498
1.889494
1.889490
1.889486
1.889482
1.889478
1.889473
1.889469
1.889465
1.889461
1.889457
1.889453
1.889449
1.889445
1.889441
1.889437
1.889433
1.889429
1.889425
1.889421
1.889416
1.889412
1.889408
1.889404
1.889400
1.889396
1.889392
1.889388
1.889384
1.889380
1.889376
1.889372
1.889368
1.889364
1.889360
1.889356
1.889352
1.889347
1.889343
1.889339
1.889335
1.889331
1.889327
1.889323
1.889319
1.889315
1.889311
1.889307
1.889303
1.889299
1.889295
1.889291
1.889287
1.889283
1.889279
1.889275
1.889271
1.889267
1.889263
1.889259
1.889255
1.889251
1.889247
1.889242
1.889238
1.889234
1.889230
1.889226
1.889222
1.889218
1.889214
1.889210
1.889206
1.889202
1.889198
1.889194
1.889190
1.889186
1.889182
1.889178
1.889174
1.889170
1.889166
1.889162
1.889158
1.889154
1.889150
1.889146
1.889142
1.889138
1.889134
1.889130
1.889126
1.889122
1.889118
1.889114
1.889110
1.889106
1.889102
1.889098
1.889094
1.889090
1.889086
1.889082
1.889078
1.889074
1.889070
1.889066
1.889062
1.889058
1.889054
1.889050
1.889046
1.889042
1.889038
1.889034
1.889030
1.889026
1.889022
1.889018
1.889014
1.889010
1.889006
1.889003
1.888999
1.888995
1.888991
1.888987
1.888983
1.888979
1.888975
1.888971
1.888967
1.888963
1.888959
1.888955
1.888951
1.888947
1.888943
1.888939
1.888935
1.888931
1.888927
1.888923
1.888919
1.888915
1.888911
1.888907
1.888903
1.888900
1.888896
1.888892
1.888888
1.888884
1.888880
1.888876
1.888872
1.888868
1.888864
1.888860
1.888856
1.888852
1.888848
1.888844
1.888840
1.888836
1.888832
1.888829
1.888825
1.888821
1.888817
1.888813
1.888809
1.888805
1.888801
1.888797
1.888793
1.888789
1.888785
1.888781
1.888777
1.888774
1.888770
1.888766
1.888762
1.888758
1.888754
1.888750
1.888746
1.888742
1.888738
1.888734
1.888730
1.888727
1.888723
1.888719
1.888715
1.888711
1.888707
1.888703
1.888699
1.888695
1.888691
1.888687
1.888684
1.888680
1.888676
1.888672
1.888668
1.888664
1.888660
1.888656
1.888652
1.888648
1.888645
1.888641
1.888637
1.888633
1.888629
1.888625
1.888621
1.888617
1.888613
1.888610
1.888606
1.888602
1.888598
1.888594
1.888590
1.888586
1.888582
1.888578
1.888575
1.888571
1.888567
1.888563
1.888559
1.888555
1.888551
1.888547
1.888547
1.888544
1.888540
1.888536
1.888532
1.888528
1.888524
1.888520
1.888516
1.888513
1.888509
1.888505
1.888501
1.888497
1.888493
1.888489
1.888486
1.888482
1.888478
1.888474
1.888470
1.888466
1.888462
1.888459
1.888455
1.888451
1.888447
1.888443
1.888439
1.888435
1.888432
1.888428
1.888424
1.888420
1.888416
1.888412
1.888408
1.888405
1.888401
1.888397
1.888393
1.888389
1.888385
1.888382
1.888378
1.888374
1.888370
1.888366
1.888362
1.888359
1.888355
1.888351
1.888347
1.888343
1.888339
1.888336
1.888332
1.888328
1.888324
1.888320
1.888316
1.888313
1.888309
1.888305
1.888301
1.888297
1.888293
1.888290
1.888286
1.888282
1.888278
1.888274
1.888270
1.888267
1.888263
1.888259
1.888255
1.888251
1.888248
1.888244
1.888240
1.888236
1.888232
1.888229
1.888225
1.888221
1.888217
1.888213
1.888210
1.888206
1.888202
1.888198
1.888194
1.888191
1.888187
1.888183
1.888179
1.888175
1.888172
1.888168
1.888164
1.888160
1.888156
1.888153
1.888149
1.888145
1.888141
1.888137
1.888134
1.888130
1.888126
1.888122
1.888118
1.888115
1.888111
1.888107
1.888103
1.888100
1.888096
1.888092
1.888088
1.888084
1.888081
1.888077
1.888073
1.888069
1.888065
1.888062
1.888058
1.888054
1.888050
1.888047
1.888043
1.888039
1.888035
1.888032
1.888028
1.888024
1.888020
1.888016
1.888013
1.888009
1.888005
1.888001
1.887998
1.887994
1.887990
1.887986
1.887983
1.887979
1.887975
1.887971
1.887968
1.887964
1.887960
1.887956
1.887953
1.887949
1.887945
1.887941
1.887938
1.887934
1.887930
1.887926
1.887923
1.887919
1.887915
1.887911
1.887908
1.887904
1.887900
1.887896
1.887893
1.887889
1.887885
1.887881
1.887878
1.887874
1.887870
1.887866
1.887863
1.887859
1.887855
1.887851
1.887848
1.887844
1.887840
1.887837
1.887833
1.887829
1.887825
1.887822
1.887818
1.887814
1.887810
1.887807
1.887803
1.887799
1.887796
1.887792
1.887788
1.887784
1.887781
1.887777
1.887773
1.887770
1.887766
1.887762
1.887758
1.887755
1.887751
1.887747
1.887744
1.887740
1.887736
1.887732
1.887729
1.887725
1.887721
1.887718
1.887714
1.887710
1.887706
1.887703
1.887699
1.887695
1.887692
1.887688
1.887684
1.887681
1.887677
1.887673
1.887669
1.887666
1.887662
1.887658
1.887655
1.887651
1.887647
1.887644
1.887640
1.887636
1.887632
1.887629
1.887625
1.887621
1.887618
1.887614
1.887610
1.887607
1.887603
1.887599
1.887596
1.887592
1.887588
1.887585
1.887581
1.887577
1.887574
1.887570
1.887566
1.887562
1.887559
1.887555
1.887551
1.887548
1.887544
1.887540
1.887537
1.887533
1.887529
1.887526
1.887522
1.887518
1.887515
1.887511
1.887507
1.887504
1.887500
1.887496
1.887493
1.887489
1.887485
1.887482
1.887478
1.887474
1.887471
1.887467
1.887463
1.887460
1.887456
1.887452
1.887449
1.887445
1.887442
1.887438
1.887434
1.887431
1.887427
1.887423
1.887420
1.887416
1.887412
1.887409
1.887405
1.887401
1.887398
1.887394
1.887390
1.887387
1.887383
1.887379
1.887376
1.887372
1.887369
1.887365
1.887361
1.887358
1.887354
1.887350
1.887347
1.887343
1.887339
1.887336
1.887332
1.887329
1.887325
1.887321
1.887318
1.887314
1.887310
1.887307
1.887303
1.887300
1.887296
1.887292
1.887289
1.887285
1.887281
1.887278
1.887274
1.887270
1.887267
1.887263
1.887260
1.887256
1.887252
1.887249
1.887245
1.887242
1.887238
1.887234
1.887231
1.887227
1.887223
1.887220
1.887216
1.887213
1.887209
1.887205
1.887202
1.887198
1.887195
1.887191
1.887187
1.887184
1.887180
1.887177
1.887173
1.887169
1.887166
1.887162
1.887159
1.887155
1.887151
1.887148
1.887144
1.887140
1.887137
1.887133
1.887130
1.887126
1.887123
1.887119
1.887115
1.887112
1.887108
1.887105
1.887101
1.887097
1.887094
1.887090
1.887087
1.887083
1.887079
1.887076
1.887072
1.887069
1.887065
1.887061
1.887058
1.887054
1.887051
1.887047
1.887044
1.887040
1.887036
1.887033
1.887029
1.887026
1.887022
1.887018
1.887015
1.887011
1.887008
1.887004
1.887001
1.886997
1.886993
1.886990
1.886986
1.886983
1.886979
1.886976
1.886972
1.886968
1.886965
1.886961
1.886958
1.886954
1.886951
1.886947
1.886944
1.886940
1.886936
1.886933
1.886929
1.886926
1.886922
1.886919
1.886915
1.886911
1.886908
1.886904
1.886901
1.886897
1.886894
1.886890
1.886887
1.886883
1.886879
1.886876
1.886872
1.886869
1.886865
1.886862
1.886858
1.886855
1.886851
1.886848
1.886844
1.886840
1.886837
1.886833
1.886830
1.886826
1.886823
1.886819
1.886816
1.886812
1.886809
1.886805
1.886801
1.886798
1.886794
1.886791
1.886787
1.886784
1.886780
1.886777
1.886773
1.886770
1.886766
1.886763
1.886759
1.886755
1.886752
1.886748
1.886745
1.886741
1.886738
1.886734
1.886731
1.886727
1.886724
1.886720
1.886717
1.886713
1.886710
1.886706
1.886706
1.886703
1.886699
1.886696
1.886692
1.886688
1.886685
1.886681
1.886678
1.886674
1.886671
1.886667
1.886664
1.886660
1.886657
1.886653
1.886650
1.886646
1.886643
1.886639
1.886636
1.886632
1.886629
1.886625
1.886622
1.886618
1.886615
1.886611
1.886608
1.886604
1.886601
1.886597
1.886594
1.886590
1.886587
1.886583
1.886580
1.886576
1.886573
1.886569
1.886566
1.886562
1.886559
1.886555
1.886552
1.886548
1.886545
1.886541
1.886538
1.886534
1.886531
1.886527
1.886524
1.886520
1.886517
1.886513
1.886510
1.886506
1.886503
1.886499
1.886496
1.886492
1.886489
1.886485
1.886482
1.886478
1.886475
1.886471
1.886468
1.886464
1.886461
1.886457
1.886454
1.886450
1.886447
1.886444
1.886440
1.886437
1.886433
1.886430
1.886426
1.886423
1.886419
1.886416
1.886412
1.886409
1.886405
1.886402
1.886398
1.886395
1.886391
1.886388
1.886384
1.886381
1.886377
1.886374
1.886371
1.886367
1.886364
1.886360
1.886357
1.886353
1.886350
1.886346
1.886343
1.886339
1.886336
1.886332
1.886329
1.886326
1.886322
1.886319
1.886315
1.886312
1.886308
1.886305
1.886301
1.886298
1.886294
1.886291
1.886288
1.886284
1.886281
1.886277
1.886274
1.886270
1.886267
1.886263
1.886260
1.886256
1.886253
1.886250
1.886246
1.886243
1.886239
1.886236
1.886232
1.886229
1.886225
1.886222
1.886219
1.886215
1.886212
1.886208
1.886205
1.886201
1.886198
1.886194
1.886191
1.886188
1.886184
1.886181
1.886177
1.886174
1.886170
1.886167
1.886164
1.886160
1.886157
1.886153
1.886150
1.886146
1.886143
1.886139
1.886136
1.886133
1.886129
1.886126
1.886122
1.886119
1.886115
1.886112
1.886109
1.886105
1.886102
1.886098
1.886095
1.886091
1.886088
1.886085
1.886081
1.886078
1.886074
1.886071
1.886068
1.886064
1.886061
1.886057
1.886054
1.886050
1.886047
1.886044
1.886040
1.886037
1.886033
1.886030
1.886027
1.886023
1.886020
1.886016
1.886013
1.886009
1.886006
1.886003
1.885999
1.885996
1.885992
1.885989
1.885986
1.885982
1.885979
1.885975
1.885972
1.885969
1.885965
1.885962
1.885958
1.885955
1.885952
1.885948
1.885945
1.885941
1.885938
1.885935
1.885931
1.885928
1.885924
1.885921
1.885918
1.885914
1.885911
1.885907
1.885904
1.885901
1.885897
1.885894
1.885890
1.885887
1.885884
1.885880
1.885877
1.885873
1.885870
1.885867
1.885863
1.885860
1.885857
1.885853
1.885850
1.885846
1.885843
1.885840
1.885836
1.885833
1.885829
1.885826
1.885823
1.885819
1.885816
1.885813
1.885809
1.885806
1.885802
1.885799
1.885796
1.885792
1.885789
1.885785
1.885782
1.885779
1.885775
1.885772
1.885769
1.885765
1.885762
1.885758
1.885755
1.885752
1.885748
1.885745
1.885742
1.885738
1.885735
1.885732
1.885728
1.885725
1.885721
1.885718
1.885715
1.885711
1.885708
1.885705
1.885701
1.885698
1.885694
1.885691
1.885688
1.885684
1.885681
1.885678
1.885674
1.885671
1.885668
1.885664
1.885661
1.885658
1.885654
1.885651
1.885647
1.885644
1.885641
1.885637
1.885634
1.885631
1.885627
1.885624
1.885621
1.885617
1.885614
1.885611
1.885607
1.885604
1.885601
1.885597
1.885594
1.885590
1.885587
1.885584
1.885580
1.885577
1.885574
1.885570
1.885567
1.885564
1.885560
1.885557
1.885554
1.885550
1.885547
1.885544
1.885540
1.885537
1.885534
1.885530
1.885527
1.885524
1.885520
1.885517
1.885514
1.885510
1.885507
1.885504
1.885500
1.885497
1.885494
1.885490
1.885487
1.885484
1.885480
1.885477
1.885474
1.885470
1.885467
1.885464
1.885460
1.885457
1.885454
1.885450
1.885447
1.885444
1.885440
1.885437
1.885434
1.885430
1.885427
1.885424
1.885420
1.885417
1.885414
1.885410
1.885407
1.885404
1.885400
1.885397
1.885394
1.885390
1.885387
1.885384
1.885380
1.885377
1.885374
1.885370
1.885367
1.885364
1.885360
1.885357
1.885354
1.885351
1.885347
1.885344
1.885341
1.885337
1.885334
1.885331
1.885327
1.885324
1.885321
1.885317
1.885314
1.885311
1.885307
1.885304
1.885301
1.885298
1.885294
1.885291
1.885288
1.885284
1.885281
1.885278
1.885274
1.885271
1.885268
1.885264
1.885261
1.885258
1.885255
1.885251
1.885248
1.885245
1.885241
1.885238
1.885235
1.885231
1.885228
1.885225
1.885222
1.885218
1.885215
1.885212
1.885208
1.885205
1.885202
1.885199
1.885195
1.885192
1.885189
1.885185
1.885182
1.885179
1.885175
1.885172
1.885169
1.885166
1.885162
1.885159
1.885156
1.885152
1.885149
1.885146
1.885143
1.885139
1.885136
1.885133
1.885129
1.885126
1.885123
1.885120
1.885116
1.885113
1.885110
1.885106
1.885103
1.885100
1.885097
1.885093
1.885090
1.885087
1.885083
1.885080
1.885077
1.885074
1.885070
1.885067
1.885064
1.885061
1.885057
1.885054
1.885051
1.885047
1.885044
1.885041
1.885038
1.885034
1.885031
1.885028
1.885024
1.885021
1.885018
1.885015
1.885015
1.885011
1.885008
1.885005
1.885002
1.884998
1.884995
1.884992
1.884989
1.884985
1.884982
1.884979
1.884975
1.884972
1.884969
1.884966
1.884962
1.884959
1.884956
1.884953
1.884949
1.884946
1.884943
1.884940
1.884936
1.884933
1.884930
1.884926
1.884923
1.884920
1.884917
1.884913
1.884910
1.884907
1.884904
1.884900
1.884897
1.884894
1.884891
1.884887
1.884884
1.884881
1.884878
1.884874
1.884871
1.884868
1.884865
1.884861
1.884858
1.884855
1.884852
1.884848
1.884845
1.884842
1.884839
1.884835
1.884832
1.884829
1.884826
1.884822
1.884819
1.884816
1.884813
1.884809
1.884806
1.884803
1.884800
1.884796
1.884793
1.884790
1.884787
1.884783
1.884780
1.884777
1.884774
1.884770
1.884767
1.884764
1.884761
1.884758
1.884754
1.884751
1.884748
1.884745
1.884741
1.884738
1.884735
1.884732
1.884728
1.884725
1.884722
1.884719
1.884715
1.884712
1.884709
1.884706
1.884703
1.884699
1.884696
1.884693
1.884690
1.884686
1.884683
1.884680
1.884677
1.884673
1.884670
1.884667
1.884664
1.884661
1.884657
1.884654
1.884651
1.884648
1.884644
1.884641
1.884638
1.884635
1.884632
1.884628
1.884625
1.884622
1.884619
1.884615
1.884612
1.884609
1.884606
1.884603
1.884599
1.884596
1.884593
1.884590
1.884586
1.884583
1.884580
1.884577
1.884574
1.884570
1.884567
1.884564
1.884561
1.884557
1.884554
1.884551
1.884548
1.884545
1.884541
1.884538
1.884535
1.884532
1.884529
1.884525
1.884522
1.884519
1.884516
1.884512
1.884509
1.884506
1.884503
1.884500
1.884496
1.884493
1.884490
1.884487
1.884484
1.884480
1.884477
1.884474
1.884471
1.884468
1.884464
1.884461
1.884458
1.884455
1.884452
1.884448
1.884445
1.884442
1.884439
1.884436
1.884432
1.884429
1.884426
1.884423
1.884420
1.884416
1.884413
1.884410
1.884407
1.884404
1.884400
1.884397
1.884394
1.884391
1.884388
1.884384
1.884381
1.884378
1.884375
1.884372
1.884368
1.884365
1.884362
1.884359
1.884356
1.884352
1.884349
1.884346
1.884343
1.884340
1.884336
1.884333
1.884330
1.884327
1.884324
1.884321
1.884317
1.884314
1.884311
1.884308
1.884305
1.884301
1.884298
1.884295
1.884292
1.884289
1.884285
1.884282
1.884279
1.884276
1.884273
1.884270
1.884266
1.884263
1.884260
1.884257
1.884254
1.884250
1.884247
1.884244
1.884241
1.884238
1.884235
1.884231
1.884228
1.884225
1.884222
1.884219
1.884216
1.884212
1.884209
1.884206
1.884203
1.884200
1.884196
1.884193
1.884190
1.884187
1.884184
1.884181
1.884177
1.884174
1.884171
1.884168
1.884165
1.884162
1.884158
1.884155
1.884152
1.884149
1.884146
1.884143
1.884139
1.884136
1.884133
1.884130
1.884127
1.884124
1.884120
1.884117
1.884114
1.884111
1.884108
1.884105
1.884101
1.884098
1.884095
1.884092
1.884089
1.884086
1.884082
1.884079
1.884076
1.884073
1.884070
1.884067
1.884063
1.884060
1.884057
1.884054
1.884051
1.884048
1.884044
1.884041
1.884038
1.884035
1.884032
1.884029
1.884026
1.884022
1.884019
1.884016
1.884013
1.884010
1.884007
1.884003
1.884000
1.883997
1.883994
1.883991
1.883988
1.883985
1.883981
1.883978
1.883975
1.883972
1.883969
1.883966
1.883962
1.883959
1.883956
1.883953
1.883950
1.883947
1.883944
1.883940
1.883937
1.883934
1.883931
1.883928
1.883925
1.883922
1.883918
1.883915
1.883912
1.883909
1.883906
1.883903
1.883900
1.883896
1.883893
1.883890
1.883887
1.883884
1.883881
1.883878
1.883874
1.883871
1.883868
1.883865
1.883862
1.883859
1.883856
1.883852
1.883849
1.883846
1.883843
1.883840
1.883837
1.883834
1.883830
1.883827
1.883824
1.883821
1.883818
1.883815
1.883812
1.883808
1.883805
1.883802
1.883799
1.883796
1.883793
1.883790
1.883787
1.883783
1.883780
1.883777
1.883774
1.883771
1.883768
1.883765
1.883761
1.883758
1.883755
1.883752
1.883749
1.883746
1.883743
1.883740
1.883736
1.883733
1.883730
1.883727
1.883724
1.883721
1.883718
1.883715
1.883711
1.883708
1.883705
1.883702
1.883699
1.883696
1.883693
1.883690
1.883686
1.883683
1.883680
1.883677
1.883674
1.883671
1.883668
1.883665
1.883661
1.883658
1.883655
1.883652
1.883649
1.883646
1.883643
1.883640
1.883637
1.883633
1.883630
1.883627
1.883624
1.883621
1.883618
1.883615
1.883612
1.883608
1.883605
1.883602
1.883599
1.883596
1.883593
1.883590
1.883587
1.883584
1.883580
1.883577
1.883574
1.883571
1.883568
1.883565
1.883562
1.883559
1.883556
1.883552
1.883549
1.883546
1.883543
1.883540
1.883537
1.883534
1.883531
1.883528
1.883524
1.883521
1.883518
1.883515
1.883512
1.883509
1.883506
1.883503
1.883500
1.883496
1.883493
1.883490
1.883487
1.883484
1.883481
1.883478
1.883475
1.883472
1.883469
1.883465
1.883462
1.883459
1.883456
1.883453
1.883450
1.883447
1.883444
1.883441
1.883438
1.883434
1.883431
1.883428
1.883428
