-2.715918
0.225322
0.225022
0.224725
0.224427
0.224129
0.223830
0.223528
0.223223
0.222914
0.222601
0.222282
0.221956
0.221624
0.221283
0.220934
0.220574
0.220204
0.219821
0.219426
0.219015
0.218589
0.218146
0.217684
0.217200
0.216693
0.216162
0.215602
0.215011
0.214386
0.213724
0.213021
0.212271
0.211471
0.210615
0.209697
0.208711
0.207650
0.206506
0.205271
0.203937
0.202495
0.200935
0.199248
0.197424
0.195453
0.193326
0.191034
0.188567
0.185919
0.183081
0.180049
0.176817
0.173382
0.169742
0.165897
0.161847
0.157596
0.153146
0.148503
0.143673
0.138664
0.133483
0.128141
0.122645
0.117006
0.111234
0.105339
0.099332
0.093221
0.087018
0.080731
0.074369
0.067941
0.061455
0.054918
0.048337
0.041720
0.035071
0.028397
0.021703
0.014993
0.008271
0.001542
-0.005192
-0.011926
-0.018658
-0.025386
-0.032107
-0.038819
-0.045520
-0.052209
-0.058883
-0.065541
-0.072182
-0.078805
-0.085409
-0.091992
-0.098554
-0.105093
-0.105093
-0.111610
-0.118103
-0.124571
-0.131015
-0.137433
-0.143824
-0.150189
-0.156526
-0.162836
-0.169118
-0.175370
-0.181594
-0.187788
-0.193953
-0.200087
-0.206191
-0.212263
-0.218305
-0.224315
-0.230293
-0.236240
-0.242154
-0.248035
-0.253884
-0.259699
-0.265482
-0.271231
-0.276946
-0.282628
-0.288276
-0.293889
-0.299469
-0.305014
-0.310525
-0.316002
-0.321444
-0.326851
-0.332223
-0.337561
-0.342864
-0.348133
-0.353366
-0.358565
-0.363729
-0.368859
-0.373953
-0.379014
-0.384039
-0.389030
-0.393987
-0.398910
-0.403798
-0.408653
-0.413473
-0.418260
-0.423013
-0.427733
-0.432419
-0.437073
-0.441693
-0.446281
-0.450836
-0.455360
-0.459851
-0.464310
-0.468738
-0.473134
-0.477499
-0.481834
-0.486138
-0.490412
-0.494655
-0.498869
-0.503054
-0.507209
-0.511335
-0.515433
-0.519503
-0.523544
-0.527558
-0.531545
-0.535504
-0.539437
-0.543343
-0.547223
-0.551078
-0.554907
-0.558711
-0.562490
-0.566245
-0.569976
-0.573683
-0.577366
-0.581027
-0.584665
-0.588280
-0.591873
-0.595445
-0.598995
-0.598995
-0.602525
-0.606033
-0.609522
-0.612990
-0.616439
-0.619869
-0.623279
-0.626672
-0.630046
-0.633402
-0.636741
-0.640063
-0.643368
-0.646657
-0.649930
-0.653187
-0.656429
-0.659657
-0.662869
-0.666068
-0.669253
-0.672425
-0.675583
-0.678729
-0.681863
-0.684985
-0.688095
-0.691195
-0.694284
-0.697362
-0.700431
-0.703490
-0.706540
-0.709581
-0.712614
-0.715639
-0.718656
-0.721667
-0.724670
-0.727668
-0.730659
-0.733645
-0.736626
-0.739602
-0.742574
-0.745543
-0.748507
-0.751469
-0.754429
-0.757386
-0.760342
-0.763296
-0.766249
-0.769203
-0.772156
-0.775110
-0.778064
-0.781020
-0.783978
-0.786939
-0.789902
-0.792868
-0.795838
-0.798812
-0.801791
-0.804774
-0.807764
-0.810759
-0.813760
-0.816769
-0.819785
-0.822808
-0.825840
-0.828881
-0.831931
-0.834990
-0.838060
-0.841140
-0.844232
-0.847335
-0.850449
-0.853577
-0.856717
-0.859870
-0.863037
-0.866218
-0.869414
-0.872625
-0.875851
-0.879093
-0.882351
-0.885626
-0.888918
-0.892227
-0.895553
-0.898898
-0.902261
-0.905642
-0.909043
-0.909043
-0.912462
-0.915901
-0.919359
-0.922837
-0.926335
-0.929853
-0.933392
-0.936950
-0.940529
-0.944129
-0.947749
-0.951390
-0.955050
-0.958732
-0.962433
-0.966155
-0.969896
-0.973657
-0.977438
-0.981237
-0.985056
-0.988893
-0.992748
-0.996621
-1.000511
-1.004418
-1.008341
-1.012279
-1.016233
-1.020201
-1.024182
-1.028177
-1.032183
-1.036201
-1.040230
-1.044269
-1.048316
-1.052371
-1.056434
-1.060502
-1.064576
-1.068653
-1.072734
-1.076816
-1.080899
-1.084982
-1.089062
-1.093140
-1.097214
